tree
version=v4
num_class=1
num_tree_per_iteration=1
label_index=0
max_feature_idx=47
objective=regression
feature_names=file step_index entry_index status select_context select_type select_option_count yourIndex turn turnActionCount firstPlayer energyAttached supporterPlayed stadiumPlayed retreated result p0_deckCount p0_discardCount p0_prizeCount p0_handCount p0_benchCount p0_activeExists p0_activeHp p0_activeMaxHp p0_activeEnergyCount p0_activeToolCount p0_activeAppearThisTurn p0_poisoned p0_burned p0_asleep p0_paralyzed p0_confused p1_deckCount p1_discardCount p1_prizeCount p1_handCount p1_benchCount p1_activeExists p1_activeHp p1_activeMaxHp p1_activeEnergyCount p1_activeToolCount p1_activeAppearThisTurn p1_poisoned p1_burned p1_asleep p1_paralyzed p1_confused
feature_infos=none none [0:1] none none none none [0:1] [0:117] [1:11] [-1:0] [0:1] [0:1] [0:1] [0:1] none [0:60] [0:31] [0:6] [0:31] [0:5] [0:1] [0:430] [0:430] [0:3] [0:1] [0:1] none none none none none [0:60] [0:35] [0:6] [0:24] [0:5] [0:1] [0:430] [0:430] [0:4] [0:1] [0:1] none none none none none
tree_sizes=2173 2353 2142 2365 2337 2167 2334 2357 2351 2366 2166 2335 2339 2343 2349 2328 2350 2331 2162 2346 2330 2324 2083 1895 2345 2351 2324 2344 2341 2337 2351 2341 2331 1796 2340 2372 2343 2089 1982 2342 2335 2354 2343 2360 2354 2338 1899 2360 2249 2338 2355 1899 1796 2351 2361 2337 2342 2349 1722 1984 2351 2351 2273 2335 2067 2344 2353 2319 2067 2345 2363 2334 2246 2351 2074 2352 1805 1721 2071 2351 2355 2337 1538 2071 2350 2339 2339 1893 2345 2160 2345 1801 1797

Tree=0
num_leaves=24
num_cat=0
split_feature=9 23 16 23 16 17 19 8 36 38 22 16 40 19 17 8 8 8 8 16 8 16 16
split_gain=0.0134146 0.011634 0.00917782 0.0165338 0.0165756 0.00843445 0.00627617 0.00615922 0.00540614 0.00346396 0.00317706 0.00544634 0.00289174 0.00269433 0.00168592 0.00158988 0.000846945 0.000268832 0.000192005 9.09451e-05 5.2246e-05 3.54166e-05 2.68766e-05
threshold=1.5000000000000002 50.000000000000007 39.500000000000007 115.00000000000001 43.500000000000007 15.500000000000002 8.5000000000000018 35.500000000000007 1.0000000180025095e-35 95.000000000000014 325.00000000000006 30.500000000000004 1.0000000180025095e-35 9.5000000000000018 19.500000000000004 40.500000000000007 18.500000000000004 61.500000000000007 8.5000000000000018 44.500000000000007 24.500000000000004 18.500000000000004 44.500000000000007
decision_type=2 2 2 2 2 2 2 2 2 2 2 2 2 2 2 2 2 2 2 2 2 2 2
left_child=7 15 5 6 -5 10 8 16 -4 -6 12 -12 -3 -7 17 19 18 -9 22 -2 -18 -19 -1
right_child=1 2 3 4 9 13 -8 14 -10 -11 11 -13 -14 -15 -16 -17 20 21 -20 -21 -22 -23 -24
leaf_value=0.16892842334611491 0.16889067742492198 0.16884073629835752 0.16860554408462947 0.16793615741471885 0.16840117739125279 0.1683546678773109 0.16846828990274235 0.16881144231984324 0.16887835545606378 0.16876895363732899 0.16881239739987025 0.16848710597465405 0.16870303004716156 0.16863565687793242 0.16862690594404128 0.16878031074304703 0.16888086449786816 0.16873502284010236 0.16890607429646101 0.16893691602822108 0.16885677973392718 0.16877133453174009 0.16894392874494016
leaf_weight=74 20 309 45 25 20 21 32 114 82 21 50 35 76 39 28 36 62 22 129 114 86 21 113
leaf_count=74 20 309 45 25 20 21 32 114 82 21 50 35 76 39 28 36 62 22 129 114 86 21 113
internal_value=0.168798 0.168749 0.168715 0.168608 0.168342 0.168761 0.168719 0.168867 0.168782 0.16859 0.168789 0.168678 0.168814 0.168537 0.16877 0.168898 0.168906 0.168795 0.168925 0.16893 0.168867 0.168753 0.168938
internal_weight=1574 925 755 225 66 530 159 649 127 41 470 85 385 60 185 170 464 157 316 134 148 43 187
internal_count=1574 925 755 225 66 530 159 649 127 41 470 85 385 60 185 170 464 157 316 134 148 43 187
is_linear=0
shrinkage=1


Tree=1
num_leaves=24
num_cat=0
split_feature=33 9 23 17 20 35 36 9 22 22 24 16 17 32 33 17 32 17 32 32 32 32 9
split_gain=0.0185715 0.0126955 0.00986337 0.00823747 0.0081611 0.00649647 0.00646397 0.00619406 0.00553705 0.0040862 0.00312231 0.00290511 0.0024248 0.000987208 0.000488913 0.000336597 0.000284681 0.000157921 7.27255e-05 5.99216e-05 5.85037e-05 2.84662e-05 2.21873e-05
threshold=19.500000000000004 1.5000000000000002 50.000000000000007 1.0000000180025095e-35 1.0000000180025095e-35 8.5000000000000018 1.0000000180025095e-35 2.5000000000000004 325.00000000000006 125.00000000000001 1.0000000180025095e-35 33.500000000000007 26.500000000000004 27.500000000000004 5.5000000000000009 19.500000000000004 42.500000000000007 12.500000000000002 45.500000000000007 27.500000000000004 36.500000000000007 25.500000000000004 4.5000000000000009
decision_type=2 2 2 2 2 2 2 2 2 2 2 2 2 2 2 2 2 2 2 2 2 2 2
left_child=1 11 13 4 9 -2 -6 8 -5 -4 -9 14 15 -3 19 -7 20 21 -15 -1 -13 -16 -20
right_child=5 2 3 7 6 12 -8 10 -10 -11 -12 16 -14 18 17 -17 -18 -19 22 -21 -22 -23 -24
leaf_value=3.3586265407003727e-05 -0.00053619542732261701 -1.5963027734592881e-05 3.6310156664023032e-05 -6.971945983937273e-05 -0.00069854712291132846 -4.2967266247918207e-05 -0.00020231492152171477 4.8829955043559708e-05 -0.00030587976177457674 -0.00029123989641666415 -0.00012127241872034435 8.1915882262190745e-05 -0.000352986886758696 9.0893997810780993e-05 3.8167998543401525e-06 -0.00014228315474704289 0.00013737996205369512 -4.1847432439681145e-05 0.000137191949585496 6.6838283285809062e-05 0.00010775150670467512 2.360565913563949e-05 0.00011610782221676065
leaf_weight=28 26 23 39 230 21 21 21 254 48 25 52 47 22 20 54 39 164 24 86 96 138 63 26
leaf_count=28 26 23 39 230 21 21 21 254 48 25 52 47 22 20 54 39 164 24 86 96 138 63 26
internal_value=-7.65685e-06 1.1076e-05 -3.92142e-05 -7.16001e-05 -0.000233802 -0.000260724 -0.000450431 -4.21594e-05 -0.000110495 -9.16391e-05 1.99237e-05 8.02865e-05 -0.000173379 0.000104955 3.03616e-05 -0.000107523 0.000118195 4.886e-06 0.000126024 5.93298e-05 0.000101188 1.44723e-05 0.000132297
internal_weight=1567 1459 845 690 106 108 42 584 278 64 306 614 82 155 265 60 349 141 132 124 185 117 112
internal_count=1567 1459 845 690 106 108 42 584 278 64 306 614 82 155 265 60 349 141 132 124 185 117 112
is_linear=0
shrinkage=0.02


Tree=2
num_leaves=22
num_cat=0
split_feature=23 38 23 17 17 40 35 16 8 35 8 35 8 8 8 8 8 16 35 16 8
split_gain=0.0113606 0.0189144 0.0105843 0.00389997 0.00316301 0.00347076 0.00677909 0.00245806 0.00363587 0.00224792 0.00341876 0.00198328 0.00179393 0.00114724 0.00079182 0.000441138 0.000136923 0.000354015 5.79273e-05 6.47611e-06 4.7554e-06
threshold=115.00000000000001 35.000000000000007 145.00000000000003 19.500000000000004 10.500000000000002 1.0000000180025095e-35 6.5000000000000009 41.500000000000007 9.5000000000000018 18.500000000000004 39.500000000000007 10.500000000000002 16.500000000000004 8.5000000000000018 33.500000000000007 102.50000000000001 1.5000000000000002 45.500000000000007 6.5000000000000009 46.500000000000007 8.5000000000000018
decision_type=2 2 2 2 2 2 2 2 2 2 2 2 2 2 2 2 2 2 2 2 2
left_child=4 -2 18 9 5 7 -7 8 13 11 -11 -4 20 -1 -10 -5 19 -18 -3 -9 -8
right_child=1 2 3 15 -6 6 12 16 14 10 -12 -13 -14 -15 -16 -17 17 -19 -20 -21 -22
leaf_value=-3.4156028943305668e-05 -0.00064441421785713397 -0.00035805754629629 -2.4015678533359131e-05 -0.00013747408273903763 -0.00015671788604608824 -0.00035705956672741609 0.00011574981245212257 0.00014200533926486968 8.6055936165453496e-05 1.8019384084861184e-05 -0.00033603479397061167 4.8294645397107836e-05 -0.00011148973318215991 -0.000243449634173885 3.6917472798300938e-06 -0.00025584899820387365 0.00012019641447153425 5.3088657790794968e-05 -0.00031257311192651592 0.00012979277333766785 0.00010324110021634448
leaf_weight=22 21 21 379 34 27 22 20 20 199 24 20 253 21 20 61 20 147 40 24 132 31
leaf_count=22 21 21 379 34 27 22 20 20 199 24 20 253 21 20 61 20 147 40 24 132 31
internal_value=6.84326e-07 -5.21563e-05 -3.6108e-05 -1.77572e-05 5.58826e-05 6.36924e-05 -4.97992e-05 8.03355e-05 3.88407e-05 -4.69176e-06 -0.000142914 4.93133e-06 4.40859e-05 -0.00013382 6.6732e-05 -0.000181317 0.000117301 0.000105842 -0.000333799 0.0001314 0.000108146
internal_weight=1558 796 775 730 762 735 94 641 302 676 44 632 72 42 260 54 339 187 45 152 51
internal_count=1558 796 775 730 762 735 94 641 302 676 44 632 72 42 260 54 339 187 45 152 51
is_linear=0
shrinkage=0.02


Tree=3
num_leaves=24
num_cat=0
split_feature=8 40 35 8 23 23 36 20 35 17 16 23 7 16 16 8 8 16 8 7 8 8 16
split_gain=0.00928941 0.00698207 0.00516836 0.00489448 0.00349545 0.00682539 0.0103885 0.00314482 0.00250573 0.00384385 0.00251047 0.00228672 0.00163954 0.00115099 0.00169633 0.000870585 0.00323705 0.000595355 0.000535382 0.000416077 0.000244493 0.000181571 0.000389113
threshold=38.500000000000007 1.0000000180025095e-35 18.500000000000004 90.500000000000014 95.000000000000014 145.00000000000003 1.0000000180025095e-35 1.0000000180025095e-35 9.5000000000000018 1.5000000000000002 43.500000000000007 325.00000000000006 1.0000000180025095e-35 41.500000000000007 40.500000000000007 47.500000000000007 49.500000000000007 15.500000000000002 18.500000000000004 1.0000000180025095e-35 22.500000000000004 1.5000000000000002 45.500000000000007
decision_type=2 2 2 2 2 2 2 2 2 2 2 2 2 2 2 2 2 2 2 2 2 2 2
left_child=1 4 3 15 13 6 -6 -8 9 10 -3 18 -13 14 20 -2 -17 -18 -7 -5 -1 -15 -23
right_child=2 8 -4 19 5 11 7 -9 -10 -11 -12 12 -14 21 -16 16 17 -19 -20 -21 -22 22 -24
leaf_value=9.3789381078547915e-05 2.140893883382761e-05 -0.00031108090692820651 -0.00031916183564105943 -0.00031044424470999966 -0.00055238985922187564 0.00011822967714674415 -0.00021533052669838072 0.00010249873905470877 -0.00026501731931007116 0.00010451972227249491 -4.9801180139183999e-05 -8.6109582484493946e-05 6.5180156314602995e-05 0.00013060810631335094 -6.2948932289145888e-05 -0.00026920923553916512 -9.1012493392051338e-05 -1.2434594892743749e-05 5.7404902595866478e-05 -0.00018731260095678626 4.7542132070607766e-05 0.00011727689963872316 4.4704991607711867e-05
leaf_weight=144 101 24 31 23 20 105 20 33 29 38 38 69 49 144 40 24 47 215 129 21 67 122 39
leaf_count=144 101 24 31 23 20 105 20 33 29 38 38 69 49 144 40 24 47 215 129 21 67 122 39
internal_value=5.6246e-06 3.69905e-05 -6.97349e-05 -5.17947e-05 5.518e-05 1.19992e-05 -0.000163999 -1.74368e-05 -0.000101334 -5.38664e-05 -0.000150942 4.84989e-05 -2.32859e-05 8.81868e-05 5.64663e-05 -2.90691e-05 -4.68953e-05 -2.65306e-05 8.46981e-05 -0.000251677 7.91042e-05 0.000114291 9.96974e-05
internal_weight=1572 1110 462 431 981 425 73 53 129 100 62 352 118 556 251 387 286 262 234 44 211 305 161
internal_count=1572 1110 462 431 981 425 73 53 129 100 62 352 118 556 251 387 286 262 234 44 211 305 161
is_linear=0
shrinkage=0.02


Tree=4
num_leaves=24
num_cat=0
split_feature=8 35 9 35 9 8 16 16 38 8 8 8 32 35 32 8 8 8 8 32 9 24 32
split_gain=0.0162803 0.0113256 0.00645832 0.0152399 0.00556286 0.0102693 0.0148113 0.00434103 0.00382845 0.00144934 0.00251351 0.00108281 0.00099087 0.00415407 0.000174825 0.000146412 0.00010783 4.24471e-05 2.15493e-05 2.03093e-05 1.96856e-05 1.39735e-05 6.51903e-06
threshold=38.500000000000007 18.500000000000004 1.5000000000000002 5.5000000000000009 2.5000000000000004 12.500000000000002 43.500000000000007 5.5000000000000009 35.000000000000007 47.500000000000007 49.500000000000007 18.500000000000004 45.500000000000007 6.5000000000000009 42.500000000000007 24.500000000000004 34.500000000000007 25.500000000000004 9.5000000000000018 44.500000000000007 4.5000000000000009 1.0000000180025095e-35 39.500000000000007
decision_type=2 2 2 2 2 2 2 2 2 2 2 2 2 2 2 2 2 2 2 2 2 2 2
left_child=2 7 11 -4 5 6 -5 -2 -9 21 -11 14 13 -6 18 -7 17 -13 -1 -16 -14 -10 -20
right_child=1 -3 3 4 12 15 -8 8 9 10 -12 16 20 -15 19 -17 -18 -19 22 -21 -22 -23 -24
leaf_value=0.00011586925731255459 -0.00029202739845084793 -0.00050447396974609903 -0.00051695522238415757 -0.00037101322752226829 -0.00021867512481375819 9.3294791877269749e-05 3.6085199745785861e-05 -0.00031977192376091683 1.4502873473632039e-05 -0.00026227704707499315 -4.8150720669732764e-05 7.4104576529016795e-05 0.00012852527014911176 7.5853796265368847e-05 0.00012259595282375813 5.0743691934017853e-05 1.8882213469343977e-05 5.2157062072572961e-05 9.4557874621107021e-05 0.00013780513936180179 0.00010819309167563915 2.9661636705183097e-05 0.00010490093619013444
leaf_weight=39 34 26 22 71 21 83 72 21 71 24 254 71 80 218 50 53 26 70 65 118 25 37 39
leaf_count=39 34 26 22 71 21 83 72 21 71 24 254 71 80 218 50 53 26 70 65 118 25 37 39
internal_value=4.01956e-07 -9.88399e-05 4.16717e-05 3.82733e-07 1.86515e-05 -4.77094e-05 -0.000166041 -7.49249e-05 -5.67886e-05 -4.24812e-05 -6.66364e-05 9.73859e-05 7.24733e-05 4.99747e-05 0.000119444 7.67124e-05 5.63075e-05 6.32086e-05 0.000103191 0.000133279 0.000123684 1.96962e-05 9.84365e-05
internal_weight=1590 467 1123 645 623 279 143 441 407 386 278 478 344 239 311 136 167 141 143 168 105 108 104
internal_count=1590 467 1123 645 623 279 143 441 407 386 278 478 344 239 311 136 167 141 143 168 105 108 104
is_linear=0
shrinkage=0.02


Tree=5
num_leaves=22
num_cat=0
split_feature=8 35 8 24 8 32 8 36 35 8 22 17 32 17 16 32 22 32 8 32 20
split_gain=0.0162659 0.00977736 0.00792061 0.00356292 0.00577063 0.00296427 0.00384575 0.0101234 0.00290366 0.00198413 0.00197303 0.00175733 0.00191475 0.00133075 0.00113768 0.00110563 0.000767758 8.06037e-05 1.672e-05 2.34499e-06 1.83465e-06
threshold=38.500000000000007 18.500000000000004 90.500000000000014 1.0000000180025095e-35 5.5000000000000009 45.500000000000007 3.5000000000000004 1.0000000180025095e-35 11.500000000000002 22.500000000000004 20.000000000000004 10.500000000000002 33.500000000000007 15.500000000000002 31.500000000000004 31.500000000000004 125.00000000000001 26.500000000000004 1.0000000180025095e-35 50.000000000000007 1.0000000180025095e-35
decision_type=2 2 2 2 2 2 2 2 2 2 2 2 2 2 2 2 2 2 2 2 2
left_child=3 2 11 5 -5 6 7 -1 -4 -6 -8 14 13 -13 17 -12 18 -2 19 -7 -20
right_child=1 -3 8 4 9 16 10 -9 -10 -11 15 12 -14 -15 -16 -17 -18 -19 20 -21 -22
leaf_value=-0.00042415797263383869 -4.6989060653383307e-06 -0.00045996140279125293 -0.00050330702890641994 -0.00037999310391023758 0.00010161359706339805 0.00012077183239971814 -9.7519330318189345e-05 0.00011676492139456733 -0.00018276860471814872 -0.00014563660181738668 1.0539120287376136e-05 -1.7403987461036126e-05 -0.0002574492803978501 -0.00014064363459239534 -0.00012671037768962346 6.8131549190729855e-05 1.3346229679882527e-05 2.2688828886888936e-05 0.00013416045820340515 0.00012632280826154683 0.00014098571653923264
leaf_weight=25 69 28 20 20 37 46 36 31 26 20 176 91 24 57 27 550 26 114 50 90 23
leaf_count=25 69 28 20 20 37 46 36 31 26 20 176 91 24 57 27 550 26 114 50 90 23
internal_value=2.94232e-06 -9.78841e-05 -7.41968e-05 4.36298e-05 -8.76999e-05 5.32332e-05 3.52473e-05 -0.000124719 -0.000322133 1.48591e-05 4.70033e-05 -4.43406e-05 -9.17397e-05 -6.48679e-05 -5.51847e-06 5.41697e-05 0.000115839 1.23623e-05 0.00012859 0.000124445 0.000136311
internal_weight=1586 456 428 1130 77 1053 818 56 46 57 762 382 172 148 210 726 235 183 209 136 73
internal_count=1586 456 428 1130 77 1053 818 56 46 57 762 382 172 148 210 726 235 183 209 136 73
is_linear=0
shrinkage=0.02


Tree=6
num_leaves=24
num_cat=0
split_feature=17 39 8 8 35 16 22 2 39 19 22 19 19 22 8 8 8 16 16 32 32 19 2
split_gain=0.0136975 0.00458725 0.00627306 0.00369842 0.00360657 0.00807488 0.00206455 0.00222493 0.00312073 0.00181094 0.00196553 0.00160065 0.00112362 0.000874718 0.000222549 0.00017125 5.11986e-05 3.35115e-05 1.25142e-05 1.20034e-05 1.99066e-06 1.62946e-06 2.51248e-06
threshold=9.5000000000000018 95.000000000000014 90.500000000000014 1.5000000000000002 5.5000000000000009 43.500000000000007 315.00000000000006 1.0000000180025095e-35 320.00000000000006 6.5000000000000009 20.000000000000004 9.5000000000000018 10.500000000000002 265.00000000000006 60.500000000000007 29.500000000000004 43.500000000000007 19.500000000000004 46.500000000000007 30.500000000000004 50.000000000000007 6.5000000000000009 1.0000000180025095e-35
decision_type=2 2 2 2 2 2 2 2 2 2 2 2 2 2 2 2 2 2 2 2 2 2 2
left_child=3 -2 12 18 5 16 9 8 -8 -6 -11 -4 14 -14 19 -9 -5 -16 -1 -3 -20 22 -22
right_child=1 2 11 4 6 -7 7 15 -10 10 -12 -13 13 -15 17 -17 -18 -19 20 -21 21 -23 -24
leaf_value=0.00013654954731464385 -0.00038284917691489679 5.2836202828782717e-06 -0.00042208149867213287 6.4950295990066868e-05 -0.00010986828229700526 -0.0003894058080321109 -0.00020349209764104921 8.2757355800519385e-05 2.6391850040619665e-05 -9.8614246185336793e-05 5.4394152791309134e-05 -0.00019089362733066084 -2.8626481026826105e-05 -0.00019141217278722194 -5.0494619078833507e-05 1.9169595618677703e-05 2.3639020494426535e-05 -2.339042374337118e-05 0.0001186150439704458 2.3390823134832317e-05 0.00012588319368660449 0.00012696741174000341 0.00011663278362349323
leaf_weight=29 25 27 23 21 30 27 51 36 44 35 829 25 23 31 37 32 28 36 45 32 24 37 23
leaf_count=29 25 27 23 21 30 27 51 36 44 35 829 25 23 31 37 32 28 36 45 32 24 37 23
internal_value=7.39953e-06 -0.000125339 -9.78273e-05 3.40295e-05 2.13883e-05 -0.000111686 3.09565e-05 -3.45041e-05 -9.70195e-05 4.28917e-05 4.81959e-05 -0.000301671 -4.52225e-05 -0.000122078 -1.37818e-05 5.28337e-05 4.13439e-05 -3.71282e-05 0.000124678 1.51045e-05 0.000122009 0.000123828 0.000121356
internal_weight=1550 259 234 1291 1133 76 1057 163 95 894 864 48 186 54 132 68 49 73 158 59 129 84 47
internal_count=1550 259 234 1291 1133 76 1057 163 95 894 864 48 186 54 132 68 49 73 158 59 129 84 47
is_linear=0
shrinkage=0.02


Tree=7
num_leaves=24
num_cat=0
split_feature=33 9 8 17 2 38 36 20 24 8 8 8 32 33 8 33 8 8 33 36 32 9 17
split_gain=0.00996199 0.00908219 0.00654565 0.0133111 0.0106771 0.00463272 0.00421083 0.00366472 0.00291474 0.00252094 0.000337427 0.000327082 0.000218528 0.000110342 0.000107797 4.51224e-05 3.57603e-05 2.58562e-05 1.07676e-05 1.00733e-05 9.52361e-06 8.65007e-06 7.41486e-06
threshold=19.500000000000004 1.5000000000000002 1.5000000000000002 1.0000000180025095e-35 1.0000000180025095e-35 35.000000000000007 1.0000000180025095e-35 1.0000000180025095e-35 1.0000000180025095e-35 23.500000000000004 9.5000000000000018 56.500000000000007 15.500000000000002 25.500000000000004 35.500000000000007 1.0000000180025095e-35 19.500000000000004 64.500000000000014 1.5000000000000002 3.5000000000000004 26.500000000000004 4.5000000000000009 1.0000000180025095e-35
decision_type=2 2 2 2 2 2 2 2 2 2 2 2 2 2 2 2 2 2 2 2 2 2 2
left_child=1 9 21 4 -4 -5 -6 -7 12 10 15 14 13 -2 20 -1 18 -13 -12 -16 -11 -3 -17
right_child=8 2 3 5 6 7 -8 -9 -10 11 16 17 -14 -15 19 22 -18 -19 -20 -21 -22 -23 -24
leaf_value=0.0001315988008476173 -0.00012379121230265429 0.00012091394278209612 -0.00053774835981635586 -0.00030504354555021217 -0.00031207378083111153 -0.00016913968461508653 3.4363625907442638e-05 1.0993139990864974e-05 -0.00036989663573913276 3.9439922547899184e-05 9.8143953739875757e-05 -8.8796318880707503e-06 -6.5960775827988982e-05 -0.00018065310502424835 2.5700849630572804e-05 0.00011991215926228148 7.1110854813352577e-05 -3.9574444540665439e-05 8.5803122940258348e-05 1.1034113557308535e-05 5.4930095959986957e-05 0.00010853247071105627 0.00010743069462478161
leaf_weight=144 43 83 36 21 23 49 36 579 25 20 62 23 20 20 67 33 43 21 52 26 77 31 45
leaf_count=144 43 83 36 21 23 49 36 579 25 20 62 23 20 20 67 33 43 21 52 26 77 31 45
internal_value=4.81792e-06 1.84298e-05 -2.35757e-05 -4.51993e-05 -0.000266311 -1.28332e-05 -0.000100688 -3.06181e-06 -0.000180581 7.72237e-05 0.000109093 2.56067e-05 -0.000123558 -0.000141843 3.69856e-05 0.000124963 8.66526e-05 -2.35294e-05 9.25148e-05 2.16005e-05 5.17362e-05 0.000117547 0.000112711
internal_weight=1579 1471 858 744 95 649 59 628 108 613 379 234 83 63 190 222 157 44 114 93 97 114 78
internal_count=1579 1471 858 744 95 649 59 628 108 613 379 234 83 63 190 222 157 44 114 93 97 114 78
is_linear=0
shrinkage=0.02


Tree=8
num_leaves=24
num_cat=0
split_feature=17 9 23 16 16 39 23 8 17 8 8 9 2 40 33 16 8 8 8 33 8 8 8
split_gain=0.0149424 0.0072737 0.00769781 0.0140756 0.0189249 0.0049058 0.00393607 0.00193601 0.00183334 0.00180401 0.00169733 0.00168768 0.00147738 0.00400563 0.000789772 0.000552621 0.000244346 0.000226862 0.000207086 4.75973e-05 4.28606e-05 3.63335e-05 2.23072e-05
threshold=10.500000000000002 1.5000000000000002 115.00000000000001 39.500000000000007 43.500000000000007 145.00000000000003 305.00000000000006 1.5000000000000002 19.500000000000004 19.500000000000004 18.500000000000004 2.5000000000000004 1.0000000180025095e-35 1.0000000180025095e-35 1.0000000180025095e-35 4.5000000000000009 34.500000000000007 63.500000000000007 9.5000000000000018 1.0000000180025095e-35 52.500000000000007 57.500000000000007 25.500000000000004
decision_type=2 2 2 2 2 2 2 2 2 2 2 2 2 2 2 2 2 2 2 2 2 2 2
left_child=1 9 7 10 -5 -2 -7 -3 17 18 -4 -12 14 -14 -9 -10 22 21 19 -1 -18 -8 -11
right_child=5 2 3 4 -6 6 8 12 15 16 11 -13 13 -15 -16 -17 20 -19 -20 -21 -22 -23 -24
leaf_value=0.00012921766344723958 -0.00042953570362277044 0.00011469739837473076 9.6680983214786188e-05 -0.0008493946270928496 -7.1791524007435768e-05 -0.00031196629830553907 2.3099398851627483e-05 0.00013754337572970904 -0.00024208503775298597 6.6032183071177813e-05 -0.0001031250015151735 2.4914421247072021e-06 2.5982544325456771e-05 -0.00023115609624167725 3.5305022091713246e-05 -0.00011870293271780576 2.2303800377856185e-05 -5.1603312610192615e-05 9.0570126036952314e-05 0.00011038072118214491 -9.6413196505246957e-06 -1.1200955842858612e-05 4.8776463452919293e-05
leaf_weight=140 22 113 38 21 31 34 30 37 20 62 114 129 111 31 165 53 84 48 133 87 21 21 58
leaf_count=140 22 113 38 21 31 34 30 37 20 62 114 129 111 31 165 53 84 48 133 87 21 21 58
internal_value=4.30092e-06 2.91659e-05 -1.04181e-05 -8.3555e-05 -0.000385824 -0.000145653 -0.000115335 4.28741e-05 -7.6466e-05 8.26214e-05 -2.76191e-05 -4.7057e-05 1.9281e-05 -3.01534e-05 5.40318e-05 -0.000152506 3.81959e-05 -2.03959e-05 0.000110387 0.000121998 1.59148e-05 8.97572e-06 5.76919e-05
internal_weight=1603 1375 790 333 52 228 206 457 172 585 281 243 344 142 202 73 225 99 360 227 105 51 120
internal_count=1603 1375 790 333 52 228 206 457 172 585 281 243 344 142 202 73 225 99 360 227 105 51 120
is_linear=0
shrinkage=0.02


Tree=9
num_leaves=24
num_cat=0
split_feature=33 23 32 23 38 36 33 32 23 38 17 33 35 17 17 17 40 33 2 33 20 38 25
split_gain=0.00907048 0.00593077 0.00423842 0.00736885 0.00544768 0.00777463 0.00401886 0.00239693 0.00225299 0.00259561 0.00157899 0.00226904 0.00160395 0.00133535 0.00110669 0.00170149 0.000914305 0.000868167 0.000714572 0.000600995 0.000196201 9.87632e-06 7.79798e-06
threshold=20.500000000000004 95.000000000000014 41.500000000000007 190.00000000000003 120.00000000000001 1.0000000180025095e-35 1.0000000180025095e-35 28.500000000000004 325.00000000000006 225.00000000000003 10.500000000000002 1.5000000000000002 8.5000000000000018 27.500000000000004 3.5000000000000004 4.5000000000000009 1.0000000180025095e-35 1.0000000180025095e-35 1.0000000180025095e-35 4.5000000000000009 3.5000000000000004 95.000000000000014 1.0000000180025095e-35
decision_type=2 2 2 2 2 2 2 2 2 2 2 2 2 2 2 2 2 2 2 2 2 2 2
left_child=1 6 7 4 5 -4 16 14 20 -10 11 12 -8 18 22 -16 21 -5 -2 -13 -9 -1 -3
right_child=13 2 3 17 -6 -7 10 8 9 -11 -12 19 -14 -15 15 -17 -18 -19 -20 -21 -22 -23 -24
leaf_value=0.00011619445666387354 -0.00026250462094321849 3.162375524490407e-05 -0.00066875246442144824 0.00013886563376420074 -5.0302219784094225e-05 -0.00017648599957200615 2.6100387022527586e-05 8.1241751607093543e-05 2.678425117294494e-05 -0.00013728114217155963 -0.00014516258253424895 8.1914207552638801e-05 -9.6123412910723274e-05 -0.00036654455764662658 -0.00021472978258818079 -5.1662813868310752e-05 -1.9936773127743175e-05 -2.8347658479343292e-05 -0.00010211578309535981 1.7006859301106019e-05 3.916519330232404e-05 0.00013022106246684086 4.8859356071001718e-05
leaf_weight=230 20 21 21 27 36 33 83 135 108 60 25 153 89 21 29 218 21 23 25 91 66 22 21
leaf_count=230 20 21 21 27 36 33 83 135 108 60 25 153 89 21 29 218 21 23 25 91 66 22 21
internal_value=-5.34804e-06 4.67011e-06 -3.27976e-05 -0.000132724 -0.000240875 -0.000367923 4.65458e-05 -1.15367e-05 2.22449e-05 -3.18105e-05 9.21266e-06 1.849e-05 -3.71433e-05 -0.000234855 -5.46696e-05 -7.08083e-05 0.000106853 6.19475e-05 -0.0001734 5.7707e-05 6.74256e-05 0.000117419 4.02416e-05
internal_weight=1578 1512 798 140 90 54 714 658 369 168 441 416 172 66 289 247 273 50 45 244 201 252 42
internal_count=1578 1512 798 140 90 54 714 658 369 168 441 416 172 66 289 247 273 50 45 244 201 252 42
is_linear=0
shrinkage=0.02


Tree=10
num_leaves=22
num_cat=0
split_feature=17 32 38 9 9 17 40 32 22 8 9 8 8 38 22 23 9 9 9 10 18
split_gain=0.0115731 0.00725818 0.0182701 0.00676523 0.00742468 0.0107361 0.00262358 0.00259726 0.00275753 0.00166483 0.000757841 0.000203102 0.000178725 9.7383e-05 3.47258e-05 2.65329e-05 2.06045e-05 4.73386e-06 4.01563e-06 1.17655e-06 2.23033e-07
threshold=14.500000000000002 45.500000000000007 35.000000000000007 1.5000000000000002 2.5000000000000004 1.0000000180025095e-35 1.0000000180025095e-35 13.500000000000002 325.00000000000006 23.500000000000004 2.5000000000000004 35.500000000000007 9.5000000000000018 65.000000000000014 305.00000000000006 115.00000000000001 4.5000000000000009 1.5000000000000002 2.5000000000000004 -1.0000000180025095e-35 5.5000000000000009
decision_type=2 2 2 2 2 2 2 2 2 2 2 2 2 2 2 2 2 2 2 2 2
left_child=1 2 -1 9 5 -5 -6 8 -2 12 14 -11 -4 16 -9 17 18 -15 19 -3 -20
right_child=7 13 3 4 6 -7 -8 10 -10 11 -12 -13 -14 15 -16 -17 -18 -19 20 -21 -22
leaf_value=-0.00058287248769331543 -0.00046306900713326672 0.00011582531034946441 0.00011593369956491358 -0.00047639130015990567 5.7337906778852746e-05 -6.5512797438530986e-05 -7.5986613908851828e-05 -4.3920584907755252e-05 -0.00016425237307945886 4.9030031377246765e-05 -0.00019651636515997478 1.2534793530750148e-05 8.4047836181975309e-05 0.00012529562131907696 -7.6350462622940538e-05 0.00015293871451701438 9.5359338863220598e-05 0.00013535299622971151 0.00010968874394893646 0.00012176640486965576 0.00011217067117935845
leaf_weight=21 21 30 118 28 292 278 74 25 30 101 24 154 174 39 28 28 28 36 30 24 28
leaf_count=21 21 30 118 28 292 278 74 25 30 101 24 154 174 39 28 28 28 36 30 24 28
internal_value=5.86633e-06 2.16149e-05 2.028e-06 1.21042e-05 -3.04045e-05 -0.00010311 3.03816e-05 -0.000176596 -0.000287295 6.4327e-05 -0.000103276 2.69898e-05 9.69332e-05 0.000121565 -6.10534e-05 0.000136325 0.000110705 0.000130123 0.000114541 0.000118466 0.000110887
internal_weight=1611 1483 1240 1219 672 306 366 128 51 547 77 255 292 243 53 103 140 75 112 54 58
internal_count=1611 1483 1240 1219 672 306 366 128 51 547 77 255 292 243 53 103 140 75 112 54 58
is_linear=0
shrinkage=0.02


Tree=11
num_leaves=24
num_cat=0
split_feature=17 9 22 7 11 39 32 32 36 32 22 35 8 22 8 8 17 8 8 33 8 8 39
split_gain=0.0149157 0.00713902 0.00904078 0.00923738 0.0106589 0.00702645 0.00572256 0.00525637 0.00669081 0.00407272 0.00232921 0.00227151 0.00160691 0.000690445 0.000203651 0.000190389 0.000151776 0.000138627 8.902e-05 3.372e-05 3.08788e-05 2.58266e-05 1.77099e-05
threshold=10.500000000000002 1.5000000000000002 325.00000000000006 1.0000000180025095e-35 1.0000000180025095e-35 145.00000000000003 45.500000000000007 43.500000000000007 1.0000000180025095e-35 21.500000000000004 20.000000000000004 13.500000000000002 19.500000000000004 255.00000000000003 35.500000000000007 9.5000000000000018 20.500000000000004 60.500000000000007 1.5000000000000002 1.0000000180025095e-35 52.500000000000007 27.500000000000004 115.00000000000001
decision_type=2 2 2 2 2 2 2 2 2 2 2 2 2 2 2 2 2 2 2 2 2 2 2
left_child=1 12 6 4 -4 -2 7 10 -9 11 -3 13 15 -7 21 19 -15 -11 -8 -1 -16 -14 -20
right_child=5 2 3 -5 -6 9 18 8 -10 17 -12 -13 14 16 20 -17 -18 -19 22 -21 -22 -23 -24
leaf_value=0.00012332721930255906 -0.00045074791727259895 -0.00018533040323139477 -0.00055039261841892243 5.773535197243161e-05 2.0026465739647394e-05 -0.00021973405393073335 0.00010914700775174424 -0.00034723415789080831 2.3723214839559957e-05 1.5367611610970386e-05 1.7109343898651437e-05 -0.0003280787765652349 6.1184923164546491e-05 -5.7160096615552901e-05 2.1770572212214271e-05 8.6959012151055504e-05 -0.0001209506143287227 -3.6186025922421215e-05 0.00013180723413825035 0.00010671586352022918 -5.6676256887537117e-06 4.3079697777732064e-05 0.0001564486133866012
leaf_weight=144 27 24 38 35 20 25 104 41 37 54 431 32 80 25 75 128 37 34 28 74 21 52 20
leaf_count=144 27 24 38 35 20 25 104 41 37 54 431 32 80 25 75 128 37 34 28 74 21 52 20
internal_value=1.34558e-07 2.5651e-05 -1.38245e-05 -0.000198856 -0.000353696 -0.000147294 1.12967e-05 -1.95734e-05 -0.000171267 -0.000107713 6.4312e-06 -0.000184 7.9156e-05 -0.000131006 3.79329e-05 0.00010632 -9.52286e-05 -4.55084e-06 0.000119545 0.000117689 1.57685e-05 5.40526e-05 0.000142074
internal_weight=1586 1352 778 93 58 234 685 533 78 207 455 119 574 87 228 346 62 88 152 218 96 132 48
internal_count=1586 1352 778 93 58 234 685 533 78 207 455 119 574 87 228 346 62 88 152 218 96 132 48
is_linear=0
shrinkage=0.02


Tree=12
num_leaves=24
num_cat=0
split_feature=8 35 9 35 9 22 8 17 38 8 22 11 32 22 32 8 32 22 22 9 8 8 32
split_gain=0.013314 0.00778962 0.0050559 0.00544259 0.00589378 0.0079248 0.00426046 0.00424965 0.00337767 0.00124699 0.00289192 0.000909502 0.000782943 0.000514677 0.000106637 9.31811e-05 2.34884e-05 1.71264e-05 1.89898e-05 1.64954e-05 1.25066e-05 1.16758e-05 6.2423e-06
threshold=38.500000000000007 18.500000000000004 1.5000000000000002 5.5000000000000009 2.5000000000000004 325.00000000000006 12.500000000000002 27.500000000000004 35.000000000000007 47.500000000000007 325.00000000000006 1.0000000180025095e-35 37.500000000000007 125.00000000000001 42.500000000000007 24.500000000000004 26.500000000000004 95.000000000000014 155.00000000000003 3.5000000000000004 9.5000000000000018 19.500000000000004 44.500000000000007
decision_type=2 2 2 2 2 2 2 2 2 2 2 2 2 2 2 2 2 2 2 2 2 2 2
left_child=2 7 12 -4 5 6 -5 8 -2 19 -11 13 15 -6 20 21 -17 22 -19 -10 -14 -1 -16
right_child=1 -3 3 4 11 -7 -8 -9 9 10 -12 -13 14 -15 17 16 -18 18 -20 -21 -22 -23 -24
leaf_value=7.7685589755052017e-05 -0.00030524521343431845 -0.00039672492443764161 -0.0002872963856905699 -9.0206552596230598e-05 9.5613368544890251e-05 -0.00036129429041951273 7.6549056898204425e-05 -0.00033199839658387334 2.3642271101062401e-05 -3.6027883291542792e-05 -0.00023386864375103924 -3.3056376822998806e-05 0.00010307491364839831 3.554817593938328e-05 0.00010672144747028748 2.6819193490155157e-05 4.8230311816983059e-05 0.00013907801946280178 0.00011513055875324287 4.5013892794604941e-06 8.9272630455739367e-05 6.3269714570858261e-05 0.00011664076480841222
leaf_weight=38 20 31 25 140 229 30 109 23 83 226 34 31 38 76 36 32 57 27 26 23 85 55 86
leaf_count=38 20 31 25 140 229 30 109 23 83 226 34 31 38 76 36 32 57 27 26 23 85 55 86
internal_value=2.15677e-06 -9.10621e-05 3.87785e-05 1.97823e-06 1.37374e-05 -5.42075e-05 -1.72091e-05 -6.78945e-05 -5.21578e-05 -3.83279e-05 -6.18994e-05 7.01559e-05 8.78455e-05 8.06463e-05 0.000107807 5.51606e-05 4.05319e-05 0.000117838 0.00012733 1.94891e-05 9.35368e-05 6.91601e-05 0.000113714
internal_weight=1560 440 1120 640 615 279 249 409 386 366 260 336 480 305 298 182 89 175 53 106 123 93 122
internal_count=1560 440 1120 640 615 279 249 409 386 366 260 336 480 305 298 182 89 175 53 106 123 93 122
is_linear=0
shrinkage=0.02


Tree=13
num_leaves=24
num_cat=0
split_feature=9 22 38 32 9 16 17 32 40 22 8 8 22 32 32 17 19 8 8 8 33 33 9
split_gain=0.014876 0.0103841 0.0193596 0.0175028 0.0170848 0.0107125 0.00602271 0.00595913 0.00348964 0.00347292 0.00322062 0.00285261 0.00213369 0.00161154 0.00264532 0.00101764 0.00049857 0.000389638 0.000182562 8.13893e-05 4.02374e-05 3.50169e-05 3.40349e-05
threshold=1.5000000000000002 85.000000000000014 35.000000000000007 41.500000000000007 2.5000000000000004 43.500000000000007 8.5000000000000018 21.500000000000004 1.0000000180025095e-35 20.000000000000004 27.500000000000004 49.500000000000007 325.00000000000006 45.500000000000007 44.500000000000007 16.500000000000004 7.5000000000000009 9.5000000000000018 55.500000000000007 19.500000000000004 5.5000000000000009 1.0000000180025095e-35 4.5000000000000009
decision_type=2 2 2 2 2 2 2 2 2 2 2 2 2 2 2 2 2 2 2 2 2 2 2
left_child=10 7 -3 6 5 -5 12 -2 13 -10 17 -8 -4 14 -9 18 -11 21 20 -19 -12 -1 -15
right_child=1 2 3 4 -6 -7 11 8 9 16 15 -13 -14 22 -16 -17 -18 19 -20 -21 -22 -23 -24
leaf_value=0.00011894739849170796 -0.00030521789517914168 -0.00070658167056866328 5.4993132729861261e-05 -0.00094365552533417943 7.4937874106345353e-06 -0.00031951981342651629 -0.00032662144304984917 4.2578164830601186e-05 -0.00029357001092284916 -6.3686911249533296e-05 4.3483008757572281e-05 -0.00010391804282715933 -7.5893865280922407e-05 0.00011473906093410082 -0.00018408608764571989 -0.00010072043983999527 7.7532073295174091e-05 8.4102607744511307e-05 -1.2366524503039894e-05 5.8598900213837627e-05 2.2259697407207567e-05 0.00010220230650156737 8.8165289052994926e-05
leaf_weight=133 23 22 167 22 27 22 28 197 25 20 55 129 71 98 23 33 20 131 56 81 102 80 24
leaf_count=133 23 22 167 22 27 22 28 197 25 20 55 129 71 98 23 33 20 131 56 81 102 80 24
internal_value=-1.13593e-05 -6.36773e-05 -0.000126819 -9.94484e-05 -0.000388557 -0.000631588 -4.74821e-05 7.98129e-06 2.56805e-05 -0.000108651 6.02174e-05 -0.000143636 1.5947e-05 5.12114e-05 1.88814e-05 2.62502e-06 6.92258e-06 9.35533e-05 1.86363e-05 7.43583e-05 2.96946e-05 0.000112658 0.000109511
internal_weight=1589 918 488 466 71 44 395 430 407 65 671 157 238 342 220 246 40 425 213 212 157 213 122
internal_count=1589 918 488 466 71 44 395 430 407 65 671 157 238 342 220 246 40 425 213 212 157 213 122
is_linear=0
shrinkage=0.02


Tree=14
num_leaves=24
num_cat=0
split_feature=9 9 24 14 23 8 33 36 38 8 32 33 32 8 8 8 40 23 8 32 8 33 8
split_gain=0.0152948 0.0099038 0.00801458 0.00853513 0.00776123 0.0139766 0.00605236 0.00568616 0.00979689 0.00438583 0.0041848 0.00376902 0.00577329 0.00374092 0.00325396 0.00171546 0.0012506 0.00316325 0.000838764 0.000828183 0.000494387 0.000204476 0.000121576
threshold=1.5000000000000002 2.5000000000000004 1.0000000180025095e-35 1.0000000180025095e-35 95.000000000000014 11.500000000000002 1.0000000180025095e-35 2.5000000000000004 275.00000000000006 4.5000000000000009 26.500000000000004 1.5000000000000002 24.500000000000004 38.500000000000007 31.500000000000004 64.500000000000014 1.0000000180025095e-35 80.000000000000014 68.500000000000014 45.500000000000007 9.5000000000000018 21.500000000000004 19.500000000000004
decision_type=2 2 2 2 2 2 2 2 2 2 2 2 2 2 2 2 2 2 2 2 2 2 2
left_child=14 4 15 10 6 9 -2 13 -9 -6 -4 -8 -13 -7 20 16 19 -18 -16 -3 -1 -20 -22
right_child=1 2 3 -5 5 7 11 8 -10 -11 -12 12 -14 -15 18 -17 17 -19 21 -21 22 -23 -24
leaf_value=0.00011061637448745037 0.0001318191040984609 3.4252104734951299e-05 -0.00019229279562205193 2.4592877433295486e-05 -0.00033023886249533725 7.6628092012586107e-05 -0.00026624472015019919 5.4569378873566166e-05 -0.00049229708431276342 -0.00073000729772383752 -0.00060142843989888207 -0.00031610305141796177 7.4707050108473701e-05 -0.00015214202709078203 1.9013703553333386e-05 -0.00010812334079459748 -0.00024781395043828525 7.6904111703318762e-05 -4.2116648125020451e-05 0.00010453639388520351 8.1825234742342111e-05 -0.00012077220343053341 5.3475155097799836e-05
leaf_weight=218 55 234 20 37 21 47 45 20 38 23 20 21 54 73 166 34 20 30 39 94 136 20 109
leaf_count=218 55 234 20 37 21 47 45 20 38 23 20 21 54 73 166 34 20 30 39 94 136 20 109
internal_value=-1.23632e-05 -6.73017e-05 -7.05199e-06 -0.000194344 -0.000141514 -0.000220027 -4.1914e-05 -0.000141128 -0.000303722 -0.000539209 -0.000396861 -0.000121542 -3.47198e-05 -6.25404e-05 5.83862e-05 2.79516e-05 4.01912e-05 -5.29831e-05 -4.00764e-06 5.43946e-05 8.87071e-05 -6.87795e-05 6.92123e-05
internal_weight=1574 886 489 77 397 222 175 178 58 44 40 120 75 120 688 412 378 50 225 328 463 59 245
internal_count=1574 886 489 77 397 222 175 178 58 44 40 120 75 120 688 412 378 50 225 328 463 59 245
is_linear=0
shrinkage=0.02


Tree=15
num_leaves=24
num_cat=0
split_feature=8 9 8 17 36 18 9 32 8 8 2 8 8 17 8 32 32 22 36 9 19 8 8
split_gain=0.0131705 0.00983766 0.0063854 0.00970774 0.0105776 0.00824711 0.00485436 0.0023818 0.00232761 0.00170087 0.00148935 0.000470782 0.000256443 0.000118284 5.27366e-05 3.21636e-05 3.1024e-05 2.24048e-05 1.99181e-05 9.66525e-06 1.13721e-05 8.8462e-06 7.15282e-06
threshold=90.500000000000014 1.5000000000000002 1.5000000000000002 1.0000000180025095e-35 1.0000000180025095e-35 5.5000000000000009 2.5000000000000004 7.5000000000000009 23.500000000000004 2.5000000000000004 1.0000000180025095e-35 55.500000000000007 9.5000000000000018 15.500000000000002 35.500000000000007 44.500000000000007 37.500000000000007 95.000000000000014 3.5000000000000004 2.5000000000000004 6.5000000000000009 18.500000000000004 63.500000000000007
decision_type=2 2 2 2 2 2 2 2 2 2 2 2 2 2 2 2 2 2 2 2 2 2 2
left_child=1 8 19 4 9 -5 -7 -2 12 -4 -6 14 15 22 -10 -1 21 -17 -16 -3 -21 -14 -13
right_child=7 2 3 5 10 6 -8 -9 11 -11 -12 13 16 -15 18 17 -18 -19 -20 20 -22 -23 -24
leaf_value=9.886253508739173e-05 -0.00048984061693772678 0.00011369741967190867 -0.0003537679179571569 -0.00042452132351519095 -0.00019590761233121155 -8.2024807166522517e-05 2.7104001415393298e-05 -0.00021324271355600407 4.4485391274596868e-05 -0.00060860597951845692 2.410135741229169e-05 -2.4885960886388568e-06 7.4740782923375564e-05 -6.4865038452394816e-05 2.937034321752128e-05 0.00010915570585480468 8.4088548333440216e-05 0.00012770438566803933 1.0365310495217273e-05 0.00010383979738002917 8.8043398304412575e-05 6.1893414284260772e-05 -1.7185908679423917e-05
leaf_weight=88 20 23 20 21 20 296 363 33 89 22 32 27 36 22 71 88 83 37 32 61 26 53 26
leaf_count=88 20 23 20 21 20 296 363 33 89 22 32 27 36 22 71 88 83 37 32 61 26 53 26
internal_value=-7.64405e-06 3.05171e-06 -4.04171e-05 -6.06811e-05 -0.000251187 -3.43464e-05 -2.19129e-05 -0.000317619 6.1988e-05 -0.000487255 -6.05175e-05 1.6611e-05 9.34572e-05 -2.58808e-05 3.32093e-05 0.000108125 7.52928e-05 0.000114646 2.34659e-05 0.000102167 9.9119e-05 6.70901e-05 -9.6986e-06
internal_weight=1589 1536 884 774 94 680 659 53 652 42 52 267 385 75 192 213 172 125 103 110 87 89 53
internal_count=1589 1536 884 774 94 680 659 53 652 42 52 267 385 75 192 213 172 125 103 110 87 89 53
is_linear=0
shrinkage=0.02


Tree=16
num_leaves=24
num_cat=0
split_feature=9 23 23 40 19 38 9 25 8 8 17 32 17 22 17 32 8 32 17 9 8 23 36
split_gain=0.0092497 0.00661885 0.0246452 0.00535819 0.00518752 0.00457127 0.00453669 0.00794918 0.00296016 0.00243669 0.00179423 0.00129483 0.00433016 0.000951044 0.000826386 0.000466297 0.000106475 9.36547e-05 8.5512e-05 4.16966e-05 3.96328e-05 2.12017e-05 1.62136e-05
threshold=1.5000000000000002 115.00000000000001 145.00000000000003 1.0000000180025095e-35 8.5000000000000018 45.000000000000007 2.5000000000000004 1.0000000180025095e-35 32.500000000000007 50.500000000000007 15.500000000000002 45.500000000000007 1.0000000180025095e-35 20.000000000000004 15.500000000000002 37.500000000000007 54.500000000000007 42.500000000000007 22.500000000000004 4.5000000000000009 23.500000000000004 95.000000000000014 3.5000000000000004
decision_type=2 2 2 2 2 2 2 2 2 2 2 2 2 2 2 2 2 2 2 2 2 2 2
left_child=8 3 -3 9 13 -4 7 -7 15 11 -8 12 -2 -5 16 20 22 -17 -16 -13 -1 -19 -10
right_child=1 2 5 4 -6 6 10 -9 14 -11 -12 19 -14 -15 18 17 -18 21 -20 -21 -22 -23 -24
leaf_value=6.6024933659126253e-05 -0.00018751096050960547 -0.00073330128686907494 -0.00031407221625731499 -0.00039004647312685845 8.3927179942332693e-05 -4.5410618641331129e-05 4.1241825231061796e-05 -0.00034480555940282772 2.9482479617462099e-05 -0.00017359236178344874 -0.00012543640565127135 0.000108787786614682 6.0125675173942598e-05 -0.00019733946534827176 -5.9829154620057947e-05 8.5971587398291934e-05 -1.142736827817743e-05 0.00010449948358880587 -0.00011761359311640263 8.0920754181635049e-05 4.5745413106701831e-05 0.0001194755443456498 1.258959304157708e-05
leaf_weight=89 33 23 27 20 23 155 186 46 73 20 30 105 196 21 21 115 49 121 20 27 68 55 33
leaf_count=89 33 23 27 20 23 155 186 46 73 20 30 105 196 21 21 115 49 121 20 27 68 55 33
internal_value=-1.36995e-06 -4.23464e-05 -9.49415e-05 1.28489e-05 -0.00015648 -6.18733e-05 -4.55439e-05 -0.000113929 5.66588e-05 4.12927e-05 1.80921e-05 5.31976e-05 2.444e-05 -0.000291343 -8.1681e-06 8.50206e-05 1.29531e-05 0.000100008 -8.80167e-05 0.000103088 5.72414e-05 0.00010918 2.42234e-05
internal_weight=1556 912 467 445 64 444 417 201 644 381 216 361 229 41 196 448 155 291 41 132 157 176 106
internal_count=1556 912 467 445 64 444 417 201 644 381 216 361 229 41 196 448 155 291 41 132 157 176 106
is_linear=0
shrinkage=0.02


Tree=17
num_leaves=24
num_cat=0
split_feature=8 38 8 9 35 36 23 35 9 23 8 38 38 8 36 22 8 8 8 23 22 33 8
split_gain=0.0112809 0.0143984 0.00271842 0.00237926 0.00460157 0.00384062 0.00751639 0.00158256 0.00124338 0.00201916 0.0010484 0.000905709 0.000798925 0.00070372 0.000524577 0.000393096 0.000128302 6.04009e-05 4.23839e-05 2.49197e-05 2.65621e-05 1.75631e-05 1.47782e-05
threshold=38.500000000000007 15.000000000000002 90.500000000000014 1.5000000000000002 5.5000000000000009 2.5000000000000004 305.00000000000006 18.500000000000004 2.5000000000000004 190.00000000000003 64.500000000000014 325.00000000000006 405.00000000000006 18.500000000000004 1.5000000000000002 105.00000000000001 7.5000000000000009 30.500000000000004 22.500000000000004 95.000000000000014 155.00000000000003 1.5000000000000002 23.500000000000004
decision_type=2 2 2 2 2 2 2 2 2 2 2 2 2 2 2 2 2 2 2 2 2 2 2
left_child=3 -2 7 13 -5 8 18 10 9 -6 14 -12 -4 16 -3 -10 19 22 -7 -1 -21 -18 -15
right_child=1 2 12 4 5 6 -8 -9 15 -11 11 -13 -14 17 -16 -17 21 -19 -20 20 -22 -23 -24
leaf_value=0.00010131532423353443 -0.00059648190741427246 -7.5318164618370394e-05 -0.00026614348138682546 -0.00023587229851357365 -1.9882935843530244e-05 8.8776815449818962e-05 -0.00032367164363249153 -0.0001651285645493772 9.1108957019993712e-05 0.00011445954522179043 -3.2857225623681163e-05 -0.00016391334556007474 -0.00010779594268219976 6.0677920247159774e-05 1.2190973442618813e-05 3.7074454004128635e-05 8.7212584801905216e-05 2.8226646035115913e-05 5.036341971760892e-05 0.00012917157911667318 0.00010268717239211713 7.304496256013712e-05 4.6581395164442557e-05
leaf_weight=120 20 31 25 27 168 20 34 32 223 61 66 31 26 59 236 71 84 55 27 33 28 60 60
leaf_count=120 20 31 25 27 168 20 34 32 223 61 66 31 26 59 236 71 84 55 27 33 28 60 60
internal_value=1.1213e-05 -7.14726e-05 -4.79823e-05 4.53849e-05 1.95772e-05 3.09964e-05 -9.71542e-05 -3.02823e-05 5.08438e-05 1.59026e-05 -1.84277e-05 -7.47411e-05 -0.000185417 7.80193e-05 2.03074e-06 7.80598e-05 9.53978e-05 4.55595e-05 6.67095e-05 0.000106606 0.000117015 8.13094e-05 5.35704e-05
internal_weight=1597 467 447 1130 631 604 81 396 523 229 364 97 51 499 267 294 325 174 47 181 61 144 119
internal_count=1597 467 447 1130 631 604 81 396 523 229 364 97 51 499 267 294 325 174 47 181 61 144 119
is_linear=0
shrinkage=0.02


Tree=18
num_leaves=22
num_cat=0
split_feature=8 39 8 19 17 38 35 8 16 16 8 19 32 19 32 38 32 16 32 19 7
split_gain=0.00634616 0.00293522 0.00259111 0.00296266 0.00628377 0.0029343 0.00152602 0.00255316 0.00137503 0.00139044 0.000874332 0.000869294 0.000664978 0.000481839 0.000283617 0.000107206 5.54206e-05 1.33916e-05 9.26042e-06 5.20072e-06 7.15025e-07
threshold=47.500000000000007 145.00000000000003 1.5000000000000002 6.5000000000000009 1.0000000180025095e-35 45.000000000000007 5.5000000000000009 5.5000000000000009 18.500000000000004 30.500000000000004 9.5000000000000018 5.5000000000000009 19.500000000000004 9.5000000000000018 11.500000000000002 165.00000000000003 27.500000000000004 46.500000000000007 50.000000000000007 6.5000000000000009 1.0000000180025095e-35
decision_type=2 2 2 2 2 2 2 2 2 2 2 2 2 2 2 2 2 2 2 2 2
left_child=2 -2 17 4 -4 -5 -7 -8 12 15 -6 -12 13 -3 -15 -10 -17 -1 -19 20 -20
right_child=1 8 3 5 10 6 7 -9 9 -11 11 -13 -14 14 -16 16 -18 18 19 -21 -22
leaf_value=0.00011055057557920614 -0.00025389659322707514 -0.00020565607033118055 -0.00035289989128984791 -0.00020119265228023996 0.00011968067195266486 -0.00011076181713912276 0.00010497887943924035 1.7176345179685256e-05 4.9580199622803113e-05 -0.00017003758957434911 3.7537924533983012e-05 -0.00013784634631156223 -3.3277139991696458e-05 -0.00016592315584421156 -7.4057251601139228e-05 -1.079330891563644e-05 1.9082539071288877e-05 8.8137327828769421e-05 9.7818765789270406e-05 0.00010573756231954604 9.3165268423035745e-05
leaf_weight=30 34 27 27 23 20 31 159 794 22 20 26 20 36 20 41 63 41 43 28 33 25
leaf_count=30 34 27 27 23 20 31 159 794 22 20 26 20 36 20 41 63 41 43 28 33 25
internal_value=3.24456e-06 -7.87683e-05 2.30475e-05 1.21391e-05 -9.58669e-05 2.21138e-05 2.73334e-05 3.18255e-05 -5.67151e-05 -1.51204e-05 9.28292e-06 -3.87161e-05 -0.00010569 -0.000135313 -0.000104177 9.4696e-06 9.8467e-07 9.85146e-05 9.57155e-05 9.95046e-05 9.56237e-05
internal_weight=1563 304 1259 1100 93 1007 984 953 270 146 66 46 124 88 61 126 104 159 129 86 53
internal_count=1563 304 1259 1100 93 1007 984 953 270 146 66 46 124 88 61 126 104 159 129 86 53
is_linear=0
shrinkage=0.02


Tree=19
num_leaves=24
num_cat=0
split_feature=8 33 38 9 23 23 38 9 32 38 11 9 9 8 8 32 8 9 8 33 20 38 33
split_gain=0.01218 0.00633657 0.00711516 0.00334627 0.00356963 0.015914 0.00394595 0.00308072 0.0022497 0.00237739 0.000901763 0.00202563 0.00230205 0.000493273 0.000356418 0.000105014 9.60165e-05 3.93489e-05 2.25521e-05 2.21769e-05 1.63933e-05 1.33506e-05 1.0232e-05
threshold=90.500000000000014 5.5000000000000009 35.000000000000007 1.5000000000000002 115.00000000000001 145.00000000000003 225.00000000000003 1.5000000000000002 45.500000000000007 120.00000000000001 1.0000000180025095e-35 1.5000000000000002 2.5000000000000004 18.500000000000004 61.500000000000007 41.500000000000007 1.0000000180025095e-35 3.5000000000000004 24.500000000000004 1.0000000180025095e-35 4.5000000000000009 275.00000000000006 1.5000000000000002
decision_type=2 2 2 2 2 2 2 2 2 2 2 2 2 2 2 2 2 2 2 2 2 2 2
left_child=1 3 -3 13 8 -6 -7 -2 9 -5 11 14 -13 15 -4 22 -10 20 -15 -17 -12 -19 -1
right_child=7 2 10 4 5 6 -8 -9 16 -11 17 12 -14 18 -16 19 -18 21 -20 -21 -22 -23 -24
leaf_value=8.3131034386484587e-05 -0.00011437635588332673 -0.00040849795731316718 2.2469086822228448e-05 -3.4026458759197137e-05 -0.00055524168495574722 8.0317637416387532e-05 -0.00010852002596172195 -0.00042383459411681661 9.3792389342501665e-05 9.5896982536764763e-05 4.0489556910148983e-05 -0.00015944572492683119 -1.3312819606984373e-05 5.7401711991453759e-05 -4.0802785386823908e-05 0.00010585730370711272 0.00013038420976188621 1.6847568503263491e-05 4.1342686596269746e-05 9.1599822266116038e-05 1.9401847957245384e-05 -4.3215735072758083e-06 7.1585959280436891e-05
leaf_weight=73 22 21 113 180 23 108 75 31 117 82 29 98 77 61 52 142 38 22 82 63 30 26 53
leaf_count=73 22 21 113 180 23 108 75 31 117 82 29 98 77 61 52 142 38 22 82 63 30 26 53
internal_value=2.80347e-06 1.29017e-05 -4.87124e-05 3.91874e-05 8.71885e-06 -5.93944e-05 2.92515e-06 -0.00029538 4.23671e-05 6.6366e-06 -3.18098e-05 -4.77456e-05 -9.51472e-05 7.92337e-05 2.52886e-06 9.26439e-05 0.000102763 1.88275e-05 4.8193e-05 0.000101476 2.9767e-05 5.38095e-06 7.82748e-05
internal_weight=1618 1565 468 1097 623 206 183 53 417 262 447 340 175 474 165 331 155 107 143 205 59 48 126
internal_count=1618 1565 468 1097 623 206 183 53 417 262 447 340 175 474 165 331 155 107 143 205 59 48 126
is_linear=0
shrinkage=0.02


Tree=20
num_leaves=24
num_cat=0
split_feature=8 23 9 23 20 39 22 9 17 19 8 35 19 32 8 17 32 8 9 33 22 8 19
split_gain=0.012517 0.0076225 0.00953765 0.0257969 0.00380371 0.0109387 0.00210373 0.0020228 0.00119796 0.00102535 0.000836371 0.000720604 0.00271934 0.000422939 0.00176936 0.000346251 0.000137616 0.000133937 4.70203e-05 4.60276e-05 2.52733e-05 2.09262e-05 1.2528e-05
threshold=90.500000000000014 115.00000000000001 1.5000000000000002 145.00000000000003 1.5000000000000002 95.000000000000014 325.00000000000006 2.5000000000000004 5.5000000000000009 8.5000000000000018 24.500000000000004 5.5000000000000009 6.5000000000000009 45.500000000000007 3.5000000000000004 14.500000000000002 40.500000000000007 32.500000000000007 2.5000000000000004 5.5000000000000009 140.00000000000003 58.500000000000007 11.500000000000002
decision_type=2 2 2 2 2 2 2 2 2 2 2 2 2 2 2 2 2 2 2 2 2 2 2
left_child=1 8 10 -4 6 -6 -5 -2 11 -10 16 12 -1 14 -13 19 -3 22 -15 -12 -18 -19 -11
right_child=7 2 3 4 5 -7 -8 -9 9 17 15 13 -14 18 -16 -17 20 21 -20 -21 -22 -23 -24
leaf_value=0.00010642911868695265 -0.00020749023319372245 6.5270361161177479e-05 -0.00077908387718101345 5.329378074892457e-05 -0.00039482579372402559 -4.9896459893342841e-05 -0.00013563883202832898 -0.00046547624235972765 -0.00011207997803500836 6.4996814524585555e-05 4.0960205215549863e-05 -6.7927477342125613e-05 -0.00016077888309955598 0.00011211661458317493 7.5223634902131067e-05 -5.7872214155005555e-05 0.00012118362740654013 1.7953549273079262e-05 9.0371196531842266e-05 1.9632739925145871e-05 9.499005201022799e-05 -8.7914907635422426e-06 4.3125828146003187e-05
leaf_weight=39 31 82 21 126 44 224 29 20 27 22 68 38 25 74 379 21 23 25 86 100 41 22 20
leaf_count=39 31 82 21 126 44 224 29 20 27 22 68 38 25 74 379 21 23 25 86 100 41 22 20
internal_value=-4.11378e-07 9.82348e-06 -3.40965e-05 -9.48838e-05 -6.09164e-05 -0.000106527 1.79451e-05 -0.000308661 5.50199e-05 -4.12316e-06 4.64694e-05 6.57228e-05 2.05099e-06 7.27852e-05 6.21787e-05 1.86945e-05 8.24246e-05 2.86278e-05 0.000100428 2.82653e-05 0.000104403 5.43459e-06 5.45821e-05
internal_weight=1587 1536 779 444 423 268 155 51 757 116 335 641 64 577 417 189 146 89 160 168 64 47 42
internal_count=1587 1536 779 444 423 268 155 51 757 116 335 641 64 577 417 189 146 89 160 168 64 47 42
is_linear=0
shrinkage=0.02


Tree=21
num_leaves=24
num_cat=0
split_feature=17 39 22 8 19 38 8 19 38 17 19 38 22 35 8 16 9 19 9 9 20 17 8
split_gain=0.0101569 0.00618395 0.00291654 0.0023794 0.00555961 0.00985449 0.00164785 0.00127233 0.00126298 0.00110917 0.00103489 0.000392883 0.000357176 0.000386895 0.000279161 0.000246676 0.000206693 0.000431662 0.00016443 0.000129357 4.37634e-05 4.04678e-05 1.55352e-05
threshold=10.500000000000002 145.00000000000003 85.000000000000014 2.5000000000000004 6.5000000000000009 105.00000000000001 6.5000000000000009 23.500000000000004 175.00000000000003 19.500000000000004 8.5000000000000018 95.000000000000014 85.000000000000014 6.5000000000000009 102.50000000000001 21.500000000000004 2.5000000000000004 6.5000000000000009 1.5000000000000002 1.5000000000000002 4.5000000000000009 14.500000000000002 1.5000000000000002
decision_type=2 2 2 2 2 2 2 2 2 2 2 2 2 2 2 2 2 2 2 2 2 2 2
left_child=3 -2 -3 11 5 -5 12 10 -7 15 -8 16 13 -6 -11 21 22 -18 -14 -13 -17 -4 -1
right_child=1 2 9 4 6 8 7 -9 -10 14 -12 19 18 -15 -16 20 17 -19 -20 -21 -22 -23 -24
leaf_value=9.874785361954798e-05 -0.00037418089349133273 -0.00027546056166852869 -6.4804075594546032e-06 -0.0004769624610344181 2.5603516958653929e-05 0.00013552820007316769 -2.0714174818789143e-05 -0.00010334716287131111 -6.3704524787941156e-05 -7.9366920844596984e-05 3.9319123791789483e-05 0.00011476868763566017 0.00010289219440892338 0.0001056407770661057 -0.00016753000835888088 4.8564718733541668e-05 9.3393652858803915e-05 6.5779877736026216e-06 0.00017402158476985418 0.00018670119950547814 1.0754603817986209e-05 -3.874524792384667e-05 0.00011757657940809926
leaf_weight=65 30 24 23 24 40 20 138 30 35 51 685 20 26 61 20 25 63 36 26 20 24 48 24
leaf_count=65 30 24 23 24 40 20 138 30 35 51 685 20 26 61 20 25 63 36 26 20 24 48 24
internal_value=1.30266e-05 -0.000105189 -6.76556e-05 3.50852e-05 2.27432e-05 -0.000138813 3.543e-05 2.45892e-05 8.74374e-06 -4.1544e-05 2.92528e-05 9.38178e-05 9.58692e-05 7.39429e-05 -0.000104202 -4.47161e-06 8.17077e-05 6.18243e-05 0.000138457 0.000150735 3.00455e-05 -2.82933e-05 0.000103825
internal_weight=1558 245 215 1313 1085 79 1006 853 55 191 823 228 153 101 71 120 188 99 52 40 49 71 89
internal_count=1558 245 215 1313 1085 79 1006 853 55 191 823 228 153 101 71 120 188 99 52 40 49 71 89
is_linear=0
shrinkage=0.02


Tree=22
num_leaves=21
num_cat=0
split_feature=33 38 17 32 40 35 36 19 33 17 33 32 2 22 33 38 22 17 19 32
split_gain=0.0112314 0.00644615 0.0029261 0.00441211 0.00421374 0.00388813 0.00647599 0.007525 0.00261739 0.00178567 0.00124406 0.00215486 0.000995818 0.00300008 0.000721613 0.000262024 0.000124169 9.66045e-05 8.63093e-05 7.28865e-05
threshold=19.500000000000004 155.00000000000003 9.5000000000000018 21.500000000000004 1.0000000180025095e-35 5.5000000000000009 1.0000000180025095e-35 8.5000000000000018 6.5000000000000009 27.500000000000004 1.0000000180025095e-35 44.500000000000007 1.0000000180025095e-35 125.00000000000001 6.5000000000000009 80.000000000000014 95.000000000000014 13.500000000000002 10.500000000000002 43.500000000000007
decision_type=2 2 2 2 2 2 2 2 2 2 2 2 2 2 2 2 2 2 2 2
left_child=2 -2 4 -4 10 -6 19 -8 -5 18 12 14 16 -14 -12 -10 -1 -17 -3 -7
right_child=1 9 3 8 5 6 7 -9 15 -11 11 -13 13 -15 -16 17 -18 -19 -20 -21
leaf_value=9.6709852054028229e-05 -0.00051951776316855108 -4.0299797994549639e-05 -0.00033232782812168206 -0.00019978736053653172 -0.00030300890182843431 0.000112940680119209 -0.00041589060371431208 -2.9728751028682486e-06 6.0915347928993208e-05 -0.00026659041478220997 4.2685120620255682e-05 -0.00015487433336675168 7.1934531772213225e-05 -0.00018583857365662141 -7.5690971133678157e-06 1.304859527786079e-05 0.00013663402211386711 -3.401852991933433e-05 -8.7937380122984286e-05 0.00015802297490434005
leaf_weight=141 20 32 21 27 24 32 27 51 39 24 643 25 129 21 139 53 40 26 29 26
leaf_count=141 20 32 21 27 24 32 27 51 39 24 643 25 129 21 139 53 40 26 29 26
internal_value=3.34744e-06 -0.00019646 1.76779e-05 -6.13877e-05 2.77895e-05 -6.83136e-05 -2.68968e-05 -0.000145906 -2.2148e-05 -0.000120446 4.13014e-05 2.7909e-05 7.39529e-05 3.58463e-05 3.37525e-05 1.84982e-05 0.000105533 -2.44185e-06 -6.29472e-05 0.00013315
internal_weight=1569 105 1464 166 1298 160 136 78 145 85 1138 807 331 150 782 118 181 79 61 58
internal_count=1569 105 1464 166 1298 160 136 78 145 85 1138 807 331 150 782 118 181 79 61 58
is_linear=0
shrinkage=0.02


Tree=23
num_leaves=19
num_cat=0
split_feature=8 35 33 35 8 36 35 36 17 17 19 33 17 39 36 8 8 22
split_gain=0.00694923 0.00728727 0.00479527 0.00260217 0.00590149 0.00206301 0.00272693 0.00159937 0.00161362 0.00142704 0.00289546 0.00367626 0.00120694 0.000931224 0.000745279 0.000322697 0.000197649 1.90141e-05
threshold=38.500000000000007 18.500000000000004 6.5000000000000009 5.5000000000000009 1.5000000000000002 4.5000000000000009 9.5000000000000018 1.5000000000000002 19.500000000000004 1.0000000180025095e-35 9.5000000000000018 1.5000000000000002 7.5000000000000009 95.000000000000014 1.0000000180025095e-35 62.500000000000007 104.50000000000001 125.00000000000001
decision_type=2 2 2 2 2 2 2 2 2 2 2 2 2 2 2 2 2 2
left_child=2 5 3 4 -1 7 -7 -2 15 13 11 -11 -12 14 -5 -9 -10 -15
right_child=1 -3 -4 9 -6 6 -8 8 16 10 12 -13 -14 17 -16 -17 -18 -19
leaf_value=9.0342505169766285e-05 -0.00015401094044292611 -0.00035308733568385693 -0.00026013216654815634 3.3466142078036627e-05 -0.000285442246531602 -0.00025763289127625239 2.4836094666877023e-06 2.5528391607680376e-05 -7.3488195104381217e-05 -7.8818585820333232e-05 6.5837260912839497e-05 7.4525813449566301e-05 -4.6683050674064791e-05 0.00013053725056938435 0.00011235968155019424 -2.7088208129674559e-05 -0.00014618710149079563 0.00015146152232773603
leaf_weight=35 35 33 23 162 32 38 28 188 52 183 414 95 42 38 68 62 21 32
leaf_count=35 35 33 23 162 32 38 28 188 52 183 414 95 42 38 68 62 21 32
internal_value=-1.05514e-06 -6.68145e-05 2.56815e-05 3.16522e-05 -8.91368e-05 -4.45338e-05 -0.00014728 -2.55917e-05 -1.16763e-05 3.9479e-05 2.44579e-05 -2.64167e-05 5.54735e-05 7.62305e-05 5.67912e-05 1.24795e-05 -9.44016e-05 0.000140103
internal_weight=1581 457 1124 1101 67 424 66 358 323 1034 734 278 456 300 230 250 73 70
internal_count=1581 457 1124 1101 67 424 66 358 323 1034 734 278 456 300 230 250 73 70
is_linear=0
shrinkage=0.02


Tree=24
num_leaves=24
num_cat=0
split_feature=8 9 9 11 14 9 18 24 39 8 8 8 16 32 33 8 8 16 32 33 33 36 33
split_gain=0.0108799 0.00759539 0.00623769 0.00631462 0.00574072 0.00534399 0.00462588 0.00421326 0.00859448 0.00170461 0.00095635 0.000763004 0.000677957 0.000587071 0.000444406 0.000204346 0.000142355 9.53062e-05 7.26382e-05 4.95926e-05 2.02068e-05 1.8312e-05 1.57927e-05
threshold=90.500000000000014 1.5000000000000002 2.5000000000000004 1.0000000180025095e-35 1.0000000180025095e-35 1.5000000000000002 5.5000000000000009 1.0000000180025095e-35 145.00000000000003 21.500000000000004 18.500000000000004 34.500000000000007 45.500000000000007 35.500000000000007 14.500000000000002 18.500000000000004 9.5000000000000018 15.500000000000002 25.500000000000004 5.5000000000000009 1.5000000000000002 3.5000000000000004 1.0000000180025095e-35
decision_type=2 2 2 2 2 2 2 2 2 2 2 2 2 2 2 2 2 2 2 2 2 2 2
left_child=1 9 3 4 6 -2 -3 10 -9 16 12 -5 -4 -12 19 -6 22 -16 -10 -11 -18 -21 -1
right_child=5 2 7 11 15 -7 -8 8 18 14 13 -13 -14 -15 17 -17 20 -19 -20 21 -22 -23 -24
leaf_value=9.848554735934294e-05 -9.0270883784714074e-05 9.6075276464775759e-05 9.5142479866987826e-05 0.00018966428780307372 0.00013708432160672686 -0.00052627839755428878 -0.000177871457903755 -0.00040942567864139741 9.2101749275267748e-07 4.1119830091606431e-05 2.1461809628282721e-05 4.0485562731191753e-05 2.5615575680460195e-05 -7.6284279784886167e-05 -6.4224099274724726e-05 4.9862174782902003e-05 7.5967934952206814e-05 -1.1378165332686434e-05 4.5711612765444441e-05 2.9121213441089511e-05 6.0982493106538146e-05 1.3315358826693396e-05 8.7039100999633466e-05
leaf_weight=135 22 27 137 24 21 23 284 27 30 114 136 32 95 30 20 22 73 43 28 73 71 49 75
leaf_count=135 22 27 137 24 21 23 284 27 30 114 136 32 95 30 20 22 73 43 28 73 71 49 75
internal_value=-6.56578e-06 2.35719e-06 -3.55508e-05 -9.29225e-05 -0.00012414 -0.000313119 -0.000154088 1.31498e-05 -0.00011467 5.41977e-05 4.04479e-05 0.000104419 6.66724e-05 3.79685e-06 1.90375e-05 9.2459e-05 8.38952e-05 -2.81547e-05 2.25441e-05 3.16354e-05 6.85793e-05 2.2773e-05 9.43975e-05
internal_weight=1591 1546 893 410 354 45 311 483 85 653 398 56 232 166 299 43 354 63 58 236 144 122 210
internal_count=1591 1546 893 410 354 45 311 483 85 653 398 56 232 166 299 43 354 63 58 236 144 122 210
is_linear=0
shrinkage=0.02


Tree=25
num_leaves=24
num_cat=0
split_feature=8 22 9 23 23 9 22 38 22 16 8 33 22 36 33 16 22 36 32 33 23 33 8
split_gain=0.0103744 0.00622972 0.00511504 0.0046108 0.022321 0.00340981 0.00395361 0.00196955 0.00438257 0.00175461 0.00152112 0.00106176 0.000666276 0.000432869 0.000350669 0.000182711 6.97118e-05 3.75788e-05 2.70298e-05 1.57869e-05 2.05555e-05 1.31701e-05 5.88674e-06
threshold=90.500000000000014 325.00000000000006 1.5000000000000002 115.00000000000001 145.00000000000003 2.5000000000000004 195.00000000000003 105.00000000000001 20.000000000000004 21.500000000000004 23.500000000000004 5.5000000000000009 85.000000000000014 1.0000000180025095e-35 14.500000000000002 40.500000000000007 285.00000000000006 3.5000000000000004 37.500000000000007 1.0000000180025095e-35 115.00000000000001 5.5000000000000009 18.500000000000004
decision_type=2 2 2 2 2 2 2 2 2 2 2 2 2 2 2 2 2 2 2 2 2 2 2
left_child=2 -2 10 7 -5 6 -6 12 -9 -10 15 -7 13 -4 17 18 -16 21 22 20 -17 -12 -1
right_child=1 -3 3 4 5 11 -8 8 9 -11 14 -13 -14 -15 16 19 -18 -19 -20 -21 -22 -23 -24
leaf_value=6.2288081098813561e-05 -0.00054289914057811816 -9.6754637817221309e-05 4.1699414291275285e-05 -0.00067305659308381698 -0.00027143868883379186 8.0633645290906374e-05 -4.8283806217651224e-05 -0.00027401828430593015 -0.0001583526865724707 4.4744876258686932e-05 3.8931806903495169e-05 -1.2126074457374935e-05 -5.0984056932585577e-05 9.3700534188812055e-05 -1.0137463263942793e-05 9.085215935176547e-05 -5.5570860673800456e-05 1.2781102791955669e-05 7.2168737307139148e-05 8.5031201597303148e-05 0.00010853197199065944 2.6910282698316641e-05 5.1424728601046332e-05
leaf_weight=32 21 31 136 23 39 82 171 25 20 114 83 124 21 121 35 91 22 45 72 90 37 65 53
leaf_count=32 21 31 136 23 39 82 171 25 20 114 83 124 21 121 35 91 22 45 72 90 37 65 53
internal_value=7.95838e-07 -0.000276928 1.04172e-05 -2.07683e-05 -6.65481e-05 -3.30152e-05 -8.97269e-05 2.52211e-05 -3.0922e-05 1.44318e-05 5.41267e-05 2.47977e-05 5.73317e-05 6.61824e-05 1.59132e-05 7.96024e-05 -2.76732e-05 2.87858e-05 6.31521e-05 9.14497e-05 9.59627e-05 3.36521e-05 5.55145e-05
internal_weight=1553 52 1501 876 439 416 210 437 159 134 625 206 278 257 250 375 57 193 157 218 128 148 85
internal_count=1553 52 1501 876 439 416 210 437 159 134 625 206 278 257 250 375 57 193 157 218 128 148 85
is_linear=0
shrinkage=0.02


Tree=26
num_leaves=24
num_cat=0
split_feature=9 35 35 32 32 8 9 33 8 16 17 8 22 8 14 32 36 23 22 9 33 8 8
split_gain=0.00671596 0.0106762 0.00398325 0.0137262 0.0042737 0.00568614 0.00972027 0.0034243 0.00197249 0.00104687 0.00067142 0.000205106 0.000147167 9.85878e-05 4.96564e-05 3.89669e-05 2.71872e-05 1.92182e-05 1.94014e-05 1.02067e-05 9.71427e-06 8.08556e-06 6.9731e-06
threshold=1.5000000000000002 18.500000000000004 5.5000000000000009 43.500000000000007 45.500000000000007 10.500000000000002 2.5000000000000004 6.5000000000000009 24.500000000000004 26.500000000000004 16.500000000000004 9.5000000000000018 60.000000000000007 56.500000000000007 1.0000000180025095e-35 37.500000000000007 3.5000000000000004 95.000000000000014 155.00000000000003 2.5000000000000004 4.5000000000000009 19.500000000000004 41.500000000000007
decision_type=2 2 2 2 2 2 2 2 2 2 2 2 2 2 2 2 2 2 2 2 2 2 2
left_child=8 2 3 9 5 6 -4 -7 11 -2 13 17 19 16 -11 21 20 -1 -19 -6 -10 -13 -18
right_child=1 -3 4 -5 12 7 -8 -9 10 14 -12 15 -14 -15 -16 -17 22 18 -20 -21 -22 -23 -24
leaf_value=8.6861276447925025e-05 -0.0001057035833544997 -0.00040401492505528347 -0.00029321313811171999 -0.00056762382874022365 9.7701717168092726e-05 5.2519884966516988e-05 2.4602633351698899e-05 -5.7053709387636629e-05 3.8956347886526672e-05 6.7700232156430899e-05 -7.1051283613652794e-05 5.9811735991388562e-05 0.0001360877080199619 -4.2498902517503925e-06 2.6980565779376778e-05 7.2131351871269472e-05 2.1902538348859664e-05 0.00010990017766339912 8.96619725972414e-05 8.2645259323496236e-05 2.7931789865476045e-05 4.8193059535697103e-05 5.6040147561967994e-06
leaf_weight=147 29 30 76 23 23 279 78 193 52 23 37 46 30 49 25 89 21 36 40 83 83 50 21
leaf_count=147 29 30 76 23 23 279 78 193 52 23 37 46 30 49 25 89 21 36 40 83 83 50 21
internal_value=2.8362e-06 -3.31208e-05 -2.02127e-05 -0.000138891 -4.63804e-06 -2.67149e-05 -0.000132242 7.71543e-06 5.0636e-05 -1.08284e-05 7.9261e-06 7.81671e-05 9.69803e-05 2.0856e-05 4.64921e-05 6.25983e-05 2.78063e-05 9.10829e-05 9.92485e-05 8.59122e-05 3.21783e-05 5.37603e-05 1.37533e-05
internal_weight=1563 892 862 100 762 626 154 472 671 77 263 408 136 226 48 185 177 223 76 106 135 96 42
internal_count=1563 892 862 100 762 626 154 472 671 77 263 408 136 226 48 185 177 223 76 106 135 96 42
is_linear=0
shrinkage=0.02


Tree=27
num_leaves=24
num_cat=0
split_feature=17 9 19 22 9 11 22 22 20 8 22 2 17 19 8 8 17 8 8 17 39 8 8
split_gain=0.00477346 0.00259783 0.00345783 0.014554 0.00172331 0.0042999 0.00719429 0.00214833 0.00171044 0.00510562 0.00295959 0.00187848 0.00136197 0.00125855 0.00108643 0.00069424 0.000571882 0.000502598 0.000103493 9.44225e-05 7.34794e-05 6.46022e-05 4.03728e-05
threshold=6.5000000000000009 1.5000000000000002 6.5000000000000009 60.000000000000007 1.5000000000000002 1.0000000180025095e-35 325.00000000000006 205.00000000000003 1.0000000180025095e-35 6.5000000000000009 20.000000000000004 1.0000000180025095e-35 15.500000000000002 10.500000000000002 9.5000000000000018 60.500000000000007 14.500000000000002 19.500000000000004 9.5000000000000018 20.500000000000004 320.00000000000006 57.500000000000007 35.500000000000007
decision_type=2 2 2 2 2 2 2 2 2 2 2 2 2 2 2 2 2 2 2 2 2 2 2
left_child=1 17 3 -3 16 6 7 13 9 11 -10 -4 -9 -6 -12 20 21 18 -1 -18 -7 -2 -19
right_child=4 2 8 -5 5 15 -8 12 10 -11 14 -13 -14 -15 -16 -17 19 22 -20 -21 -22 -23 -24
leaf_value=8.8708173826266578e-05 3.0653705106677011e-05 9.3391125852411447e-05 0.00011294505353701317 -0.00042831698951444454 -0.00011152201921504456 6.0524464383239062e-05 -0.00050184227002318953 2.8549163517499644e-05 -0.00017364326439311972 -0.00023340611522527116 0.00011974866261564034 -4.6651252955829695e-05 -0.00013572328462914534 -0.00032437866871623555 4.0459082634605945e-05 -9.2248082037258431e-05 -2.6822949737487804e-05 4.0422975530992575e-05 6.5933534970099572e-05 -8.3842036815790028e-05 2.382951283615167e-05 -1.5783715648329675e-06 1.438977102459889e-05
leaf_weight=212 101 55 59 35 25 35 20 52 23 38 92 59 33 20 278 20 21 103 128 26 58 33 31
leaf_count=212 101 55 59 35 25 35 20 52 23 38 92 59 33 20 278 20 21 103 128 26 58 33 31
internal_value=9.61001e-06 3.1728e-05 5.41162e-06 -0.000109495 -4.58345e-05 -7.8522e-05 -0.000148712 -9.43841e-05 2.42488e-05 -3.17827e-05 4.64903e-05 3.31469e-05 -3.52272e-05 -0.000206125 6.01743e-05 1.46505e-05 1.66167e-06 6.72052e-05 8.01342e-05 -5.83654e-05 3.76394e-05 2.2716e-05 3.44004e-05
internal_weight=1557 1113 639 90 444 263 150 130 549 156 393 118 85 45 370 113 181 474 340 47 93 134 134
internal_count=1557 1113 639 90 444 263 150 130 549 156 393 118 85 45 370 113 181 474 340 47 93 134 134
is_linear=0
shrinkage=0.02


Tree=28
num_leaves=24
num_cat=0
split_feature=33 9 35 9 33 8 23 36 23 8 8 8 8 8 33 8 8 19 8 8 8 33 33
split_gain=0.00876238 0.00544813 0.00512344 0.0046364 0.00593199 0.0180747 0.004629 0.00372285 0.0026727 0.00141749 0.00150646 0.00598721 0.00143174 0.00114952 0.00101261 0.000755287 0.000156235 0.000108482 9.57507e-05 9.39359e-05 9.22141e-05 5.40736e-05 1.36115e-05
threshold=19.500000000000004 1.5000000000000002 8.5000000000000018 2.5000000000000004 1.0000000180025095e-35 12.500000000000002 80.000000000000014 2.5000000000000004 115.00000000000001 18.500000000000004 2.5000000000000004 1.5000000000000002 23.500000000000004 19.500000000000004 24.500000000000004 54.500000000000007 58.500000000000007 10.500000000000002 8.5000000000000018 1.5000000000000002 9.5000000000000018 5.5000000000000009 1.0000000180025095e-35
decision_type=2 2 2 2 2 2 2 2 2 2 2 2 2 2 2 2 2 2 2 2 2 2 2
left_child=1 13 -2 4 8 6 -6 -7 19 10 11 -5 -11 20 17 -14 21 -4 -12 -3 22 -15 -1
right_child=2 3 14 9 5 7 -8 -9 -10 12 18 -13 15 16 -16 -17 -18 -19 -20 -21 -22 -23 -24
leaf_value=9.0034981194424306e-05 -0.0004122416663233674 9.3170888278455949e-05 -1.940598121369216e-05 7.8777592265023261e-05 -0.00030251143011264504 1.9993776506169809e-05 -0.00067516397312283513 -0.00014682938090473038 -0.00013412819663062692 -0.00013772637967838708 0.00011515405614890398 -0.00028841302163251067 2.7723946664622786e-05 3.9627561578057682e-05 -0.00019265103733075728 -6.5444713398629456e-05 -1.4842841535158056e-05 -7.4596904491170738e-05 8.1760159243115944e-05 0.00014388631000959625 6.5213489046594657e-05 2.0911796241270485e-05 7.9852194672950158e-05
leaf_weight=146 27 21 28 78 40 154 20 82 20 33 62 23 143 124 29 46 35 29 77 48 129 123 82
leaf_count=146 27 21 28 78 40 154 20 82 20 33 62 23 143 124 29 46 35 29 77 48 129 123 82
internal_value=-2.11438e-06 1.07962e-05 -0.000171895 -2.24661e-05 -7.3725e-05 -0.000116773 -0.000426729 -3.79702e-05 6.94446e-05 2.02496e-05 5.39427e-05 -4.84007e-06 -1.61752e-05 5.48858e-05 -9.64367e-05 5.04798e-06 2.47038e-05 -4.74856e-05 9.66553e-05 0.000128451 7.8727e-05 3.03076e-05 8.63728e-05
internal_weight=1599 1486 113 847 385 296 60 236 89 462 240 101 222 639 86 189 282 57 139 69 357 247 228
internal_count=1599 1486 113 847 385 296 60 236 89 462 240 101 222 639 86 189 282 57 139 69 357 247 228
is_linear=0
shrinkage=0.02


Tree=29
num_leaves=24
num_cat=0
split_feature=9 9 33 8 35 22 36 19 35 16 35 14 8 8 20 41 16 8 23 8 8 8 33
split_gain=0.00872758 0.00718225 0.00538253 0.00875885 0.00787392 0.00714428 0.00561444 0.0131579 0.00763797 0.0031168 0.00320221 0.00719745 0.00170027 0.00154874 0.000996424 0.000956281 0.000606605 0.00021857 0.000169297 9.48027e-05 4.12451e-05 3.34762e-05 2.24986e-05
threshold=1.5000000000000002 2.5000000000000004 1.0000000180025095e-35 12.500000000000002 8.5000000000000018 105.00000000000001 2.5000000000000004 13.500000000000002 17.500000000000004 6.5000000000000009 5.5000000000000009 1.0000000180025095e-35 25.500000000000004 54.500000000000007 3.5000000000000004 1.0000000180025095e-35 13.500000000000002 10.500000000000002 50.000000000000007 55.500000000000007 46.500000000000007 18.500000000000004 5.5000000000000009
decision_type=2 2 2 2 2 2 2 2 2 2 2 2 2 2 2 2 2 2 2 2 2 2 2
left_child=12 2 5 4 -4 18 8 -8 -5 -3 11 -11 17 15 -15 -12 -14 -1 -2 22 -13 -19 -18
right_child=1 9 3 6 -6 -7 7 -9 -10 10 13 20 16 14 -16 -17 19 21 -20 -21 -22 -23 -24
leaf_value=8.4311206645827159e-05 9.3651494846261774e-05 -0.00022527439179374716 -0.00017549337183193464 2.3143736311671877e-05 -0.00061534486538558099 -0.00030165806692093614 -0.00045874727934683003 5.8296613095860402e-05 -0.00036861827495791345 -0.00043341088166926056 5.4531214061976895e-05 4.9927080224733803e-05 -7.2241980866666008e-05 2.2239702891965865e-05 -0.00017078260093947629 -6.9000216753920541e-05 3.3633581944358365e-05 6.3664382217790586e-05 0.00015819114356024845 -5.5428217170878733e-06 9.7957352270549615e-06 4.6219359739387238e-05 1.9101167444833409e-05
leaf_weight=239 29 23 41 148 27 20 45 35 23 20 350 20 34 20 23 27 76 88 37 51 21 88 97
leaf_count=239 29 23 41 148 27 20 45 35 23 20 350 20 34 20 23 27 76 88 37 51 21 88 97
internal_value=-7.8036e-06 -4.82239e-05 -0.000110938 -0.000148795 -0.00035014 2.94861e-05 -9.42478e-05 -0.000232541 -2.95494e-05 2.1715e-06 1.30473e-05 -0.00012236 4.67908e-05 3.27136e-05 -8.10048e-05 4.56841e-05 6.47308e-06 7.18558e-05 0.000129833 1.84209e-05 2.9372e-05 5.49419e-05 2.54853e-05
internal_weight=1582 909 405 319 68 86 251 80 171 504 481 61 673 420 43 377 258 415 66 224 41 176 173
internal_count=1582 909 405 319 68 86 251 80 171 504 481 61 673 420 43 377 258 415 66 224 41 176 173
is_linear=0
shrinkage=0.02


Tree=30
num_leaves=24
num_cat=0
split_feature=16 35 8 40 35 8 17 8 33 16 19 39 20 22 8 8 22 17 8 14 35 19 16
split_gain=0.00624306 0.00516769 0.00369954 0.00199819 0.00420161 0.00306498 0.00169331 0.00325931 0.0013236 0.00419076 0.00270308 0.00102439 0.000831786 0.000531889 0.000408952 0.000366542 0.000157391 0.000106247 1.27039e-05 1.35778e-05 8.18694e-06 5.69365e-06 4.52549e-06
threshold=22.500000000000004 18.500000000000004 2.5000000000000004 1.0000000180025095e-35 9.5000000000000018 5.5000000000000009 12.500000000000002 66.500000000000014 6.5000000000000009 31.500000000000004 6.5000000000000009 220.00000000000003 1.0000000180025095e-35 235.00000000000003 106.50000000000001 1.5000000000000002 125.00000000000001 19.500000000000004 49.500000000000007 1.0000000180025095e-35 6.5000000000000009 17.500000000000004 46.500000000000007
decision_type=2 2 2 2 2 2 2 2 2 2 2 2 2 2 2 2 2 2 2 2 2 2 2
left_child=1 6 15 8 5 -5 18 -8 10 13 -4 -7 -12 -10 17 22 20 -9 19 21 -17 -1 -2
right_child=2 -3 3 4 -6 11 7 14 9 -11 12 -13 -14 -15 -16 16 -18 -19 -20 -21 -22 -23 -24
leaf_value=3.4483662748243663e-05 8.7019614487265557e-05 -0.00029772074453495936 -0.00018346586548115894 -0.00018623220454901457 -0.00028640410371331705 0.00010380885335353186 -0.00032148715975164943 -1.649097181727038e-05 -3.7806463008867774e-05 -0.00030399534196476455 -2.0991075351568208e-06 -3.1238668978823205e-05 4.8791054803573701e-05 3.8470357233940958e-05 -0.00013509469479322433 0.00012235031943888433 0.00018157425243407486 -5.6729674403098991e-05 5.7097020994155576e-06 6.7221406879980355e-06 0.00010639752854000438 2.0289729288309059e-05 7.7537719255778932e-05
leaf_weight=20 24 38 23 30 27 53 21 53 66 20 168 39 546 82 20 31 20 52 36 20 22 26 125
leaf_count=20 24 38 23 30 27 53 21 53 66 20 168 39 546 82 20 31 20 52 36 20 22 26 125
internal_value=3.92008e-06 -8.05359e-05 2.28499e-05 7.22075e-06 -6.06464e-05 -1.06836e-05 -4.72576e-05 -9.0939e-05 1.83945e-05 -3.22653e-05 2.99424e-05 4.65604e-05 3.68169e-05 4.45502e-06 -5.22069e-05 9.7053e-05 0.000133768 -3.64187e-05 1.52667e-05 2.04795e-05 0.000115728 2.6461e-05 7.9065e-05
internal_weight=1562 286 1276 1054 149 122 248 146 905 168 737 92 714 148 125 222 73 105 102 66 53 46 149
internal_count=1562 286 1276 1054 149 122 248 146 905 168 737 92 714 148 125 222 73 105 102 66 53 46 149
is_linear=0
shrinkage=0.02


Tree=31
num_leaves=24
num_cat=0
split_feature=33 22 9 32 39 22 35 9 16 17 32 16 33 33 32 39 39 9 17 33 40 9 32
split_gain=0.00854492 0.00577814 0.00563713 0.0140292 0.0101184 0.0175284 0.0050839 0.00342608 0.0032982 0.00149656 0.00109714 0.00189341 0.000603422 0.000414009 0.000289356 0.000427604 0.000277166 0.000232174 0.000118019 0.000112563 0.00010404 9.42184e-05 6.44097e-05
threshold=19.500000000000004 85.000000000000014 1.5000000000000002 41.500000000000007 115.00000000000001 205.00000000000003 8.5000000000000018 2.5000000000000004 36.500000000000007 27.500000000000004 41.500000000000007 40.500000000000007 2.5000000000000004 4.5000000000000009 45.500000000000007 115.00000000000001 305.00000000000006 1.5000000000000002 20.500000000000004 14.500000000000002 1.0000000180025095e-35 2.5000000000000004 41.500000000000007
decision_type=2 2 2 2 2 2 2 2 2 2 2 2 2 2 2 2 2 2 2 2 2 2 2
left_child=1 10 12 7 5 -5 -2 8 -4 18 11 13 22 20 17 -16 -9 -12 -8 -14 -1 -19 -3
right_child=6 2 3 4 -6 -7 9 16 -10 -11 14 -13 19 -15 15 -17 -18 21 -20 -21 -22 -23 -24
leaf_value=6.1124613817959818e-05 -0.00042056992248641715 6.3408622892373911e-05 -0.0001109647523206208 -0.00074612459224281894 4.7260287895121356e-05 4.230000078678131e-06 -3.5159732287866066e-06 6.8846751839436341e-05 0.00015071979533372954 -0.00023814474775766333 7.7752981885847907e-05 -0.00010672360836692593 2.9315792062588419e-05 1.9429834222326051e-05 7.9520467219296547e-05 -1.0153386586656173e-05 2.1709717287031263e-05 0.0001484817168788939 -6.1906487758581842e-05 -1.6810081979201642e-05 9.7531157545745382e-05 0.00010757998200133442 9.2095556983750468e-05
leaf_weight=146 24 56 155 33 22 20 20 87 22 21 71 34 179 106 187 24 117 41 45 24 40 50 71
leaf_count=146 24 56 155 33 22 20 20 87 22 21 71 34 179 106 187 24 117 41 45 24 40 50 71
internal_value=6.89743e-06 1.94964e-05 -1.77074e-05 -6.32715e-05 -0.000313304 -0.000462972 -0.000163189 -1.40525e-05 -7.8439e-05 -9.13622e-05 6.13308e-05 3.45288e-05 4.52538e-05 5.0976e-05 8.47556e-05 6.93206e-05 4.18123e-05 0.000104859 -4.39402e-05 2.38625e-05 6.8954e-05 0.000126008 7.94462e-05
internal_weight=1595 1485 786 456 75 53 110 381 177 86 699 326 330 292 373 211 204 162 65 203 186 91 127
internal_count=1595 1485 786 456 75 53 110 381 177 86 699 326 330 292 373 211 204 162 65 203 186 91 127
is_linear=0
shrinkage=0.02


Tree=32
num_leaves=24
num_cat=0
split_feature=8 22 23 9 16 23 7 16 39 9 16 41 8 8 19 19 17 8 8 9 8 22 33
split_gain=0.00871284 0.00678899 0.00326444 0.00447719 0.00991446 0.00527877 0.0139026 0.00538968 0.00266196 0.00291988 0.00118205 0.00108283 0.000779235 0.000699861 0.00349204 0.0008671 0.000318649 9.48447e-05 9.1183e-05 4.27165e-05 3.44001e-05 1.41903e-05 1.0984e-05
threshold=90.500000000000014 325.00000000000006 80.000000000000014 1.5000000000000002 39.500000000000007 145.00000000000003 1.0000000180025095e-35 43.500000000000007 265.00000000000006 2.5000000000000004 25.500000000000004 1.0000000180025095e-35 21.500000000000004 2.5000000000000004 6.5000000000000009 8.5000000000000018 14.500000000000002 9.5000000000000018 1.5000000000000002 1.5000000000000002 49.500000000000007 155.00000000000003 2.5000000000000004
decision_type=2 2 2 2 2 2 2 2 2 2 2 2 2 2 2 2 2 2 2 2 2 2 2
left_child=2 -2 11 12 8 6 -6 -7 10 -10 -5 13 17 18 -15 -16 20 21 -1 -20 -14 -4 -19
right_child=1 -3 3 4 5 7 -8 -9 9 -11 -12 -13 16 14 15 -17 -18 22 19 -21 -22 -23 -24
leaf_value=7.6500734968188526e-05 -0.000535324917465914 -7.3406915047339029e-05 9.8433591026280608e-05 -5.2626065880758687e-05 -0.0007713946327567101 -0.00031003454700112343 -7.33587771654129e-05 0.00015427913377061487 -0.00012076941031682508 1.707968431479198e-05 8.3827835155605543e-05 -9.3667172948785484e-05 3.017083944810815e-05 -0.00020709600352512844 9.2409855168749984e-05 3.1983155395217488e-05 -4.2879681514023106e-05 6.3814814365877395e-05 8.7175078224390742e-05 0.00012638979125767947 9.1731500469904864e-06 8.1369635987688199e-05 4.8863733808199564e-05
leaf_weight=150 20 35 35 32 21 20 25 20 120 126 123 21 142 22 139 300 32 57 20 25 40 44 30
leaf_count=150 20 35 35 32 21 20 25 20 120 126 123 21 142 22 139 300 32 57 20 25 40 44 30
internal_value=5.9821e-06 -0.000241377 1.47935e-05 -1.09043e-05 -5.10511e-05 -0.000245911 -0.000392027 -7.78777e-05 -9.2606e-06 -5.01638e-05 5.56567e-05 4.77033e-05 4.05469e-05 5.22289e-05 3.87935e-05 5.1116e-05 1.53226e-05 7.3065e-05 8.39916e-05 0.000108961 2.5556e-05 8.89296e-05 5.86593e-05
internal_weight=1599 55 1544 867 487 86 46 40 401 246 155 677 380 656 461 439 214 166 195 45 182 79 87
internal_count=1599 55 1544 867 487 86 46 40 401 246 155 677 380 656 461 439 214 166 195 45 182 79 87
is_linear=0
shrinkage=0.02


Tree=33
num_leaves=18
num_cat=0
split_feature=8 35 8 23 35 23 39 8 32 22 8 35 17 17 38 8 16
split_gain=0.00803557 0.00362386 0.00535623 0.00251734 0.00396495 0.00359995 0.00598461 0.00387405 0.00178476 0.00350239 0.00148071 0.00199231 0.00118458 0.00110456 9.61063e-05 2.5236e-05 2.28794e-05
threshold=90.500000000000014 18.500000000000004 38.500000000000007 80.000000000000014 9.5000000000000018 145.00000000000003 80.000000000000014 5.5000000000000009 45.500000000000007 20.000000000000004 24.500000000000004 12.500000000000002 1.0000000180025095e-35 27.500000000000004 120.00000000000001 1.5000000000000002 36.500000000000007
decision_type=2 2 2 2 2 2 2 2 2 2 2 2 2 2 2 2 2
left_child=1 3 -3 8 5 6 -5 -7 9 -1 16 -12 -11 -2 15 -10 -6
right_child=13 2 -4 4 10 7 -8 -9 14 12 11 -13 -14 -15 -16 -17 -18
leaf_value=-0.00018476577790673164 -0.00017299778393366563 2.6291728904147428e-05 -0.00032374851172789932 -0.0004041776324932774 6.5962314056516947e-05 0.00013299338757155501 -5.1863523700309018e-05 -5.8131511557723024e-05 7.3585735309394137e-05 -5.2107222020052944e-05 -0.00011822780441434589 3.0814075843316131e-05 4.0821843411487698e-05 -0.0003712215376815394 0.0001232419617008418 9.2657808187034213e-05 8.2103003999994451e-05
leaf_weight=34 22 36 34 30 131 49 54 316 151 65 50 127 352 23 20 34 48
leaf_count=34 22 36 34 30 131 49 54 316 151 65 50 127 352 23 20 34 48
internal_value=-1.08965e-05 -3.15405e-06 -0.000143728 3.58118e-06 -2.01178e-05 -5.96411e-05 -0.00017769 -3.24736e-05 3.2663e-05 1.04219e-05 2.97304e-05 -1.12882e-05 2.63365e-05 -0.000274312 8.15934e-05 7.70909e-05 7.02905e-05
internal_weight=1576 1531 70 1461 805 449 84 365 656 451 356 177 417 45 205 185 179
internal_count=1576 1531 70 1461 805 449 84 365 656 451 356 177 417 45 205 185 179
is_linear=0
shrinkage=0.02


Tree=34
num_leaves=24
num_cat=0
split_feature=8 23 32 19 33 8 8 40 35 23 8 32 39 32 8 8 36 8 8 8 8 17 36
split_gain=0.00789692 0.00287914 0.00611233 0.00580744 0.00676939 0.00262842 0.00254268 0.00200906 0.00185769 0.00176819 0.00368368 0.00167479 0.00148345 0.00145342 0.00119055 0.00172363 0.00345151 0.000300537 0.000293152 0.000186312 0.000256387 8.53569e-05 9.44854e-06
threshold=90.500000000000014 80.000000000000014 41.500000000000007 6.5000000000000009 1.0000000180025095e-35 62.500000000000007 66.500000000000014 1.0000000180025095e-35 11.500000000000002 325.00000000000006 25.500000000000004 39.500000000000007 115.00000000000001 43.500000000000007 7.5000000000000009 10.500000000000002 1.5000000000000002 22.500000000000004 20.500000000000004 2.5000000000000004 1.5000000000000002 19.500000000000004 1.5000000000000002
decision_type=2 2 2 2 2 2 2 2 2 2 2 2 2 2 2 2 2 2 2 2 2 2 2
left_child=1 7 5 -4 12 9 -7 14 -2 17 -11 -9 -5 -13 19 16 -16 -3 -17 20 -1 -8 -21
right_child=8 2 3 4 -6 6 21 11 -10 10 -12 13 -14 -15 15 18 -18 -19 -20 22 -22 -23 -24
leaf_value=7.2799846522638912e-05 -0.00039794616005383438 7.1278825831848765e-05 -0.00042986078957176724 -4.1131796867791882e-05 -0.00030261144710656921 -0.00027939143491929153 -1.7496881382179534e-05 -0.00019277817193562023 -0.00015223322254314552 -0.00013869682955555619 2.6118180965716661e-05 0.00010992510351710595 0.00013784938146946607 -9.9580294659568208e-05 -0.00021173943943508409 6.7582990467438797e-05 8.811618820930431e-05 3.2987244759889325e-05 2.3454659696690957e-05 9.0513712830013704e-05 1.5575602196921139e-05 -6.6126764101103296e-05 0.00010441227722913028
leaf_weight=159 20 142 23 59 39 23 42 26 32 75 196 26 27 27 34 102 28 194 147 90 39 22 25
leaf_count=159 20 142 23 59 39 23 42 26 32 75 196 26 27 27 34 102 28 194 147 90 39 22 25
internal_value=-4.31796e-06 3.84117e-06 -2.11059e-05 -0.000137794 -8.40535e-05 3.77862e-06 -9.90306e-05 3.37208e-05 -0.000246738 1.8514e-05 -1.94948e-05 -6.13019e-05 1.506e-05 3.19594e-06 4.57509e-05 1.80367e-05 -7.63208e-05 4.917e-05 4.15313e-05 7.32881e-05 6.15284e-05 -3.42134e-05 9.35351e-05
internal_weight=1597 1545 842 148 125 694 87 703 52 607 271 79 86 53 624 311 62 336 249 313 198 64 115
internal_count=1597 1545 842 148 125 694 87 703 52 607 271 79 86 53 624 311 62 336 249 313 198 64 115
is_linear=0
shrinkage=0.02


Tree=35
num_leaves=24
num_cat=0
split_feature=23 2 40 17 16 32 39 22 16 20 32 19 20 16 33 17 2 22 33 16 39 22 32
split_gain=0.00410764 0.00450726 0.00413841 0.00430552 0.00356469 0.00777992 0.00612866 0.00236633 0.0021885 0.00267062 0.00156398 0.00305157 0.00129464 0.00120167 0.000862491 0.00261762 0.00429243 0.000798474 0.000672863 0.000517956 0.000435947 0.00128354 0.000382723
threshold=325.00000000000006 1.0000000180025095e-35 1.0000000180025095e-35 1.0000000180025095e-35 30.500000000000004 33.500000000000007 95.000000000000014 205.00000000000003 22.500000000000004 3.5000000000000004 39.500000000000007 8.5000000000000018 4.5000000000000009 21.500000000000004 1.0000000180025095e-35 1.0000000180025095e-35 1.0000000180025095e-35 325.00000000000006 1.0000000180025095e-35 41.500000000000007 80.000000000000014 125.00000000000001 28.500000000000004
decision_type=2 2 2 2 2 2 2 2 2 2 2 2 2 2 2 2 2 2 2 2 2 2 2
left_child=2 4 8 -4 6 -6 -2 10 9 -1 11 -5 -3 17 20 16 -16 -8 -12 -17 21 -10 -14
right_child=1 12 3 7 5 -7 13 -9 14 -11 18 -13 22 -15 15 19 -18 -19 -20 -21 -22 -23 -24
leaf_value=-0.00022879445894364767 -0.00038242158056660133 5.2455677668875054e-05 -0.00031639511524527163 -0.00027137882378883659 -0.00058680001483298841 -9.231856086158327e-05 -0.00018417981601530863 -0.00021405964941950513 6.5481460172465297e-05 -7.9467739801500628e-06 -2.8309657770608153e-05 6.9963154220948289e-05 -3.0204740952343698e-05 4.2083171352998282e-05 -0.0002294057346164034 2.7310211740142409e-05 0.00012525677259656647 -1.1765409210717983e-05 0.00010980487270497306 9.1571609414781315e-05 0.00010536118841949193 -6.6135541864616033e-05 -0.00013466370945388917
leaf_weight=27 22 99 27 20 20 35 21 25 231 116 21 22 47 61 39 482 21 22 43 56 68 34 20
leaf_count=27 22 99 27 20 20 35 21 25 231 116 21 22 47 61 39 482 21 22 43 56 68 34 20
internal_value=-7.97796e-06 -6.87601e-05 9.14168e-06 -8.64268e-05 -0.00013779 -0.00027213 -7.91493e-05 -3.90288e-05 2.32011e-05 -4.96453e-05 2.25207e-06 -9.25806e-05 6.50732e-06 -1.49956e-05 3.43902e-05 2.00253e-05 -0.000105274 -9.59678e-05 6.4486e-05 3.39991e-05 6.01867e-05 4.85948e-05 -6.13865e-05
internal_weight=1579 347 1232 158 181 55 126 131 1074 143 106 42 166 104 931 598 60 43 64 538 333 265 67
internal_count=1579 347 1232 158 181 55 126 131 1074 143 106 42 166 104 931 598 60 43 64 538 333 265 67
is_linear=0
shrinkage=0.02


Tree=36
num_leaves=24
num_cat=0
split_feature=16 39 40 17 35 8 35 17 8 32 8 32 35 32 32 19 39 39 32 16 32 22 8
split_gain=0.00886064 0.00682146 0.0046733 0.00268194 0.00495145 0.00379712 0.00229615 0.00213445 0.00120446 0.00161658 0.00283899 0.00111173 0.00115468 0.000786131 0.000786368 0.000695288 0.000335519 0.000332975 0.000667386 0.0002757 0.000218982 0.000162711 0.000132124
threshold=22.500000000000004 305.00000000000006 1.0000000180025095e-35 1.5000000000000002 9.5000000000000018 3.5000000000000004 17.500000000000004 27.500000000000004 6.5000000000000009 41.500000000000007 8.5000000000000018 34.500000000000007 6.5000000000000009 19.500000000000004 15.500000000000002 8.5000000000000018 50.000000000000007 95.000000000000014 45.500000000000007 50.000000000000007 36.500000000000007 85.000000000000014 21.500000000000004
decision_type=2 2 2 2 2 2 2 2 2 2 2 2 2 2 2 2 2 2 2 2 2 2 2
left_child=1 -1 8 5 20 -4 7 13 16 11 15 12 -10 14 -3 -11 19 21 -19 -2 -5 -18 -13
right_child=2 6 3 4 -6 -7 -8 -9 9 10 -12 22 -14 -15 -16 -17 17 18 -20 -21 -22 -23 -24
leaf_value=-0.00038956971975557245 1.0039913622491366e-05 -2.920199075321618e-05 2.9995405803556028e-05 2.8932715479352671e-05 -0.00023004256376636125 -0.00029401317573128606 -0.00026437169334496419 -0.00021918369042687118 -0.00013410372125508728 -4.8288763733580714e-05 -0.00020314246314228512 7.1775130761255119e-05 2.242658296392797e-05 4.2340985147122295e-06 -0.00018170116383338437 0.00010729506456603608 8.7881618555327626e-05 0.00012238263036124409 -2.0195165777514721e-05 6.844753441155741e-05 9.1574753311519718e-05 0.00013007705590941689 3.7812470213144215e-05
leaf_weight=29 49 38 23 41 31 39 21 25 20 20 32 252 328 133 21 27 109 24 29 95 49 55 56
leaf_count=29 49 38 23 41 31 39 21 25 20 20 32 252 328 133 21 27 109 24 29 95 49 55 56
internal_value=4.82724e-06 -9.9967e-05 2.67038e-05 -6.68554e-05 -1.20489e-05 -0.000173816 -6.46793e-05 -4.53542e-05 4.23254e-05 2.76317e-05 -5.78401e-05 3.79248e-05 1.34306e-05 -2.27201e-05 -8.34814e-05 4.10892e-05 7.22419e-05 8.79487e-05 4.43684e-05 4.85727e-05 6.30378e-05 0.000102033 6.56001e-05
internal_weight=1546 267 1279 183 121 62 238 217 1096 735 79 656 348 192 59 47 361 217 53 144 90 164 308
internal_count=1546 267 1279 183 121 62 238 217 1096 735 79 656 348 192 59 47 361 217 53 144 90 164 308
is_linear=0
shrinkage=0.02


Tree=37
num_leaves=21
num_cat=0
split_feature=40 9 35 17 9 16 38 17 39 36 7 32 35 22 39 20 16 32 19 36
split_gain=0.00564546 0.00485568 0.0103435 0.0112253 0.00254818 0.00168298 0.0031642 0.00234522 0.00149487 0.00123156 0.00105024 0.000419383 0.000362052 0.000642455 0.000355131 0.000314327 0.000124608 4.60011e-05 1.97385e-05 6.77536e-07
threshold=1.0000000180025095e-35 1.5000000000000002 9.5000000000000018 1.5000000000000002 2.5000000000000004 43.500000000000007 35.000000000000007 1.0000000180025095e-35 320.00000000000006 1.5000000000000002 1.0000000180025095e-35 37.500000000000007 7.5000000000000009 125.00000000000001 320.00000000000006 1.0000000180025095e-35 20.500000000000004 46.500000000000007 8.5000000000000018 1.0000000180025095e-35
decision_type=2 2 2 2 2 2 2 2 2 2 2 2 2 2 2 2 2 2 2 2
left_child=5 14 3 4 -3 6 -1 -8 10 -10 -9 16 13 15 18 17 -5 -7 -2 -15
right_child=1 2 -4 11 -6 12 7 8 9 -11 -12 -13 -14 19 -16 -17 -18 -19 -20 -21
leaf_value=-0.00023717464934591028 9.7499830324364735e-05 -0.00020879281125962734 -0.00055315608878365975 -2.3491878050663217e-05 -0.00051166988280601804 8.9032398300024416e-05 -0.00019335037605328995 5.8243183919766608e-05 3.7694149239720647e-05 -3.8961104860187443e-05 4.4343404691076903e-06 0.00010159171943087131 0.00012582446914166212 -1.5231103805655783e-05 -1.3504083432384175e-05 1.0810618389498543e-05 3.6029246034826535e-05 6.8147008796340497e-05 7.1001514919440847e-05 -2.0140489644330483e-05
leaf_weight=21 23 25 22 24 20 59 22 342 122 268 252 32 29 22 22 37 34 148 22 23
leaf_count=21 23 25 22 24 20 59 22 342 122 268 252 32 29 22 22 37 34 148 22 23
internal_value=2.76961e-06 -9.01924e-05 -0.000151022 -8.54896e-05 -0.000343405 1.82518e-05 5.80268e-06 1.08748e-05 1.54408e-05 -1.49818e-05 3.54152e-05 4.3468e-05 5.84568e-05 5.16967e-05 5.23498e-05 6.45027e-05 1.13998e-05 7.40998e-05 8.45451e-05 -1.77403e-05
internal_weight=1569 224 157 135 45 1345 1027 1006 984 390 594 90 318 289 67 244 58 207 45 45
internal_count=1569 224 157 135 45 1345 1027 1006 984 390 594 90 318 289 67 244 58 207 45 45
is_linear=0
shrinkage=0.02


Tree=38
num_leaves=20
num_cat=0
split_feature=33 23 38 23 8 16 33 33 19 16 35 8 39 16 8 33 19 35 22
split_gain=0.00563267 0.00329822 0.00884821 0.00402647 0.00248477 0.00278919 0.00157167 0.00276416 0.00363464 0.00148552 0.000577659 0.000386765 0.000382654 0.000314076 0.000283182 7.40253e-05 5.19758e-05 3.97734e-05 5.95356e-06
threshold=24.500000000000004 115.00000000000001 35.000000000000007 145.00000000000003 5.5000000000000009 39.500000000000007 1.0000000180025095e-35 1.5000000000000002 7.5000000000000009 41.500000000000007 4.5000000000000009 20.500000000000004 115.00000000000001 45.500000000000007 1.5000000000000002 7.5000000000000009 8.5000000000000018 9.5000000000000018 205.00000000000003
decision_type=2 2 2 2 2 2 2 2 2 2 2 2 2 2 2 2 2 2 2
left_child=1 6 -3 12 18 -6 10 8 -8 -10 -1 16 -4 17 -15 -13 -9 -12 -5
right_child=-2 2 3 4 5 -7 7 11 9 -11 13 15 -14 14 -16 -17 -18 -19 -20
leaf_value=-1.2443579810981949e-05 -0.00028918044717621733 -0.00039426244177425714 -0.00026128062128048877 0.00014001606315698314 -6.9626834915194978e-06 -0.00017161518409424884 -0.00022801948341135032 9.106230062624329e-05 -5.3881614573527961e-05 8.4927580733266131e-05 0.00010458112846055393 3.4477107101440525e-05 -0.0001431980538403704 6.8467258664895784e-05 1.5067053027451038e-06 6.6447429436714207e-06 6.1946435208400628e-05 7.3981349400821191e-05 0.00012577646664188556
leaf_weight=36 28 26 23 23 636 44 39 34 98 45 89 89 21 120 32 67 88 21 24
leaf_count=36 28 26 23 23 636 44 39 34 98 45 89 89 21 120 32 67 88 21 24
internal_value=-8.03381e-06 -2.97137e-06 -3.13774e-05 -1.914e-05 -7.89591e-06 -1.76167e-05 2.68962e-05 3.71663e-06 -5.68759e-05 -1.02004e-05 6.26767e-05 4.33851e-05 -0.000204923 7.29985e-05 5.43703e-05 2.25235e-05 7.00607e-05 9.87394e-05 0.000132745
internal_weight=1583 1555 797 771 727 680 758 460 182 143 298 278 44 262 152 156 122 110 47
internal_count=1583 1555 797 771 727 680 758 460 182 143 298 278 44 262 152 156 122 110 47
is_linear=0
shrinkage=0.02


Tree=39
num_leaves=24
num_cat=0
split_feature=8 22 9 9 22 32 38 24 39 33 8 17 8 8 11 8 16 38 22 22 17 39 22
split_gain=0.00704998 0.0056624 0.00452572 0.00518489 0.00755238 0.0184439 0.00431601 0.00375603 0.00673639 0.00185105 0.00315939 0.00110481 0.00104326 0.000782217 0.000603423 0.000253632 8.511e-05 7.89659e-05 7.0874e-05 5.58707e-05 4.9189e-05 3.79417e-05 2.22322e-05
threshold=90.500000000000014 325.00000000000006 1.5000000000000002 2.5000000000000004 85.000000000000014 41.500000000000007 275.00000000000006 1.0000000180025095e-35 145.00000000000003 1.0000000180025095e-35 12.500000000000002 5.5000000000000009 19.500000000000004 26.500000000000004 1.0000000180025095e-35 58.500000000000007 40.500000000000007 45.000000000000007 140.00000000000003 85.000000000000014 16.500000000000004 305.00000000000006 155.00000000000003
decision_type=2 2 2 2 2 2 2 2 2 2 2 2 2 2 2 2 2 2 2 2 2 2 2
left_child=2 -2 12 4 9 6 -6 11 -9 17 -11 14 16 -13 -5 21 -1 -4 -10 -18 -17 -14 -21
right_child=1 -3 3 7 5 -7 -8 8 18 10 -12 13 15 -15 -16 20 19 -19 -20 22 -22 -23 -24
leaf_value=5.6227175241182428e-05 -0.00048337970646874362 -6.0727259396458065e-05 7.7842257063214971e-05 7.4097389701935942e-05 3.6263377100911432e-05 -0.00054543507890775797 -0.00016596781019335066 -0.00034776623738158884 -4.9129257122331188e-06 -0.00015788416165615551 5.5485358736145182e-05 -0.00012155312200775371 4.0537985725866561e-05 1.701049909322385e-05 -3.7158635386731475e-05 -4.17307385132084e-06 7.0690980714355268e-05 0.00012418143622773258 4.1600755009169105e-05 0.00010239926840815889 -4.2281409332645128e-05 2.3380298229172836e-05 8.1037024967372425e-05
leaf_weight=109 21 32 24 273 82 40 87 29 20 46 70 20 77 88 21 42 155 38 38 38 20 156 40
leaf_count=109 21 32 24 273 82 40 87 29 20 46 70 20 77 88 21 42 155 38 38 38 20 156 40
internal_value=-1.46296e-06 -0.000228193 6.47934e-06 -2.30173e-05 -7.77121e-05 -0.000159249 -6.78438e-05 2.02688e-05 -9.8881e-05 1.80248e-05 -2.91267e-05 4.6055e-05 4.7043e-05 -8.64943e-06 6.61505e-05 1.94843e-05 7.08144e-05 0.000106244 2.55616e-05 7.76384e-05 -1.64661e-05 2.90504e-05 9.14443e-05
internal_weight=1566 53 1513 876 387 209 169 489 87 178 116 402 637 108 294 295 342 62 58 233 62 233 78
internal_count=1566 53 1513 876 387 209 169 489 87 178 116 402 637 108 294 295 342 62 58 233 62 233 78
is_linear=0
shrinkage=0.02


Tree=40
num_leaves=24
num_cat=0
split_feature=16 17 35 9 22 8 38 35 17 22 9 17 8 20 8 8 9 32 9 9 8 35 16
split_gain=0.00741131 0.0040612 0.00363582 0.00764195 0.00227916 0.0029438 0.00188983 0.00440376 0.00151767 0.00208974 0.000728771 0.00215912 0.00850444 0.00464459 0.00158259 0.00300293 0.000701284 0.000541601 0.000216213 0.000153791 5.65212e-05 5.54259e-05 4.6917e-05
threshold=22.500000000000004 27.500000000000004 18.500000000000004 1.5000000000000002 325.00000000000006 44.500000000000007 225.00000000000003 13.500000000000002 14.500000000000002 285.00000000000006 1.5000000000000002 1.0000000180025095e-35 2.5000000000000004 1.0000000180025095e-35 8.5000000000000018 12.500000000000002 2.5000000000000004 37.500000000000007 2.5000000000000004 1.5000000000000002 31.500000000000004 8.5000000000000018 40.500000000000007
decision_type=2 2 2 2 2 2 2 2 2 2 2 2 2 2 2 2 2 2 2 2 2 2 2
left_child=1 2 8 -4 10 6 19 -8 -1 -10 17 12 16 -14 18 -16 -12 20 -13 -6 -2 -11 -19
right_child=4 -3 3 -5 5 -7 7 -9 9 21 11 14 13 -15 15 -17 -18 22 -20 -21 -22 -23 -24
leaf_value=1.8446747569766412e-05 3.839674810296856e-05 -0.000347332161466263 5.9238098794594404e-05 -0.00047010575687939614 4.6306951016958923e-05 -0.00026120429646901109 -0.00029737034055870025 4.868093338461078e-05 -0.00024613636650028638 -4.6541615301975978e-06 0.00011302738242406162 0.00016505579703620502 -5.7033615122581351e-05 -0.0004149815119032202 -9.3555019774402555e-05 5.5712261242960374e-05 1.9938050616194512e-05 5.7961166803579544e-05 9.9092819019342248e-05 0.00011328137067418235 1.6353967756386784e-05 -4.416333910016039e-05 7.7407225877956841e-05
leaf_weight=117 120 22 20 24 32 22 24 38 25 20 47 35 29 29 65 316 104 64 46 24 76 49 221
leaf_count=117 120 22 20 24 32 22 24 38 25 20 47 35 29 29 65 316 104 64 46 24 76 49 221
internal_value=7.2654e-06 -8.66112e-05 -6.41177e-05 -0.000229495 2.73922e-05 -4.88067e-05 -9.2071e-06 -8.52744e-05 -2.96314e-05 -8.94734e-05 3.66525e-05 2.31842e-05 -3.0156e-05 -0.000236008 4.73143e-05 3.02467e-05 4.89129e-05 5.54408e-05 0.000127595 7.50103e-05 2.98495e-05 -3.27114e-05 7.30404e-05
internal_weight=1569 277 255 44 1292 140 118 62 211 94 1152 671 209 58 462 381 151 481 81 56 196 69 285
internal_count=1569 277 255 44 1292 140 118 62 211 94 1152 671 209 58 462 381 151 481 81 56 196 69 285
is_linear=0
shrinkage=0.02


Tree=41
num_leaves=24
num_cat=0
split_feature=33 38 40 38 17 35 8 22 8 22 22 35 36 38 22 2 8 8 8 36 22 33 33
split_gain=0.00444221 0.00551664 0.00323542 0.00283168 0.00255565 0.00248679 0.00227958 0.00255888 0.00209634 0.00150364 0.00908086 0.0126388 0.0012519 0.00175336 0.000927415 0.00231045 0.000755343 0.000661797 0.000636885 0.00158173 0.000401045 0.000339169 0.000304893
threshold=6.5000000000000009 35.000000000000007 1.0000000180025095e-35 165.00000000000003 1.5000000000000002 9.5000000000000018 90.500000000000014 325.00000000000006 39.500000000000007 105.00000000000001 155.00000000000003 7.5000000000000009 4.5000000000000009 325.00000000000006 205.00000000000003 1.0000000180025095e-35 6.5000000000000009 18.500000000000004 10.500000000000002 1.5000000000000002 125.00000000000001 1.0000000180025095e-35 14.500000000000002
decision_type=2 2 2 2 2 2 2 2 2 2 2 2 2 2 2 2 2 2 2 2 2 2 2
left_child=2 -2 9 4 21 -6 8 -8 -3 16 11 -11 22 -14 15 -12 -1 -16 19 -18 -5 -4 -10
right_child=1 6 3 20 5 -7 7 -9 12 10 14 -13 13 -15 17 -17 18 -19 -20 -21 -22 -23 -24
leaf_value=7.5607495095296421e-05 -0.00037049468784105215 -0.00018372845573045701 -0.00031395666580647229 0.0001208733375692232 8.769561743570698e-05 -0.00020249210675025268 -0.00033940991031704472 -5.2714381643895513e-05 2.8854936294053568e-05 -0.00061953111950840262 0.00010119754032024907 -1.0952401894311875e-05 9.1554702417592378e-06 -0.00020113664625537713 9.5894947485707771e-05 -0.00015589622764623372 -7.7340527084367026e-05 3.3515876872035371e-05 5.0533632969139334e-05 9.0016417356358986e-05 -2.8708609752357004e-06 -0.00019748023059219124 -1.4589655902888072e-05
leaf_weight=298 21 29 20 22 27 21 20 33 168 21 27 39 35 29 109 29 58 181 204 37 20 20 105
leaf_count=298 21 29 20 22 27 21 20 33 168 21 27 39 35 29 109 29 58 181 204 37 20 20 105
internal_value=-2.33227e-07 -5.41661e-05 2.07116e-05 -7.31653e-05 -0.000137651 -3.92615e-05 -3.83119e-05 -0.000160901 -2.05599e-05 3.28791e-05 3.18465e-06 -0.000223955 -6.51871e-06 -8.61331e-05 4.2573e-05 -3.19403e-05 5.30733e-05 5.69618e-05 3.06144e-05 -1.21594e-05 6.19475e-05 -0.000255718 1.21455e-05
internal_weight=1573 440 1133 130 88 48 419 53 366 1003 406 60 337 64 346 56 597 290 299 95 42 40 273
internal_count=1573 440 1133 130 88 48 419 53 366 1003 406 60 337 64 346 56 597 290 299 95 42 40 273
is_linear=0
shrinkage=0.02


Tree=42
num_leaves=24
num_cat=0
split_feature=17 9 9 11 8 23 38 8 38 17 8 40 38 8 23 32 23 23 17 17 39 8 8
split_gain=0.0061359 0.0041957 0.00553369 0.00619744 0.00596878 0.0138423 0.00514073 0.00269143 0.00221913 0.0010053 0.000881509 0.000453686 0.00295812 0.000230789 0.000229515 8.66964e-05 4.77773e-05 4.71385e-05 4.39728e-05 4.35016e-05 2.79551e-05 1.28875e-05 1.02947e-05
threshold=27.500000000000004 1.5000000000000002 2.5000000000000004 1.0000000180025095e-35 10.500000000000002 115.00000000000001 120.00000000000001 54.500000000000007 205.00000000000003 1.5000000000000002 19.500000000000004 1.0000000180025095e-35 120.00000000000001 58.500000000000007 115.00000000000001 40.500000000000007 115.00000000000001 145.00000000000003 17.500000000000004 13.500000000000002 305.00000000000006 49.500000000000007 38.500000000000007
decision_type=2 2 2 2 2 2 2 2 2 2 2 2 2 2 2 2 2 2 2 2 2 2 2
left_child=1 10 3 4 5 -3 -6 11 -9 -5 15 14 -13 20 -4 -1 -17 -18 -15 -10 22 -22 -12
right_child=-2 2 7 9 6 -7 -8 8 19 -11 13 12 -14 18 -16 16 17 -19 -20 -21 21 -23 -24
leaf_value=5.2953544948591826e-05 -0.00033214409724512903 -9.2635711569491084e-05 6.1676419458243418e-05 0.00023088564253633933 7.9102329189053677e-05 -0.00056098430746180173 -0.00011511386464343033 -0.00026624656552095465 1.1352177489243331e-06 5.4886614148820039e-05 3.4316425265457772e-05 -0.00017648845175281168 0.00010835731116860968 -6.2026564117129769e-07 2.9448255421787145e-05 6.8427884002125625e-05 0.00011458840873092413 7.792850777982397e-05 -3.4142650523184182e-05 -3.8280899219292526e-05 2.6499243357980121e-05 9.9091440047645435e-06 5.014453029037792e-05
leaf_weight=109 22 98 224 21 85 34 152 21 24 34 65 25 35 45 146 144 20 47 24 21 126 22 22
leaf_count=109 22 98 224 21 85 34 152 21 24 34 65 25 35 45 146 144 20 47 24 21 126 22 22
internal_value=-4.89846e-07 4.2358e-06 -2.29165e-05 -7.59685e-05 -0.000105489 -0.000213271 -4.54583e-05 2.24343e-05 -9.64823e-05 0.000122086 4.42681e-05 4.06866e-05 -1.03284e-05 1.98793e-05 4.89594e-05 6.74374e-05 7.49195e-05 8.88718e-05 -1.22802e-05 -1.7259e-05 2.93219e-05 2.40331e-05 3.83189e-05
internal_weight=1566 1544 920 424 369 132 237 496 66 55 624 430 60 304 370 320 211 67 69 45 235 148 87
internal_count=1566 1544 920 424 369 132 237 496 66 55 624 430 60 304 370 320 211 67 69 45 235 148 87
is_linear=0
shrinkage=0.02


Tree=43
num_leaves=24
num_cat=0
split_feature=24 36 18 8 35 25 19 8 35 16 16 23 33 22 36 33 35 17 33 8 19 16 8
split_gain=0.00393351 0.007623 0.00519844 0.00163804 0.00185719 0.00168532 0.00590822 0.00637388 0.0015022 0.00347247 0.000736066 0.000640078 0.000935165 0.0053041 0.000856692 0.000447398 0.00037624 0.000345668 0.000145891 0.00010448 6.92384e-05 5.6277e-05 4.9408e-05
