tree
version=v4
num_class=1
num_tree_per_iteration=1
label_index=0
max_feature_idx=47
objective=regression
feature_names=file step_index entry_index status select_context select_type select_option_count yourIndex turn turnActionCount firstPlayer energyAttached supporterPlayed stadiumPlayed retreated result p0_deckCount p0_discardCount p0_prizeCount p0_handCount p0_benchCount p0_activeExists p0_activeHp p0_activeMaxHp p0_activeEnergyCount p0_activeToolCount p0_activeAppearThisTurn p0_poisoned p0_burned p0_asleep p0_paralyzed p0_confused p1_deckCount p1_discardCount p1_prizeCount p1_handCount p1_benchCount p1_activeExists p1_activeHp p1_activeMaxHp p1_activeEnergyCount p1_activeToolCount p1_activeAppearThisTurn p1_poisoned p1_burned p1_asleep p1_paralyzed p1_confused
feature_infos=[1928525465648:1928532982208] none [0:1] none none none none [0:1] [0:58] [0:11] [-1:0] [0:1] [0:1] none none [-1:1] [0:60] [0:34] [0:6] [0:9] [0:5] [0:1] [0:350] [0:350] [0:30] [0:1] [0:1] none none none none none [0:60] [0:21] [0:6] [0:10] [0:5] [0:1] [0:350] [0:350] [0:31] [0:1] [0:1] none none none none none
tree_sizes=827 1334 1153 1505 1146 1411 1330 1233 1145 1415 1145 1504 1595 1056 1325 1236 1235 1234 1067 1594 1513 1322 1323 1326 1766 1501 1337 965 1598 1322 1056 1324 1237 1770 1322 1240 1054 1329 1234 1144 1590 1233 1316 1508 1236 1416 1423 1324 1243 1599 1334 1423 1333 1148 1420 1410 1151 1324 1153 1512 966 1418 1330 1250 1408 964 1223 1333 1149 969 1670 1409 1148 1415 967 1331 1328 1330 1056 1069 1237 1508 1325 1230 1686 1780 1417 1238 1336 1606 1334 1411 1334 1965 1153 1408 961 1319 1335 1421 1243 1423 1783 1147 1506 1155 1603 1336 1408 1617 1526 1328 970 1227 1146 1411 1332 1512 1327 1598 1147 1788 1055 1151 1330 965 1253 1493 1323 1058 1420 1953 1425 1429 1512 1418 1141 1340 1706 1520 1325 1511 1151 1246 1338 1788 1248 1236 1151 1424 1511 1707 1335 1429 1421 1703 1054 1420 1427 1405 1783 1329 1511 1157 1242 1350 1332 1417 1058 1427 1340 1146 1241 1148 1149 972 1072 1519 1330 1319 1790 1343 1422 1245 1155 1255 1337 1344 1503 1603 1326 1328 1515 983 1864 1433 1704 1328 1145 1245 1327 1427 1241 1074 1147 1422 1609 1056 980 1703 1342 1331 1611 977 1251 2051 880 1236 1340 1512 1157 1337 1697 1235 966 1247 1417 1533 1603 1236 1422 1520 1255 1520 1147 1158 1166 1422 1239 1327 1155 1074 1142 1597 1064 1152 1248 1604 1155 1518 1422 1693 967 1059 1427 1802 1155 1875 1241 1243 1434 1519 1340 1254 1243 1422 1792 1251 1429 1607 1338 1420 1234 1528 1435 967 1158 1248 1610 1254 1067 1156 1241 1612 1249 1422 1428 1065 1607 1239 1243 1147 1061 1420 1709 1784 1424 1156 1065 1420 1426 1236 1424 1255 1064 1257 979 1698 1429 1160 1247 1244 1527 1065 1166 1607 1632 1248 1061 1252 1342 1437 1061 1339 1342 1166 1512 1601 1805 1341 1612 1521 1521 1250 1339 1330 1336 1620 1416 1341 1154 1256 1617 1065 975 1618 1250 1061 1237 1337 1157 1237 1157 1785 1337 1232 1245 1334 977 1619 1530 1154 1518 1334 1240 1889 1608 887 1067 1159 1434 1330 1245 1786 1343 1695 891 1431 1329 1162 1249 973 1523 1244 1338 1879 1243 1985 1338 1608 887 1161 1075 1161 1244 2078 1789 1613 1160 1337 1162 1428 1166 1073 1615 888 1525 1159 1620 1335 1697 1249 1331 973 1339 1429 1065 1782 1437 1712 1524 1435 1145 1432 1241 1436 1505 1154 1427 1237 1161 1064 1244 886 1344 1245 1060 884 1513 1151 1438 1521 1518 1338 1604 1167 1606 800 1525 1065 1619 1242 979 973 1168 1154 1062 2070 1335 1532 1340 1254 1973 1259 1072 1247 1603 1067 1156 1152 1335 1528 974 1062 1618 1063 1066 1432 1520 1434 1077 1067 1523 1791 1157 1604 973 1335 1433 1605 1605 983 1150 1255 1349 1799 1430 1071 1430 1151 1154 1421 1520 1250 1789 1338 1441 1693 1609 1530 1166 1253 1075 975 1431 1971 1608 1424 1238 1158 1149 1072 1163 1623 1241 1785 1701 1437 1170 976 1063 1340 1337 1605 1340 1155 1251 1703 1065 1345 1698 1693 970 1255 1264 1429 1430 1077 1348 975 1433 1068 1238 1614 1247 1516 1611 1443 1350 1426 1425 1430 1613 1426 1431 1248 1438 1339 1167 1341 1069 1347 1530 974 1066 1253 1341 1529 1690 1430 1611 1519 1437 893 1428 1338 1529 1439 892 1336 1342 1243 808 1539 979 1334 1706 1619 1624 1626 1347 1438 1066 1527 1336 1343 1165 1345 1260 1158 1521 1509 1063 1164 1339 886 1521 1162 1332 1247 1247 1982 1241 1618 1067 1800 1427 1063 1338 1701 1260 1328 1535 985 1154 1424 1247 1244 1251 1351 1063 1333 1429 1429 1433 1155 1431 1160 1790 1523 973 1066 1524 1974 1343 1427 1441 1172 1157 1436 1155 1709 1338 1249 1075 1157 1351 1342 1244 1065 1255 1158 1341 1519 1067 1517 1345 1608 1438 1342 1152 1064 1247 1443 1430 1432 1328 1520 1608 1155 1608 1082 1165 1156 1339 1694 1059 1249 1248 1433 1618 1629 1349 1702 1335 1253 1517 1065 1530 1521 977 1523 1162 1069 895 1250 1068 1340 1796 1434 1429 1072 1339 1695 893 1431 1253 1257 1625 1514 1169 980 1793 1158 1251 1610 1425 1082 1429 1070 1338 1520 1255 1151 1352 1246 1069 1344 1511 1242 1973 1248 1885 1157 1063 1602 1526 1428 1339 1346 1697 1704 1340 1527 1428 1439 1432 1335 1073 974 1336 1250 1068 1524 1696 1062 1154 1522 1533 1530 1339 1250 1341 1149 1345 1801 1608 1157 1337 1519 1167 1434 1257 1539 1620 1704 1431 980 1521 1249 1344 1788 1435 1620 1705 1338 1171 1609 1162 1339 1153 1063 1429 1251 1342 1253 979 1069 1071 1161 1435 1243 1155 1620 1526 1253 1433 887 1162 1154 1702 1244 1339 1437 1713 1078 1154 1337 1439 1728 1615 1166 1082 1349 1156 1251 1341 1525 2169 1702 1344 1257 1260 1347 1347 1535 1622 1429 1239 1342 1079 1074 1616 1346 1243 1701 1617 1342 1253 1618 1338 1527 1081 1520 983 1890 1699 1161 1620 1066 1076 1619 1156 1166 1513 891 1162 1435 1344 1625 1523 980 1331 1714 1432 1709 1612 1436 1437 1340 1796 1534 1151 1635 1448 1159 976 1531 1068 1527 1072 1434 1156 1243 2264 1248 1622 1073 1526 1247 1430 1980 1517 1615 1886 1342 1072 1884 1256 1256 1602 1152 1530 1157 1442 1433 1162 1423 1158 1165 1066 1433 1264 1249 1258 1156 1436 1696 1434 1530 1063 1062 1240 1525 1423 1342 1348 1620 1060 1702 1433 978 980 1075 1072 1528 1507 1172 1161 1260 1521 1427 1071 1074 1251 1426 1254 1714 1446 1704 1438 1075 1247 1611 1522 1532 1153 1882 1155 1156 1174 1434 1441 1610 1703 1249 1606 1069 1260 1351

Tree=0
num_leaves=8
num_cat=0
split_feature=37 8 36 21 24 16 2
split_gain=0.303568 0.588 0.790032 0.330956 0.0572642 1.38778e-17 8.67362e-19
threshold=1.0000000180025095e-35 2.5000000000000004 1.0000000180025095e-35 1.0000000180025095e-35 26.500000000000004 18.500000000000004 1.0000000180025095e-35
decision_type=2 2 2 2 2 2 2
left_child=1 6 -3 -2 5 -5 -1
right_child=3 2 -4 4 -6 -7 -8
leaf_value=0.49045286993052284 0.48845286990072051 0.48503620318314156 0.49006825454017627 0.49045286993052284 0.48966339623454824 0.49045286993052284 0.49045286993052284
leaf_weight=49 35 24 26 172 38 946 26
leaf_count=49 35 24 26 172 38 946 26
internal_value=0.49027 0.489333 0.487653 0.490369 0.490427 0.490453 0.490453
internal_weight=1316 125 50 1191 1156 1118 75
internal_count=1316 125 50 1191 1156 1118 75
is_linear=0
shrinkage=1


Tree=1
num_leaves=13
num_cat=0
split_feature=15 17 16 39 32 39 8 24 19 16 40 2
split_gain=4.82853 0.0118748 0.0279521 0.00294987 0.0088602 2.92894e-05 6.20265e-05 2.22228e-05 1.17719e-05 6.80618e-06 5.68081e-06 1.38778e-17
threshold=-1.0000000180025095e-35 11.500000000000002 28.500000000000004 250.00000000000003 36.500000000000007 1.0000000180025095e-35 2.5000000000000004 26.500000000000004 6.5000000000000009 41.500000000000007 1.5000000000000002 1.0000000180025095e-35
decision_type=2 2 2 2 2 2 2 2 2 2 2 2
left_child=1 3 10 5 -5 6 8 11 -1 -6 -3 -7
right_child=-2 2 -4 4 9 7 -8 -9 -10 -11 -12 -13
leaf_value=0.00019094260409474373 -0.0097316889166831969 0.00020715139274086271 -0.00063659478522216277 -0.00029705740604549647 0.00019094260409474373 0.00019094260409474373 0.00023385925963521006 0.00020673207938671112 0.00020370856363405572 0.0002054880610243841 0.00019328178561947966 0.00019094260409474373
leaf_weight=75 20 21 24 20 31 514 20 37 47 22 27 467
leaf_count=75 20 21 24 20 31 514 20 37 47 22 27 467
internal_value=2.08993e-05 0.000170364 -7.92984e-05 0.000184943 6.16275e-05 0.000192703 0.000201213 0.000191516 0.000195861 0.00019698 0.00019935 0.000190943
internal_weight=1325 1305 72 1233 73 1160 142 1018 122 53 48 981
internal_count=1325 1305 72 1233 73 1160 142 1018 122 53 48 981
is_linear=0
shrinkage=0.02


Tree=2
num_leaves=11
num_cat=0
split_feature=37 17 11 21 24 17 16 34 19 38
split_gain=0.426347 0.865461 0.177231 0.109546 0.059572 4.27764e-06 5.36245e-06 1.70732e-06 2.78886e-09 2.49744e-09
threshold=1.0000000180025095e-35 9.5000000000000018 1.0000000180025095e-35 1.0000000180025095e-35 26.500000000000004 12.500000000000002 27.500000000000004 5.5000000000000009 6.5000000000000009 345.00000000000006
decision_type=2 2 2 2 2 2 2 2 2 2
left_child=1 2 8 -2 5 7 -7 -5 -1 -9
right_child=3 -3 -4 4 -6 6 -8 9 -10 -11
leaf_value=0.00018712375313043595 -0.0010420666292550102 -0.0047070399993522603 -0.0017975319782271982 0.00019168246975716425 -0.00066218547687372749 0.00018696138635277749 0.00020063154230063612 0.00018712271483933775 0.00018686842173337937 0.00018729455875498909
leaf_weight=44 31 22 24 34 34 24 22 1011 28 35
leaf_count=44 31 22 24 34 34 24 22 1011 28 35
internal_value=1.76519e-05 -0.00112907 -0.000309115 0.000131265 0.000162621 0.000187526 0.000193499 0.000187272 0.000187024 0.000187128
internal_weight=1309 118 96 1191 1160 1126 46 1080 72 1046
internal_count=1309 118 96 1191 1160 1126 46 1080 72 1046
is_linear=0
shrinkage=0.02


Tree=3
num_leaves=15
num_cat=0
split_feature=17 40 38 21 16 23 38 36 21 35 40 35 33 2
split_gain=0.143173 0.322555 0.114761 0.403767 0.0320593 0.012839 0.0539886 0.0109028 1.84894e-05 1.80498e-05 9.89667e-06 3.577e-06 1.49795e-06 8.67362e-19
threshold=10.500000000000002 1.0000000180025095e-35 325.00000000000006 1.0000000180025095e-35 2.5000000000000004 250.00000000000003 85.000000000000014 4.5000000000000009 1.0000000180025095e-35 6.5000000000000009 25.500000000000004 4.5000000000000009 7.5000000000000009 1.0000000180025095e-35
decision_type=2 2 2 2 2 2 2 2 2 2 2 2 2 2
left_child=2 -2 5 -4 -3 7 -7 8 9 -1 -10 -6 -5 -8
right_child=1 4 3 12 11 6 13 -9 10 -11 -12 -13 -14 -15
leaf_value=0.00020369553350304301 -0.0028299843265929005 -0.00073302227116766434 -0.0030160470856797129 0.00018353259501357872 0.00018463521885375182 -0.00085001450891678161 0.00018338128924369812 -0.00028720439132303002 0.00018340287112680797 0.00018313106149435044 0.00019729265410985266 0.00019507334663950164 0.000189764437576135 0.00018338128924369812
leaf_weight=38 22 21 21 36 24 26 64 20 896 31 21 29 27 27
leaf_count=38 22 21 21 36 24 26 64 20 896 31 21 29 27 27
internal_value=3.95717e-05 -0.000703799 9.86965e-05 -0.000614359 -7.16905e-05 0.000152033 -4.62622e-05 0.000175095 0.000184472 0.000194456 0.000183721 0.000190347 0.000186203 0.000183381
internal_weight=1303 96 1207 84 74 1123 117 1006 986 69 917 53 63 91
internal_count=1303 96 1207 84 74 1123 117 1006 986 69 917 53 63 91
is_linear=0
shrinkage=0.02


Tree=4
num_leaves=11
num_cat=0
split_feature=38 8 21 35 32 24 19 18 39 9
split_gain=0.340615 1.08281 0.438672 0.14762 0.0398645 4.72339e-05 3.54677e-05 1.70936e-05 2.76477e-06 7.68913e-09
threshold=1.0000000180025095e-35 2.5000000000000004 1.0000000180025095e-35 5.5000000000000009 1.5000000000000002 25.500000000000004 6.5000000000000009 4.5000000000000009 250.00000000000003 2.5000000000000004
decision_type=2 2 2 2 2 2 2 2 2 2
left_child=1 6 -2 -3 -4 7 9 -6 -9 -1
right_child=2 3 4 -5 5 -7 -8 8 -10 -11
leaf_value=0.00017930736765265465 -0.0025681169447489085 -0.0042453056467430935 -0.00067849695343862883 -0.0021077388424115876 0.00019493353262078016 0.00020352326635573363 0.00020178754449538564 0.00017981509215782344 0.0001839592024360014 0.00017971323499845905
leaf_weight=33 24 28 22 24 32 37 46 965 69 43
leaf_count=33 24 28 22 24 32 37 46 965 69 43
internal_value=-1.74649e-05 -0.000842111 0.000107416 -0.00325874 0.000164494 0.000181308 0.000187927 0.000180537 0.000180092 0.000179537
internal_weight=1323 174 1149 52 1125 1103 122 1066 1034 76
internal_count=1323 174 1149 52 1125 1103 122 1066 1034 76
is_linear=0
shrinkage=0.02


Tree=5
num_leaves=14
num_cat=0
split_feature=9 17 36 24 17 9 17 24 21 17 9 17 22
split_gain=0.24648 0.224101 0.333663 0.0491842 0.0328424 0.00931261 0.0251875 0.10248 2.36931e-05 2.42737e-05 2.21149e-05 4.32125e-06 2.68712e-10
threshold=5.5000000000000009 3.5000000000000004 1.0000000180025095e-35 26.500000000000004 16.500000000000004 3.5000000000000004 4.5000000000000009 2.5000000000000004 1.0000000180025095e-35 11.500000000000002 1.5000000000000002 3.5000000000000004 145.00000000000003
decision_type=2 2 2 2 2 2 2 2 2 2 2 2 2
left_child=3 12 -3 4 5 8 11 -8 10 -10 -1 -7 -2
right_child=1 2 -4 -5 -6 6 7 -9 9 -11 -12 -13 -14
leaf_value=0.00017572121694684029 0.00017602240123475594 -0.0029180927352151936 -6.2185197447737063e-05 -0.00064064248629352636 -0.00060122218526278937 0.00017611037939786913 -0.0013487160477476815 0.00018376835738308727 0.00017642020533320966 0.00019606840725128468 0.00019727692047649242 0.00018574956094934828 0.0001761170430108905
leaf_weight=32 24 36 30 34 24 163 24 64 770 26 47 21 24
leaf_count=32 24 36 30 34 24 163 24 64 770 26 47 21 24
internal_value=2.51391e-05 -0.000863733 -0.00161995 0.000109232 0.000131004 0.000146325 4.41129e-05 -0.000234182 0.000178099 0.000177062 0.000188545 0.000177211 0.00017607
internal_weight=1319 114 66 1205 1171 1147 272 88 875 796 79 184 48
internal_count=1319 114 66 1205 1171 1147 272 88 875 796 79 184 48
is_linear=0
shrinkage=0.02


Tree=6
num_leaves=13
num_cat=0
split_feature=37 11 35 34 2 24 22 17 2 9 24 19
split_gain=0.394085 0.684862 0.275379 0.083913 0.166062 0.0499288 0.00021063 5.50652e-05 3.08954e-05 1.35595e-05 1.08406e-05 2.70143e-08
threshold=1.0000000180025095e-35 1.0000000180025095e-35 5.5000000000000009 5.5000000000000009 1.0000000180025095e-35 26.500000000000004 1.0000000180025095e-35 12.500000000000002 1.0000000180025095e-35 5.5000000000000009 4.5000000000000009 6.5000000000000009
decision_type=2 2 2 2 2 2 2 2 2 2 2 2
left_child=1 11 -3 4 -2 6 8 9 -5 -8 -9 -1
right_child=3 2 -4 5 -6 -7 7 10 -10 -11 -12 -13
leaf_value=0.0001722976830052702 0.00021027128574334911 -0.0044788603764027357 -0.0013810292936184191 0.00019927506120159076 -0.0019952754811807115 -0.00058015757033394444 0.0001729547116216156 0.00020760262757539747 0.00022955171298235654 0.00018189542914090091 0.00018725773573599079 0.00017148714512586595
leaf_weight=38 36 24 22 26 22 36 962 20 28 73 22 29
leaf_count=38 36 24 22 26 22 36 962 20 28 73 22 29
internal_value=1.19389e-05 -0.00111818 -0.00299729 0.000116187 -0.000626315 0.00015309 0.000176429 0.000174496 0.000214974 0.000173585 0.000196946 0.000171947
internal_weight=1338 113 46 1225 58 1167 1131 1077 54 1035 42 67
internal_count=1338 113 46 1225 58 1167 1131 1077 54 1035 42 67
is_linear=0
shrinkage=0.02


Tree=7
num_leaves=12
num_cat=0
split_feature=37 17 8 21 24 34 17 8 24 17 19
split_gain=0.342866 0.709597 0.102377 0.0995661 0.0475927 8.42979e-05 5.83027e-05 1.56873e-05 9.577e-06 2.80965e-06 2.68365e-08
threshold=1.0000000180025095e-35 7.5000000000000009 2.5000000000000004 1.0000000180025095e-35 26.500000000000004 5.5000000000000009 12.500000000000002 5.5000000000000009 4.5000000000000009 8.5000000000000018 6.5000000000000009
decision_type=2 2 2 2 2 2 2 2 2 2 2
left_child=1 2 10 -2 5 7 9 -5 -8 -7 -1
right_child=3 -3 -4 4 -6 6 8 -9 -10 -11 -12
leaf_value=0.00016883759573101999 -0.0010378897485548053 -0.0038555016423817037 -0.0014136902136462077 0.00018638140615075829 -0.00056698930811964802 0.00016948471087902369 0.00020325125328132083 0.00021060058037224023 0.00018436881713569165 0.00017309542823778956 0.00016805740073323251
leaf_weight=45 29 27 21 20 36 931 21 23 22 95 29
leaf_count=45 29 27 21 20 36 931 21 23 22 95 29
internal_value=1.48615e-05 -0.000994383 -0.000181223 0.000119473 0.00014871 0.00017188 0.000170775 0.000199336 0.00019359 0.000169819 0.000168532
internal_weight=1299 122 95 1177 1148 1112 1069 43 43 1026 74
internal_count=1299 122 95 1177 1148 1112 1069 43 43 1026 74
is_linear=0
shrinkage=0.02


Tree=8
num_leaves=11
num_cat=0
split_feature=37 8 36 21 17 24 34 17 17 16
split_gain=0.422193 0.797301 1.18423 0.249987 0.371314 0.103361 9.36137e-05 3.18155e-05 2.49807e-06 5.34666e-09
threshold=1.0000000180025095e-35 2.5000000000000004 1.0000000180025095e-35 1.0000000180025095e-35 4.5000000000000009 26.500000000000004 5.5000000000000009 12.500000000000002 3.5000000000000004 56.500000000000007
decision_type=2 2 2 2 2 2 2 2 2 2
left_child=1 9 -3 4 -2 6 -5 8 -8 -1
right_child=3 2 -4 5 -6 -7 7 -9 -10 -11
leaf_value=0.0001650360267518497 0.00027983924597501752 -0.0065776174380020661 -0.00027282231129132788 0.00019998660569803581 -0.0033276086105477245 -0.0010025276171584283 0.00016566421990764552 0.00018493707124621439 0.00016763661242617442 0.00016538409516215325
leaf_weight=41 25 22 26 36 21 31 580 39 461 31
leaf_count=41 25 22 26 36 21 31 580 39 461 31
internal_value=-3.51043e-05 -0.0011659 -0.00316252 7.86384e-05 -0.00136704 0.000136617 0.00016826 0.000167202 0.000166538 0.000165186
internal_weight=1313 120 48 1193 46 1147 1116 1080 1041 72
internal_count=1313 120 48 1193 46 1147 1116 1080 1041 72
is_linear=0
shrinkage=0.02


Tree=9
num_leaves=14
num_cat=0
split_feature=37 32 34 24 40 18 17 18 38 32 24 9 9
split_gain=0.297177 0.660831 0.0925635 0.129525 0.0355204 0.0187189 0.0128772 0.0281998 0.000846247 0.000871211 0.000334437 1.16843e-06 1.42182e-08
threshold=1.0000000180025095e-35 44.500000000000007 5.5000000000000009 1.0000000180025095e-35 27.500000000000004 4.5000000000000009 11.500000000000002 4.5000000000000009 325.00000000000006 40.500000000000007 25.500000000000004 2.5000000000000004 1.5000000000000002
decision_type=2 2 2 2 2 2 2 2 2 2 2 2 2
left_child=1 -1 3 -2 6 12 8 11 10 -10 -4 -8 -3
right_child=2 5 4 -5 -6 -7 7 -9 9 -11 -12 -13 -14
leaf_value=-0.0032056641858071088 -0.0018420178524178009 0.00016207640990614891 0.00016391498133150675 0.00020040840048480917 -0.00069645205605775118 -0.00053308830317109828 0.00018885002285242081 -0.00070221596312793815 0.00035297856945544482 0.00017059322785247457 0.00022859331333275996 0.00018209543433927354 0.00016149923986484929
leaf_weight=36 23 38 1033 27 20 20 20 22 20 22 33 21 31
leaf_count=36 23 38 1033 27 20 20 20 22 20 22 33 21 31
internal_value=1.0284e-05 -0.000919202 0.000103907 -0.000739108 0.000139298 5.65858e-06 0.000153572 -0.000124567 0.000169387 0.000257443 0.000165917 0.00018539 0.000161817
internal_weight=1366 125 1241 50 1191 89 1171 63 1108 42 1066 41 69
internal_count=1366 125 1241 50 1191 89 1171 63 1108 42 1066 41 69
is_linear=0
shrinkage=0.02


Tree=10
num_leaves=11
num_cat=0
split_feature=37 32 21 8 8 8 34 17 22 35
split_gain=0.1911 0.416328 0.239734 0.0349375 0.0221058 0.0037992 0.000127387 0.000116319 1.78346e-05 1.5803e-05
threshold=1.0000000180025095e-35 45.500000000000007 1.0000000180025095e-35 51.500000000000007 4.5000000000000009 48.500000000000007 5.5000000000000009 9.5000000000000018 145.00000000000003 6.5000000000000009
decision_type=2 2 2 2 2 2 2 2 2 2
left_child=1 4 -2 5 -1 6 8 -8 -4 -3
right_child=2 9 3 -5 -6 -7 7 -9 -10 -11
leaf_value=-0.0018800635666896901 -0.0015141141766475308 0.00017856979742646219 0.00018376708385490237 -0.00066616598428005267 -0.0027803668528795246 -4.8369958996772764e-05 0.00015975691051402639 0.00018208689083462778 0.00020953473211689431 0.00015974505127153615
leaf_weight=24 36 30 21 21 20 35 992 103 22 44
leaf_count=24 36 30 21 21 20 35 992 103 22 44
internal_value=2.01552e-05 -0.000748669 9.39123e-05 0.000142396 -0.00228929 0.000156871 0.000163183 0.000161857 0.000196951 0.000167377
internal_weight=1348 118 1230 1194 44 1173 1138 1095 43 74
internal_count=1348 118 1230 1194 44 1173 1138 1095 43 74
is_linear=0
shrinkage=0.02


Tree=11
num_leaves=15
num_cat=0
split_feature=17 37 39 22 8 22 37 8 17 8 21 33 16 16
split_gain=0.397757 0.711187 0.0620217 0.196117 0.0519497 0.0182963 0.0536344 0.00728342 0.00658246 0.000133549 0.000104073 5.28187e-05 1.567e-06 5.36729e-09
threshold=10.500000000000002 1.0000000180025095e-35 250.00000000000003 65.000000000000014 46.500000000000007 335.00000000000006 1.0000000180025095e-35 50.500000000000007 14.500000000000002 47.500000000000007 1.0000000180025095e-35 6.5000000000000009 37.500000000000007 42.500000000000007
decision_type=2 2 2 2 2 2 2 2 2 2 2 2 2 2
left_child=2 -2 5 -4 8 7 -7 9 -3 10 -1 -5 -8 -14
right_child=1 4 3 11 -6 6 12 -9 -10 -11 -12 -13 13 -15
leaf_value=0.00018034991610329601 -0.0046072252951562401 0.00017434062796734996 -0.0019192676931619646 0.00016063789596721049 -0.0012102828100323678 -0.00093171773105859754 0.00016267323146828197 -0.00022582519706338644 -0.00028426083869167735 0.00021060407813638449 0.00015661076131504785 0.00019755757864444487 0.00015633933512227877 0.00015589232133193448
leaf_weight=80 20 31 25 31 20 25 22 20 21 20 964 31 21 22
leaf_count=80 20 31 25 31 20 25 22 20 21 20 964 31 21 22
internal_value=-1.2548e-06 -0.00127082 9.13698e-05 -0.000423881 -0.000344036 0.000129553 -0.00014446 0.000152303 -1.08638e-05 0.000159411 0.00015843 0.000179098 0.000158332 0.000156111
internal_weight=1353 92 1261 87 72 1174 90 1084 52 1064 1044 62 65 43
internal_count=1353 92 1261 87 72 1174 90 1084 52 1064 1044 62 65 43
is_linear=0
shrinkage=0.02


Tree=12
num_leaves=16
num_cat=0
split_feature=17 38 9 36 38 22 22 22 35 16 40 17 21 34 38
split_gain=0.252226 0.654247 0.0951096 0.110486 0.0274077 0.104219 0.0192454 0.016813 0.0606636 0.0101059 0.000589345 0.000514221 9.13206e-05 5.16677e-05 6.27311e-07
threshold=10.500000000000002 1.0000000180025095e-35 6.5000000000000009 1.0000000180025095e-35 325.00000000000006 85.000000000000014 200.00000000000003 335.00000000000006 6.5000000000000009 4.5000000000000009 26.500000000000004 6.5000000000000009 1.0000000180025095e-35 5.5000000000000009 145.00000000000003
decision_type=2 2 2 2 2 2 2 2 2 2 2 2 2 2 2
left_child=2 -2 4 -4 7 -6 9 10 11 -3 12 -9 -1 -7 -8
right_child=1 6 3 -5 5 13 14 8 -10 -11 -12 -13 -14 -15 -16
leaf_value=0.00017627582012946848 -0.004013484767214818 -0.00015104707214049995 -0.0015482563146700463 0.00037081897910684353 -0.0014580962625110434 0.00019034518920365843 0.00018090830976143481 0.00015295820690139575 -0.0010352346097881144 -0.00075977396126836541 0.00026029517831788819 0.00027757432168492907 0.00015386560923676845 0.00015382997931972627 0.00017589907394722105
leaf_weight=79 22 24 30 20 21 31 20 27 22 20 22 26 917 31 20
leaf_count=79 22 24 30 20 21 31 20 27 22 20 22 26 917 31 20
internal_value=-7.24049e-06 -0.000943218 7.36842e-05 -0.000780626 0.000110007 -0.000240369 -0.000139101 0.000136614 -0.000152378 -0.000427741 0.000157905 0.000214091 0.000155643 0.000172088 0.000178404
internal_weight=1332 106 1226 50 1176 83 84 1093 75 44 1018 53 996 62 40
internal_count=1332 106 1226 50 1176 83 84 1093 75 44 1018 53 996 62 40
is_linear=0
shrinkage=0.02


Tree=13
num_leaves=10
num_cat=0
split_feature=37 8 8 34 8 17 24 22 2
split_gain=0.346767 0.585496 0.148861 0.119711 0.0238558 0.00982492 0.000947361 0.000748122 4.60163e-07
threshold=1.0000000180025095e-35 2.5000000000000004 4.5000000000000009 5.5000000000000009 51.500000000000007 16.500000000000004 26.500000000000004 65.000000000000014 1.0000000180025095e-35
decision_type=2 2 2 2 2 2 2 2 2
left_child=1 8 -3 -2 5 6 7 -5 -1
right_child=3 2 -4 4 -6 -7 -8 -9 -10
leaf_value=0.00014803750737708932 -0.0010040543218584436 -0.0017818553710822016 -0.0039813983701169489 0.00022766325622797012 -0.00046240192336531789 -0.0002783222558597724 0.00029137921297834034 0.00015198282935831452 0.00015135348523752048
leaf_weight=47 38 32 20 55 26 21 21 1044 26
leaf_count=47 38 32 20 55 26 21 21 1044 26
internal_value=-3.35726e-06 -0.00100604 -0.00262783 0.000100655 0.000136627 0.000150277 0.000158313 0.00015577 0.000149219
internal_weight=1330 125 52 1205 1167 1141 1120 1099 73
internal_count=1330 125 52 1205 1167 1141 1120 1099 73
is_linear=0
shrinkage=0.02


Tree=14
num_leaves=13
num_cat=0
split_feature=15 33 8 9 37 9 21 40 24 38 8 9
split_gain=4.27382 0.0293841 0.123081 0.00475091 0.00146616 0.00517214 0.00224688 0.00103244 0.000988587 0.000181308 1.31835e-06 4.06355e-09
threshold=-1.0000000180025095e-35 11.500000000000002 30.500000000000004 6.5000000000000009 1.0000000180025095e-35 2.5000000000000004 1.0000000180025095e-35 1.5000000000000002 26.500000000000004 200.00000000000003 45.500000000000007 1.5000000000000002
decision_type=2 2 2 2 2 2 2 2 2 2 2 2
left_child=1 3 -3 4 5 11 -6 -5 10 -8 -4 -1
right_child=-2 2 8 7 6 -7 9 -9 -10 -11 -12 -13
leaf_value=0.00014517021365463735 -0.0089529367855616989 -0.0015055060437457128 0.00014664847120318724 0.00047309034592693761 0.00036570606939494615 0.00048425498194992544 0.00014951884050957889 0.00028286823071539403 0.00030432229654656513 0.00018453878365338794 0.00015366951050236821 0.0001448508594185114
leaf_weight=34 21 22 23 21 20 25 964 25 27 63 20 30
leaf_count=34 21 22 23 21 20 25 964 25 27 63 20 30
internal_value=-3.86045e-06 0.000143652 -0.000200632 0.000170449 0.00016238 0.000240311 0.000155756 0.000369709 0.000209472 0.000151667 0.000149914 0.000145021
internal_weight=1295 1274 92 1182 1136 89 1047 46 70 1027 43 64
internal_count=1295 1274 92 1182 1136 89 1047 46 70 1027 43 64
is_linear=0
shrinkage=0.02


Tree=15
num_leaves=12
num_cat=0
split_feature=15 17 18 22 37 24 17 8 39 39 32
split_gain=4.71166 0.0686674 0.062522 0.00382586 0.0108935 0.00138717 0.00292629 0.00739732 0.00389728 9.80589e-05 1.99325e-06
threshold=-1.0000000180025095e-35 11.500000000000002 4.5000000000000009 335.00000000000006 1.0000000180025095e-35 26.500000000000004 8.5000000000000018 38.500000000000007 250.00000000000003 250.00000000000003 43.500000000000007
decision_type=2 2 2 2 2 2 2 2 2 2 2
left_child=1 3 -3 5 -5 6 8 -8 -1 10 -6
right_child=-2 2 -4 4 9 -7 7 -9 -10 -11 -12
leaf_value=0.00014615224102343025 -0.008816565151015917 5.6327574543262783e-05 -0.0011539873498822412 0.00063099054046548335 0.00015232802109999788 0.00028866864873894625 -0.00028267548250203781 0.00015014622676452356 0.00032557487323441931 0.00019366891874421027 0.00014457470737397671
leaf_weight=959 24 38 31 26 36 28 22 56 51 31 21
leaf_count=959 24 38 31 26 36 28 22 56 51 31 21
internal_value=-3.57256e-05 0.000126507 -0.000487437 0.000160948 0.00027131 0.000149674 0.000146097 2.80683e-05 0.000155212 0.000165041 0.000149472
internal_weight=1323 1299 69 1230 114 1116 1088 78 1010 88 57
internal_count=1323 1299 69 1230 114 1116 1088 78 1010 88 57
is_linear=0
shrinkage=0.02


Tree=16
num_leaves=12
num_cat=0
split_feature=37 8 36 22 38 16 24 34 17 8 19
split_gain=0.152406 0.26999 0.681686 0.104953 0.275061 0.0419734 0.000791272 0.000517304 0.000140873 6.26032e-05 1.17259e-08
threshold=1.0000000180025095e-35 2.5000000000000004 1.0000000180025095e-35 1.0000000180025095e-35 325.00000000000006 5.5000000000000009 26.500000000000004 5.5000000000000009 10.500000000000002 5.5000000000000009 6.5000000000000009
decision_type=2 2 2 2 2 2 2 2 2 2 2
left_child=1 10 -3 4 -2 -5 7 9 -9 -7 -1
right_child=3 2 -4 5 -6 6 -8 8 -10 -11 -12
leaf_value=0.00013959493757122093 0.00018912905702988308 -0.0045241390417019526 0.00032065029470966413 -0.00054465154004800648 -0.0025829190672153517 0.00019253721968694168 0.00027395328599959614 0.00014261434400388644 0.00017769389455982794 0.00024142796453088523 0.00013902259014901661
leaf_weight=45 45 21 26 36 21 22 20 995 48 20 21
leaf_count=45 45 21 26 36 21 22 20 995 48 20 21
internal_value=1.67934e-05 -0.000685564 -0.00184404 8.25485e-05 -0.000692886 0.000127403 0.000149298 0.000147 0.000144229 0.000215819 0.000139413
internal_weight=1320 113 47 1207 66 1141 1105 1085 1043 42 66
internal_count=1320 113 47 1207 66 1141 1105 1085 1043 42 66
is_linear=0
shrinkage=0.02


Tree=17
num_leaves=12
num_cat=0
split_feature=37 8 36 8 34 24 22 8 2 18 19
split_gain=0.260284 0.516627 0.752321 0.069416 0.0729414 0.13325 0.00140796 0.000612385 0.000417778 6.53688e-05 2.4734e-08
threshold=1.0000000180025095e-35 2.5000000000000004 1.0000000180025095e-35 51.500000000000007 5.5000000000000009 1.0000000180025095e-35 65.000000000000014 47.500000000000007 1.0000000180025095e-35 4.5000000000000009 6.5000000000000009
decision_type=2 2 2 2 2 2 2 2 2 2 2
left_child=1 10 -3 4 5 -2 8 9 -6 -8 -1
right_child=3 2 -4 -5 6 -7 7 -9 -10 -11 -12
leaf_value=0.00013696953673691801 -0.0018469279383619627 -0.0047973262833861203 0.00022788213057951492 -0.0010447977323617254 0.00019198075178320759 0.00021642838754961567 0.00016861081761973244 0.00023341082253803812 0.00030224213975348644 0.00014080257298856405 0.00013624478462001972
leaf_weight=48 21 26 22 21 27 31 35 30 28 997 31
leaf_count=48 21 26 22 21 27 31 35 30 28 997 31
internal_value=3.03282e-06 -0.00085763 -0.00249411 9.4885e-05 0.000115358 -0.00061685 0.000149445 0.000144335 0.000248114 0.000141746 0.000136685
internal_weight=1317 127 48 1190 1169 52 1117 1062 55 1032 79
internal_count=1317 127 48 1190 1169 52 1117 1062 55 1032 79
is_linear=0
shrinkage=0.02


Tree=18
num_leaves=10
num_cat=0
split_feature=37 16 21 9 36 20 24 34 19
split_gain=0.190155 0.494046 0.0988482 0.0584014 0.0291822 0.00674801 0.00135399 0.000522274 3.09984e-09
threshold=1.0000000180025095e-35 31.500000000000004 1.0000000180025095e-35 3.5000000000000004 4.5000000000000009 4.5000000000000009 26.500000000000004 5.5000000000000009 6.5000000000000009
decision_type=2 2 2 2 2 2 2 2 2
left_child=1 -1 -2 8 5 6 7 -4 -3
right_child=2 3 4 -5 -6 -7 -8 -9 -10
leaf_value=-0.0036111500933766368 -0.00098638890593340895 0.00013378706124679343 0.00021498188577793743 -0.00094278294992234031 -0.00058189486193916068 -0.00021764093167370277 0.00029955724931576036 0.00013855370962479258 0.00013352203242961437
leaf_weight=20 33 41 37 28 23 21 22 1071 31
leaf_count=20 33 41 37 28 23 21 22 1071 31
internal_value=1.76596e-05 -0.000741637 9.31489e-05 -0.000167735 0.000123494 0.000137589 0.000144191 0.000141106 0.000133673
internal_weight=1327 120 1207 100 1174 1151 1130 1108 72
internal_count=1327 120 1207 100 1174 1151 1130 1108 72
is_linear=0
shrinkage=0.02


Tree=19
num_leaves=16
num_cat=0
split_feature=15 33 8 39 24 18 18 32 37 32 38 24 33 8 2
split_gain=4.16474 0.0382002 0.169302 0.00177239 0.00358794 0.00164562 0.00319144 0.0161661 0.00879221 0.00289613 0.00335793 0.00106583 6.63843e-05 4.8934e-06 1.42468e-07
threshold=-1.0000000180025095e-35 11.500000000000002 29.500000000000004 250.00000000000003 1.0000000180025095e-35 4.5000000000000009 5.5000000000000009 41.500000000000007 1.0000000180025095e-35 50.000000000000007 85.000000000000014 26.500000000000004 6.5000000000000009 45.500000000000007 1.0000000180025095e-35
decision_type=2 2 2 2 2 2 2 2 2 2 2 2 2 2 2
left_child=1 3 -3 5 -5 9 7 -7 -8 10 -1 13 -6 -4 -11
right_child=-2 2 11 4 12 6 8 -9 -10 14 -12 -13 -14 -15 -16
leaf_value=0.0005094030305095341 -0.0084640210348626843 -0.0018491100812596934 0.0001343902374577263 0.00046514850464605148 0.00014285803381954471 0.00023359133152379876 0.00054972249748451375 -0.00042603988767318102 0.00013595428180360807 0.00013105582036986583 0.00016378491143272681 0.00030289179287277737 0.00018361621000098462 0.00014791689813137054 0.00012906076132573863
leaf_weight=23 23 21 23 21 31 42 21 23 942 41 22 26 33 20 22
leaf_count=23 23 21 23 21 31 42 21 23 942 41 22 26 33 20 22
internal_value=-2.7111e-05 0.000120905 -0.000276742 0.000150216 0.000238307 0.000143624 0.000135822 1.83362e-07 0.000144977 0.00021789 0.000340434 0.000201804 0.000163874 0.000140682 0.000130359
internal_weight=1334 1311 90 1221 85 1136 1028 65 963 108 45 69 64 43 63
internal_count=1334 1311 90 1221 85 1136 1028 65 963 108 45 69 64 43 63
is_linear=0
shrinkage=0.02


Tree=20
num_leaves=15
num_cat=0
split_feature=37 17 9 22 2 8 19 2 8 34 17 32 17 32
split_gain=0.233254 0.504106 0.115618 0.0709655 0.0961936 0.00717749 0.00256223 0.00302448 0.00168155 0.000662603 0.000221675 4.99255e-05 3.93125e-05 3.6042e-05
threshold=1.0000000180025095e-35 10.500000000000002 5.5000000000000009 1.0000000180025095e-35 1.0000000180025095e-35 48.500000000000007 5.5000000000000009 1.0000000180025095e-35 50.500000000000007 5.5000000000000009 10.500000000000002 33.500000000000007 9.5000000000000018 36.500000000000007
decision_type=2 2 2 2 2 2 2 2 2 2 2 2 2 2
left_child=1 2 6 4 -2 9 -1 -8 -7 11 12 -5 -11 -12
right_child=3 -3 -4 5 -6 8 7 -9 -10 10 13 -13 -14 -15
leaf_value=0.00021114004059479788 0.00027374427405095871 -0.0035546508905562484 -0.0014496887385845184 0.00023674529045820237 -0.0012461327383708623 -0.00024998507881537077 -0.00018793306269106411 0.00012722720937996074 -1.3232501223683358e-05 0.00013113060568769775 0.00019357493186059098 0.00019313424293484008 0.00014948942831584386 0.00015853900745834993
leaf_weight=39 31 22 25 21 36 20 21 29 30 975 24 21 49 23
leaf_count=39 31 22 25 21 36 20 21 29 30 975 24 21 49 23
internal_value=3.11751e-06 -0.000782846 -0.000247937 9.00208e-05 -0.000542906 0.000126484 8.96343e-05 -5.1401e-06 -0.000107934 0.000137014 0.000133958 0.00021494 0.000132009 0.00017643
internal_weight=1366 136 114 1230 67 1163 89 50 50 1113 1071 42 1024 47
internal_count=1366 136 114 1230 67 1163 89 50 50 1113 1071 42 1024 47
is_linear=0
shrinkage=0.02


Tree=21
num_leaves=13
num_cat=0
split_feature=17 37 38 22 22 18 22 17 8 34 40 21
split_gain=0.305861 0.755334 0.0296447 0.121908 0.0317155 0.101522 0.0193336 0.00608485 0.00568529 0.000179827 8.38915e-05 8.85535e-05
threshold=10.500000000000002 1.0000000180025095e-35 325.00000000000006 85.000000000000014 335.00000000000006 5.5000000000000009 200.00000000000003 1.5000000000000002 49.500000000000007 5.5000000000000009 25.500000000000004 1.0000000180025095e-35
decision_type=2 2 2 2 2 2 2 2 2 2 2 2
left_child=2 -2 4 -4 8 -6 -3 -7 10 -5 11 -1
right_child=1 6 3 9 5 7 -8 -9 -10 -11 -12 -13
leaf_value=0.00015088689398526408 -0.0043561165102503517 -0.00047513012994865051 -0.0015736784112893724 0.000196777460431414 -0.0010141347586177288 0.00013414827138185503 0.00015875074176643141 0.00058490431584093882 -0.00020868713036179543 0.00012833349406719209 0.00016656256177359158 0.00012907590453438219
leaf_weight=81 22 38 22 28 40 25 39 23 20 34 27 922
leaf_count=81 22 38 22 28 40 25 39 23 20 34 27 922
internal_value=-1.86614e-05 -0.00108786 6.79595e-05 -0.000294617 9.47227e-05 -0.000269987 -0.000154074 0.000350136 0.000125289 0.000159244 0.000131774 0.000130837
internal_weight=1321 99 1222 84 1138 88 77 48 1050 62 1030 1003
internal_count=1321 99 1222 84 1138 88 77 48 1050 62 1030 1003
is_linear=0
shrinkage=0.02


Tree=22
num_leaves=13
num_cat=0
split_feature=17 40 38 22 22 38 23 32 40 33 21 17
split_gain=0.249918 0.467567 0.0657909 0.28762 0.0735421 0.168265 0.022308 0.00400278 0.000184495 0.000132751 7.22741e-05 3.68627e-05
threshold=11.500000000000002 1.0000000180025095e-35 325.00000000000006 65.000000000000014 335.00000000000006 85.000000000000014 250.00000000000003 2.5000000000000004 25.500000000000004 6.5000000000000009 1.0000000180025095e-35 5.5000000000000009
decision_type=2 2 2 2 2 2 2 2 2 2 2 2
left_child=2 -2 4 -4 7 -6 -3 -1 10 -5 -9 -7
right_child=1 6 3 9 5 11 -8 8 -10 -11 -12 -13
leaf_value=-0.00013670594228998474 -0.0035209740390596185 -0.00066958722006529566 -0.0025932379793375732 0.00013277352953861867 -0.0016938219430545967 0.00012740463364337173 0.00016349471458751295 0.00014636141280917561 0.0001836863812059164 0.00019158025655676339 0.00012710601255329265 0.00015920229963958265
leaf_weight=23 23 20 20 28 30 35 36 85 25 34 943 25
leaf_count=23 23 20 20 28 30 35 36 85 25 34 943 25
internal_value=-2.91993e-05 -0.00112011 3.98564e-05 -0.000507724 7.83655e-05 -0.000470838 -0.000134035 0.000124303 0.000130004 0.000165022 0.000128698 0.000140654
internal_weight=1327 79 1248 82 1166 90 56 1076 1053 62 1028 60
internal_count=1327 79 1248 82 1166 90 56 1076 1053 62 1028 60
is_linear=0
shrinkage=0.02


Tree=23
num_leaves=13
num_cat=0
split_feature=17 38 9 36 7 22 18 9 38 36 17 24
split_gain=0.198927 0.400303 0.071047 0.107793 0.0251445 0.0118205 0.0352262 0.0552602 0.00770229 0.00587398 0.0030706 0.000631301
threshold=10.500000000000002 1.0000000180025095e-35 6.5000000000000009 1.0000000180025095e-35 1.0000000180025095e-35 335.00000000000006 5.5000000000000009 2.5000000000000004 325.00000000000006 4.5000000000000009 4.5000000000000009 25.500000000000004
decision_type=2 2 2 2 2 2 2 2 2 2 2 2
left_child=2 -2 5 -4 -3 8 7 -7 9 11 -8 -1
right_child=1 4 3 -5 -6 6 10 -9 -10 -11 -12 -13
leaf_value=0.00012562885360988842 -0.0034092890024185179 0.00020559913591679298 -0.0015932613920420409 0.00037664537178352475 -0.00056391224611018385 0.00014514413984635701 0.00012787078733019757 -0.0011857051600236445 -0.00016835137515475875 -0.00020959544217302687 0.00044192702881991862 0.00022029348745428282
leaf_weight=995 20 33 25 20 35 26 33 24 38 21 20 29
leaf_count=995 20 33 25 20 35 26 33 24 38 21 20 29
internal_value=-3.38977e-06 -0.000922022 6.22801e-05 -0.000717747 -0.000190473 9.18764e-05 -0.000112863 -0.000493664 0.000111348 0.000121519 0.000246383 0.00012831
internal_weight=1319 88 1231 45 68 1186 103 50 1083 1045 53 1024
internal_count=1319 88 1231 45 68 1186 103 50 1083 1045 53 1024
is_linear=0
shrinkage=0.02


Tree=24
num_leaves=18
num_cat=0
split_feature=9 36 39 33 8 2 39 8 16 9 33 24 9 16 8 39 24
split_gain=0.127856 0.148308 0.358714 0.0587262 0.224232 0.0434201 0.0181169 0.00565905 0.00474323 0.00164224 0.00200073 0.00341775 0.00176635 0.0034455 0.000479943 0.000178311 1.89538e-06
threshold=5.5000000000000009 1.0000000180025095e-35 1.0000000180025095e-35 11.500000000000002 24.500000000000004 1.0000000180025095e-35 120.00000000000001 46.500000000000007 5.5000000000000009 4.5000000000000009 3.5000000000000004 4.5000000000000009 3.5000000000000004 38.500000000000007 48.500000000000007 250.00000000000003 1.5000000000000002
decision_type=2 2 2 2 2 2 2 2 2 2 2 2 2 2 2 2 2
left_child=3 2 -2 7 -5 -4 -3 9 -6 12 16 -12 15 -14 -10 -1 -11
right_child=1 6 5 4 8 -7 -8 -9 14 10 11 -13 13 -15 -16 -17 -18
leaf_value=0.00012504261914756179 -0.0033890519761258647 0.000550454871263355 0.00022504228648954428 -0.0022835709098726511 -0.00016680097207427024 -0.00095324165357107472 -0.0001827118631738883 -0.00020853879817184947 0.00013351792003959417 0.00012042635882442649 0.00049490823969244955 0.00012516513559967279 0.00017496171224190563 -1.4367146292128242e-05 0.00025047255568206309 0.00016516356966755493 0.00012811250807273956
leaf_weight=774 21 28 29 20 21 22 26 21 32 33 20 20 61 104 25 47 21
leaf_count=774 21 28 29 20 21 22 26 21 32 33 20 20 61 104 25 47 21
internal_value=1.11833e-05 -0.000594865 -0.0011891 7.48715e-05 -0.000394284 -0.000283237 0.000197449 0.000116631 9.01483e-05 0.000122954 0.000202829 0.000310037 0.000115339 5.56272e-05 0.000184814 0.000127339 0.000123415
internal_weight=1325 126 72 1199 98 51 54 1101 78 1080 94 40 986 165 57 821 54
internal_count=1325 126 72 1199 98 51 54 1101 78 1080 94 40 986 165 57 821 54
is_linear=0
shrinkage=0.02


Tree=25
num_leaves=15
num_cat=0
split_feature=15 33 8 9 37 22 2 22 9 38 24 33 36 8
split_gain=3.53962 0.0468889 0.23595 0.0123278 0.0298479 0.0033148 0.00503562 0.00242826 0.00295581 0.00257904 0.00124904 0.00115455 0.000127081 2.00054e-06
threshold=-1.0000000180025095e-35 11.500000000000002 28.500000000000004 5.5000000000000009 1.0000000180025095e-35 345.00000000000006 1.0000000180025095e-35 300.00000000000006 3.5000000000000004 325.00000000000006 26.500000000000004 5.5000000000000009 1.0000000180025095e-35 45.500000000000007
decision_type=2 2 2 2 2 2 2 2 2 2 2 2 2 2
left_child=1 3 -3 5 -5 7 -7 9 -9 -1 13 12 -6 -4
right_child=-2 2 10 4 11 6 -8 8 -10 -11 -12 -13 -14 -15
leaf_value=0.00012296839518354354 -0.0081639608031227467 -0.0022429579682648184 0.00012715535381665596 0.0010538265015929938 0.00017044555028956947 -0.00026405366359367257 0.00015604917779564857 0.00015293460432440041 0.00040959087699385627 0.00031142487780501447 0.00029604227716724076 0.00032022794056683776 0.0001113230731481543 0.00013545493373558635
leaf_weight=914 21 20 26 20 33 21 25 50 28 30 30 20 26 21
leaf_count=914 21 20 26 20 33 21 25 50 28 30 30 20 26 21
internal_value=-2.02825e-05 0.000115016 -0.000307498 0.000150135 0.000363638 0.000130344 -3.57369e-05 0.000137819 0.000245068 0.000128957 0.000195219 0.000188907 0.000144392 0.000130864
internal_weight=1285 1264 97 1167 99 1068 46 1022 78 944 77 79 59 47
internal_count=1285 1264 97 1167 99 1068 46 1022 78 944 77 79 59 47
is_linear=0
shrinkage=0.02


Tree=26
num_leaves=13
num_cat=0
split_feature=15 17 22 37 37 19 8 19 17 32 33 11
split_gain=3.72934 0.0441468 0.00582058 0.0263482 0.00275273 0.00363483 0.00166399 0.00255972 0.000309703 0.000102241 2.47132e-05 1.81553e-05
threshold=-1.0000000180025095e-35 14.500000000000002 265.00000000000006 1.0000000180025095e-35 1.0000000180025095e-35 5.5000000000000009 47.500000000000007 2.5000000000000004 9.5000000000000018 40.500000000000007 2.5000000000000004 1.0000000180025095e-35
decision_type=2 2 2 2 2 2 2 2 2 2 2 2
left_child=1 2 4 -4 5 -1 7 -6 -8 11 -11 -5
right_child=-2 -3 3 9 6 -7 8 -9 -10 10 -12 -13
leaf_value=-0.00017757390958390067 -0.0080071733049724408 -0.00061588651413330814 0.00086020600516349081 0.00017562128320012407 2.4023962942393202e-05 0.00011392212070694024 0.00018959133364260198 0.00013327604464183633 0.0002881810086994217 0.00011567579249718361 0.00013764160010032355 0.00015163993995104518
leaf_weight=28 23 32 24 23 95 44 25 884 26 42 40 28
leaf_count=28 23 32 24 23 95 44 25 884 26 42 40 28
internal_value=-2.45113e-05 0.000117705 0.000136351 0.000250282 0.000120119 5.62553e-07 0.000128476 0.000122674 0.000239853 0.00014022 0.000126391 0.000162455
internal_weight=1314 1291 1259 157 1102 72 1030 979 51 133 82 51
internal_count=1314 1291 1259 157 1102 72 1030 979 51 133 82 51
is_linear=0
shrinkage=0.02


Tree=27
num_leaves=9
num_cat=0
split_feature=15 17 9 17 36 17 24 17
split_gain=3.60001 0.0413273 0.0174315 0.0131596 0.0476864 0.00410266 0.0018005 0.00275169
threshold=-1.0000000180025095e-35 16.500000000000004 6.5000000000000009 11.500000000000002 1.5000000000000002 6.5000000000000009 26.500000000000004 8.5000000000000018
decision_type=2 2 2 2 2 2 2 2
left_child=1 2 3 6 -5 -4 7 -1
right_child=-2 -3 5 4 -6 -7 -8 -9
leaf_value=0.00013074988816498976 -0.0078721194941064592 -0.0006778760437065592 0.00033901549210505827 -0.00090177973859350798 0.00034251163580587934 0.00070881989917584833 0.00028784705050013688 2.9553956766095428e-06
leaf_weight=1054 23 26 28 22 28 21 27 72
leaf_count=1054 23 26 28 22 28 21 27 72
internal_value=-2.97922e-05 0.000111345 0.000127735 0.000112673 -0.000204977 0.000497503 0.000126448 0.000122578
internal_weight=1301 1278 1252 1203 50 49 1153 1126
internal_count=1301 1278 1252 1203 50 49 1153 1126
is_linear=0
shrinkage=0.02


Tree=28
num_leaves=16
num_cat=0
split_feature=9 36 33 8 8 22 40 34 7 24 18 10 33 40 33
split_gain=0.0807868 0.133637 0.065922 0.0989124 0.0437456 0.0211406 0.0861382 0.00533695 0.0157575 0.00512259 0.00356421 0.000173333 8.72346e-05 7.13185e-05 1.80939e-05
threshold=6.5000000000000009 1.0000000180025095e-35 11.500000000000002 27.500000000000004 50.500000000000007 335.00000000000006 1.0000000180025095e-35 5.5000000000000009 1.0000000180025095e-35 24.500000000000004 5.5000000000000009 -1.0000000180025095e-35 2.5000000000000004 25.500000000000004 5.5000000000000009
decision_type=2 2 2 2 2 2 2 2 2 2 2 2 2 2 2
left_child=2 -2 5 -4 13 7 -7 8 11 10 -9 -1 -8 -5 -14
right_child=1 -3 3 4 -6 6 12 9 -10 -11 -12 -13 14 -15 -16
leaf_value=0.00011181153357028961 -0.0016091692669978064 0.00040290993010706224 -0.0017125736195594073 0.00012424343162112766 -0.00090314708904109219 -0.0011428672577520568 0.00011392635160258837 0.00025266322296067892 -0.00040664051268850601 -0.00018125571141188793 0.0001155137030337377 0.00017776856323083241 0.00014383668796374248 0.00016932945172099965 0.0001681891828775406
leaf_weight=34 31 23 20 36 22 28 35 83 31 22 873 30 26 23 23
leaf_count=34 31 23 20 36 22 28 35 83 31 22 873 30 26 23 23
internal_value=5.65689e-06 -0.000752173 3.74787e-05 -0.000453004 -0.000141999 7.92835e-05 -0.000182185 0.000106576 -3.6539e-05 0.000120477 0.000127421 0.000142729 0.000138042 0.000141819 0.000155267
internal_weight=1340 54 1286 101 81 1185 112 1073 95 978 956 64 84 59 49
internal_count=1340 54 1286 101 81 1185 112 1073 95 978 956 64 84 59 49
is_linear=0
shrinkage=0.02


Tree=29
num_leaves=13
num_cat=0
split_feature=15 33 8 9 22 33 22 9 22 8 21 19
split_gain=3.41098 0.0367714 0.217491 0.0178241 0.00878983 0.0168959 0.004798 0.00472284 0.00317934 0.00111672 0.00098687 4.01749e-05
threshold=-1.0000000180025095e-35 11.500000000000002 25.500000000000004 6.5000000000000009 345.00000000000006 6.5000000000000009 265.00000000000006 4.5000000000000009 200.00000000000003 49.500000000000007 1.0000000180025095e-35 3.5000000000000004
decision_type=2 2 2 2 2 2 2 2 2 2 2 2
left_child=1 3 -3 4 6 -6 10 -8 -5 11 -1 -4
right_child=-2 2 9 8 5 -7 7 -9 -10 -11 -12 -13
leaf_value=0.00018789236672604696 -0.0076635148732558545 -0.0021303078942000865 0.00011934104158232611 0.00035458363888954576 0.00014968271266568351 -0.00054060818910922701 0.00017082583418563953 0.00044991096055933404 0.00069088560589791639 0.00028570781762321149 0.00011381074786186218 0.00015447450437299583
leaf_weight=78 23 20 30 22 37 23 79 35 23 31 924 23
leaf_count=78 23 20 30 22 37 23 79 35 23 31 924 23
internal_value=-2.74648e-05 0.000105085 -0.000255924 0.000135835 0.000120887 -0.000114929 0.000133565 0.00025651 0.000526471 0.000190358 0.000119578 0.000134588
internal_weight=1348 1325 104 1221 1176 60 1116 114 45 84 1002 53
internal_count=1348 1325 104 1221 1176 60 1116 114 45 84 1002 53
is_linear=0
shrinkage=0.02


Tree=30
num_leaves=10
num_cat=0
split_feature=15 17 17 40 9 39 22 22 22
split_gain=2.98078 0.0509263 0.0100736 0.042073 0.00662298 0.00175076 0.00216167 0.00143808 0.00120589
threshold=-1.0000000180025095e-35 14.500000000000002 10.500000000000002 1.5000000000000002 6.5000000000000009 250.00000000000003 125.00000000000001 335.00000000000006 335.00000000000006
decision_type=2 2 2 2 2 2 2 2 2
left_child=1 2 4 -4 5 7 -7 -1 -6
right_child=-2 -3 3 -5 8 6 -8 -9 -10
leaf_value=0.00011350538278259374 -0.0074938807317188804 -0.00067304786068923545 -0.00087590189604088667 0.00026265186358343911 0.00027677132450044153 0.00039426754672257673 0.00014473985449024818 0.00020160540856886656 0.00048235253963087288
leaf_weight=1007 21 33 20 37 25 21 41 80 21
leaf_count=1007 21 33 20 37 25 21 41 80 21
internal_value=-1.96715e-05 0.000102475 0.000122916 -0.000136841 0.000135306 0.000125885 0.000229257 0.000119989 0.000370624
internal_weight=1306 1285 1252 57 1195 1149 62 1087 46
internal_count=1306 1285 1252 57 1195 1149 62 1087 46
is_linear=0
shrinkage=0.02


Tree=31
num_leaves=13
num_cat=0
split_feature=37 8 17 34 23 24 22 2 17 11 17 2
split_gain=0.302988 0.520442 0.152977 0.0458436 0.111948 0.0259479 0.00295776 0.00116327 0.00108003 0.000140239 7.90087e-05 1.4137e-06
threshold=1.0000000180025095e-35 2.5000000000000004 11.500000000000002 5.5000000000000009 120.00000000000001 26.500000000000004 65.000000000000014 1.0000000180025095e-35 11.500000000000002 1.0000000180025095e-35 8.5000000000000018 1.0000000180025095e-35
decision_type=2 2 2 2 2 2 2 2 2 2 2 2
left_child=1 11 -3 4 -2 6 7 -5 10 -10 -8 -1
right_child=3 2 -4 5 -6 -7 8 -9 9 -11 -12 -13
leaf_value=0.00010371928321237259 -0.0016776392143219711 -0.001633045201099688 -0.0038765743710100654 0.0001694730165061252 0.00022979949426371604 -0.00044090540148317815 0.00010594721722559783 0.00034861041200828958 0.00023687688633799552 0.0001716965325777569 0.00012643800366942475 0.00010939618373023612
leaf_weight=47 20 31 20 29 32 34 917 29 23 31 82 28
leaf_count=47 20 31 20 29 32 34 917 29 23 31 82 28
internal_value=-2.1233e-05 -0.000954111 -0.00251286 7.69647e-05 -0.000503831 0.000103341 0.000119997 0.000259042 0.000112338 0.000199459 0.000107629 0.000105839
internal_weight=1323 126 51 1197 52 1145 1111 58 1053 54 999 75
internal_count=1323 126 51 1197 52 1145 1111 58 1053 54 999 75
is_linear=0
shrinkage=0.02


Tree=32
num_leaves=12
num_cat=0
split_feature=37 8 16 22 8 8 17 34 22 24 2
split_gain=0.152667 0.287307 0.0466391 0.0460766 0.118641 0.0145682 0.00167227 0.000975779 0.000456436 0.00034627 1.20393e-06
threshold=1.0000000180025095e-35 2.5000000000000004 33.500000000000007 1.0000000180025095e-35 3.5000000000000004 51.500000000000007 11.500000000000002 5.5000000000000009 200.00000000000003 25.500000000000004 1.0000000180025095e-35
decision_type=2 2 2 2 2 2 2 2 2 2 2
left_child=1 10 -3 4 -2 6 7 -5 -8 -9 -1
right_child=3 2 -4 5 -6 -7 8 9 -10 -11 -12
leaf_value=0.00010164966103525795 0.00015503625861472553 -0.0012192567014558749 -0.0024818761989474298 0.00021426408551633358 -0.001637081473388455 -0.00038183193343381083 0.00028410240635275841 0.00010499147436803469 0.00017221229576638766 0.00017507280769019293 0.00010697413020982192
leaf_weight=49 45 22 25 35 22 24 25 1024 35 29 26
leaf_count=49 45 22 25 35 22 24 25 1024 35 29 26
internal_value=1.02176e-05 -0.000664823 -0.00189086 7.66864e-05 -0.00043342 0.000105848 0.000116043 0.000110375 0.000218833 0.000106922 0.000103495
internal_weight=1361 122 47 1239 67 1172 1148 1088 60 1053 75
internal_count=1361 122 47 1239 67 1172 1148 1088 60 1053 75
is_linear=0
shrinkage=0.02


Tree=33
num_leaves=18
num_cat=0
split_feature=17 33 0 38 22 18 9 38 2 35 24 33 16 32 33 16 2
split_gain=0.076598 0.122762 0.0517815 0.0277047 0.144411 0.0220332 0.133715 0.00527169 0.00470869 0.00167619 0.00129803 0.000347345 0.000244116 0.000232691 0.000232291 0.000143575 7.52241e-07
threshold=10.500000000000002 10.500000000000002 1928532140440.0002 325.00000000000006 45.000000000000007 5.5000000000000009 3.5000000000000004 65.000000000000014 1.0000000180025095e-35 4.5000000000000009 26.500000000000004 6.5000000000000009 24.500000000000004 50.000000000000007 11.500000000000002 37.500000000000007 1.0000000180025095e-35
decision_type=2 2 2 2 2 2 2 2 2 2 2 2 2 2 2 2 2
left_child=3 2 9 5 -5 6 13 8 -7 -2 14 -6 -4 15 -9 -1 -15
right_child=1 -3 12 4 11 7 -8 10 -10 -11 -12 -13 -14 16 -16 -17 -18
leaf_value=0.00012523826211690902 0.00021025320218706674 -0.0018735686663006032 -0.00062534163147211078 -0.0017771996706724166 0.00011316900818862698 0.00048906242807528807 -0.0015099620349549999 0.00010003129693604114 0.00012544929660085973 0.00046323561295866971 0.00026157197675534657 0.00020425502156071803 -0.00072415791405364876 9.9656423553824429e-05 0.00014169739640987756 0.00019175312034785749 0.00010427307710051537
leaf_weight=27 22 21 20 20 33 28 24 877 29 20 21 34 20 48 57 25 20
leaf_count=27 22 21 20 20 33 28 24 877 29 20 21 34 20 48 57 25 20
internal_value=1.49515e-05 -0.000509171 -0.000159753 5.83824e-05 -0.000285802 8.42856e-05 -0.000147187 0.000117222 0.000304066 0.000330721 0.00010607 0.000159392 -0.00067475 0.000125369 0.000102574 0.000157217 0.000101014
internal_weight=1346 103 82 1243 87 1156 144 1012 57 42 955 67 40 120 934 52 68
internal_count=1346 103 82 1243 87 1156 144 1012 57 42 955 67 40 120 934 52 68
is_linear=0
shrinkage=0.02


Tree=34
num_leaves=13
num_cat=0
split_feature=15 33 32 9 17 17 19 35 17 17 32 40
split_gain=2.67787 0.0365125 0.200919 0.0157529 0.00440434 0.00423475 0.0020082 0.00460322 0.00309897 0.00129336 0.000163854 2.75076e-05
threshold=-1.0000000180025095e-35 11.500000000000002 15.500000000000002 6.5000000000000009 6.5000000000000009 16.500000000000004 7.5000000000000009 4.5000000000000009 11.500000000000002 9.5000000000000018 4.5000000000000009 22.500000000000004
decision_type=2 2 2 2 2 2 2 2 2 2 2 2
left_child=1 3 9 5 -5 6 8 -8 -1 10 -3 -12
right_child=-2 2 -4 4 -6 -7 7 -9 -10 -11 11 -13
leaf_value=0.00011164857819854473 -0.0072722138464450838 0.00018111553424122659 -0.002006417860587438 0.00031218479922110284 0.00069340424993160092 0.00040582875767722722 -0.00022255094843390193 0.00013775507718123296 0.00028489025677879191 0.00032115677371621134 0.00013071410125121475 9.830589321526613e-05
leaf_weight=1046 20 22 21 27 22 20 23 37 43 20 20 22
leaf_count=1046 20 22 21 27 22 20 23 37 43 20 20 22
internal_value=-8.62319e-06 0.000101182 -0.000256667 0.000132031 0.000483345 0.000117305 0.000112283 -3.62233e-07 0.000118489 0.00018077 0.000136899 0.000113738
internal_weight=1343 1323 105 1218 49 1169 1149 60 1089 84 64 42
internal_count=1343 1323 105 1218 49 1169 1149 60 1089 84 64 42
is_linear=0
shrinkage=0.02


Tree=35
num_leaves=12
num_cat=0
split_feature=37 16 21 24 16 34 17 33 32 18 16
split_gain=0.176712 0.335518 0.0611949 0.0503948 0.0342481 0.00167439 0.00115643 0.000433896 0.000164365 0.000161108 4.71285e-07
threshold=1.0000000180025095e-35 37.500000000000007 1.0000000180025095e-35 26.500000000000004 50.000000000000007 5.5000000000000009 11.500000000000002 8.5000000000000018 35.500000000000007 5.5000000000000009 56.500000000000007
decision_type=2 2 2 2 2 2 2 2 2 2 2
left_child=1 -1 -2 5 -3 7 9 -4 -8 -7 -6
right_child=2 4 3 -5 10 6 8 -9 -10 -11 -12
leaf_value=-0.0026175613547193594 -0.00081329795982568501 -0.00083208933295238587 0.00017191652740750993 -0.00067156020606703613 9.8620280623435975e-05 0.00012930481733443836 0.00023535190190634002 0.00030208030436187981 0.00016525855666259305 9.8285926891549026e-05 9.5213875174522396e-05
leaf_weight=29 31 21 21 34 33 72 23 20 32 960 32
leaf_count=29 31 21 21 34 33 72 23 20 32 960 32
internal_value=-8.49348e-06 -0.000757233 6.36818e-05 8.7078e-05 -0.000129914 0.000109945 0.000105212 0.000235411 0.00019457 0.00010045 9.69433e-05
internal_weight=1308 115 1193 1162 86 1128 1087 41 55 1032 65
internal_count=1308 115 1193 1162 86 1128 1087 41 55 1032 65
is_linear=0
shrinkage=0.02


Tree=36
num_leaves=10
num_cat=0
split_feature=15 17 9 39 22 22 24 17 34
split_gain=2.75519 0.028092 0.0130679 0.00442998 0.00555802 0.00499151 0.00369973 0.00291534 8.58982e-05
threshold=-1.0000000180025095e-35 14.500000000000002 6.5000000000000009 250.00000000000003 125.00000000000001 345.00000000000006 26.500000000000004 5.5000000000000009 5.5000000000000009
decision_type=2 2 2 2 2 2 2 2 2
left_child=1 2 3 5 -5 6 -1 -4 -6
right_child=-2 -3 7 4 8 -7 -8 -9 -10
leaf_value=0.00010136235935314403 -0.0070269901644099842 -0.00052825417438590971 0.00031282034095214759 0.0004706931846837203 0.00015409003086388112 -0.00018374038452748209 0.00031320324003258177 0.00064298439351841803 0.00010216814340450443
leaf_weight=1096 22 27 23 30 25 24 34 20 26
leaf_count=1096 22 27 23 30 25 24 34 20 26
internal_value=-8.16909e-06 0.000110156 0.000123643 0.00011171 0.000254684 0.000101674 0.000107736 0.000466385 0.00012762
internal_weight=1327 1305 1278 1235 81 1154 1130 43 51
internal_count=1327 1305 1278 1235 81 1154 1130 43 51
is_linear=0
shrinkage=0.02


Tree=37
num_leaves=13
num_cat=0
split_feature=17 40 8 34 9 37 21 16 32 8 22 2
split_gain=0.121326 0.181483 0.0302991 0.0217476 0.101245 0.0191919 0.00908582 0.00775576 0.000965681 0.000556367 8.93328e-05 3.15233e-06
threshold=10.500000000000002 1.0000000180025095e-35 48.500000000000007 5.5000000000000009 3.5000000000000004 1.0000000180025095e-35 1.0000000180025095e-35 28.500000000000004 3.5000000000000004 4.5000000000000009 325.00000000000006 1.0000000180025095e-35
decision_type=2 2 2 2 2 2 2 2 2 2 2 2
left_child=3 -2 7 4 9 -5 -7 -3 -8 11 -10 -1
right_child=1 2 -4 5 -6 6 8 -9 10 -11 -12 -13
leaf_value=9.1467463326725101e-05 -0.0022618076315318999 0.00020444211826936622 -0.00087184791732579467 -0.0004628213060398897 -0.0012655364159770586 0.00044645561085593317 0.000217025812232384 -0.0002843944146297872 9.390417794325475e-05 0.00020481327772140502 0.00011418403909677485 0.00010036099255084991
leaf_weight=44 22 37 20 24 27 31 27 20 915 25 96 25
leaf_count=44 22 37 20 24 27 31 27 20 915 25 96 25
internal_value=1.34351e-05 -0.000659801 -0.000202084 6.83365e-05 -0.000186079 9.65015e-05 0.000109059 3.29205e-05 9.89824e-05 0.000123978 9.58299e-05 9.46898e-05
internal_weight=1313 99 77 1214 121 1093 1069 57 1038 94 1011 69
internal_count=1313 99 77 1214 121 1093 1069 57 1038 94 1011 69
is_linear=0
shrinkage=0.02


Tree=38
num_leaves=12
num_cat=0
split_feature=33 24 9 38 24 22 16 33 9 24 33
split_gain=0.070235 0.127977 0.0270138 0.0149493 0.0557879 0.0317354 0.00336373 0.0020925 0.00787306 0.000541475 0.000133804
threshold=11.500000000000002 15.500000000000002 1.5000000000000002 325.00000000000006 1.0000000180025095e-35 345.00000000000006 5.5000000000000009 10.500000000000002 6.5000000000000009 25.500000000000004 6.5000000000000009
decision_type=2 2 2 2 2 2 2 2 2 2 2
left_child=3 -2 -3 5 -5 6 -1 8 -8 -4 -6
right_child=1 2 9 4 10 -7 7 -9 -10 -11 -12
leaf_value=-0.00016580516565591099 -0.0019302762672305108 -0.00059529885619638426 9.8818270101522408e-05 -0.00099566303193569187 0.00010991147466536079 -0.00050417424607518565 9.2605656311277635e-05 -5.1902013302252101e-05 0.00045180830480530859 0.00023461792395328699 0.0001720099608697321
leaf_weight=20 20 31 24 25 35 37 1030 37 25 23 23
leaf_count=20 20 31 24 25 35 37 1030 37 25 23 23
internal_value=1.23366e-05 -0.000502979 -0.000137005 5.33276e-05 -0.000205885 7.20523e-05 9.12253e-05 9.59328e-05 0.000101118 0.000165273 0.000134537
internal_weight=1330 98 78 1232 83 1149 1112 1092 1055 47 58
internal_count=1330 98 78 1232 83 1149 1112 1092 1055 47 58
is_linear=0
shrinkage=0.02


Tree=39
num_leaves=11
num_cat=0
split_feature=15 17 9 38 24 33 17 33 17 36
split_gain=2.424 0.0402664 0.0119611 0.0170197 0.00353618 0.004467 0.01941 0.00305066 0.00250824 0.000182253
threshold=-1.0000000180025095e-35 18.000000000000004 5.5000000000000009 85.000000000000014 26.500000000000004 11.500000000000002 7.5000000000000009 5.5000000000000009 11.500000000000002 1.0000000180025095e-35
decision_type=2 2 2 2 2 2 2 2 2 2
left_child=1 2 4 -4 5 8 -7 9 -1 -5
right_child=-2 -3 3 7 -6 6 -8 -9 -10 -11
leaf_value=0.00010219977577968564 -0.0069069801270961765 -0.00070380889927037062 0.00075830782729166535 0.00013842637896434301 0.00030547985752277517 0.00021969249085863917 -0.00046342719080192703 0.00038341684859584678 0.00025634405647658489 6.8935826868535234e-05
leaf_weight=1047 20 24 27 36 34 41 28 22 44 26
leaf_count=1047 20 24 27 36 34 41 28 22 44 26
internal_value=3.96901e-06 0.000107971 0.000122901 0.000321488 0.000104439 9.85463e-05 -5.75155e-05 0.000181082 0.000108416 0.000109285
internal_weight=1349 1329 1305 111 1194 1160 69 84 1091 62
internal_count=1349 1329 1305 111 1194 1160 69 84 1091 62
is_linear=0
shrinkage=0.02


Tree=40
num_leaves=16
num_cat=0
split_feature=17 38 9 9 36 9 17 36 32 32 38 9 22 22 9
split_gain=0.115385 0.135521 0.039996 0.0318671 0.0304005 0.00948308 0.0226523 0.0657232 0.00917674 0.00135844 0.00140366 0.00162575 0.000668227 4.75324e-05 1.73618e-06
threshold=10.500000000000002 85.000000000000014 6.5000000000000009 1.5000000000000002 1.0000000180025095e-35 4.5000000000000009 4.5000000000000009 1.0000000180025095e-35 35.500000000000007 2.5000000000000004 345.00000000000006 3.5000000000000004 335.00000000000006 125.00000000000001 5.5000000000000009
decision_type=2 2 2 2 2 2 2 2 2 2 2 2 2 2 2
left_child=2 -2 5 -3 -4 9 13 -8 -5 -1 11 -11 -12 -7 -15
right_child=1 3 4 8 -6 6 7 -9 -10 10 12 -13 -14 14 -16
leaf_value=0.00025251014949753881 -0.0019802515658860409 -0.00091339585348032407 -0.0010262755777997274 0.00026177768900605114 -8.739591323082214e-06 0.00011329427543209821 -0.0011638114981353284 0.00021445229889885072 -0.00028719464804799781 9.1980807110896343e-05 0.00028335444116964935 1.8415069802010315e-05 0.0001218221252340646 8.3375650435863516e-05 9.0211546858367706e-05
leaf_weight=20 24 20 24 29 23 41 25 31 21 813 20 141 21 42 23
leaf_count=20 24 20 24 29 23 41 25 31 21 813 20 141 21 42 23
internal_value=-8.07147e-06 -0.000683335 4.3787e-05 -0.000238678 -0.000528332 6.66329e-05 -7.54664e-05 -0.000400844 3.12093e-05 8.93128e-05 8.60324e-05 8.11079e-05 0.000200618 9.64312e-05 8.57945e-05
internal_weight=1318 94 1224 70 47 1177 162 56 50 1015 995 954 41 106 65
internal_count=1318 94 1224 70 47 1177 162 56 50 1015 995 954 41 106 65
is_linear=0
shrinkage=0.02


Tree=41
num_leaves=12
num_cat=0
split_feature=15 17 33 18 9 22 40 17 9 17 35
split_gain=2.33915 0.0212471 0.0618246 0.0106194 0.00922053 0.00180528 0.00153143 0.00178084 0.00122932 0.000367891 0.000161641
threshold=-1.0000000180025095e-35 11.500000000000002 9.5000000000000018 4.5000000000000009 6.5000000000000009 335.00000000000006 25.500000000000004 8.5000000000000018 4.5000000000000009 9.5000000000000018 6.5000000000000009
decision_type=2 2 2 2 2 2 2 2 2 2 2
left_child=1 4 3 -3 5 6 7 -1 10 -8 -7
right_child=-2 2 -4 -5 -6 8 9 -9 -10 -11 -12
leaf_value=9.5742301787364242e-05 -0.0068020288944244389 0.00038135624428590136 -0.0011277493605898186 -0.00018985002018187359 0.00042122190081942323 0.00011688783706631511 0.00015405000373721123 -6.6680158807398523e-06 0.00029231534066513696 0.00027535800961777567 0.00018456223700195551
leaf_weight=976 20 30 22 23 37 48 20 73 29 20 20
leaf_count=976 20 30 22 23 37 48 20 73 29 20 20
internal_value=-1.43147e-05 9.02725e-05 -0.000236485 0.000133474 0.000110311 0.000100611 9.32469e-05 8.86156e-05 0.000183289 0.000214704 0.000136792
internal_weight=1318 1298 75 53 1223 1186 1089 1049 97 40 68
internal_count=1318 1298 75 53 1223 1186 1089 1049 97 40 68
is_linear=0
shrinkage=0.02


Tree=42
num_leaves=13
num_cat=0
split_feature=17 38 17 19 18 9 34 38 9 38 9 7
split_gain=0.150113 0.150105 0.017661 0.0430868 0.0139422 0.0688771 0.0260009 0.00979333 0.0038816 0.00214951 0.000158808 3.06326e-05
threshold=13.500000000000002 1.0000000180025095e-35 10.500000000000002 4.5000000000000009 5.5000000000000009 3.5000000000000004 5.5000000000000009 65.000000000000014 4.5000000000000009 325.00000000000006 2.5000000000000004 1.0000000180025095e-35
decision_type=2 2 2 2 2 2 2 2 2 2 2 2
left_child=2 -2 4 -4 5 10 -6 8 -8 -9 11 -1
right_child=1 -3 3 -5 6 -7 7 9 -10 -11 -12 -13
leaf_value=8.1443791583058283e-05 -0.002359411744844346 -0.00012255936994084291 -0.0008633813127461407 0.00031460742142213428 -0.00039995442843064664 -0.00092587367744382588 0.00021926531679928305 8.9701847233919239e-05 0.00058351835489950398 0.00028965776193548332 0.00013861518353223802 0.00010811609914526343
leaf_weight=61 21 28 27 23 42 33 25 955 22 22 37 24
leaf_count=61 21 28 27 23 42 33 25 955 22 22 37 24
internal_value=5.0317e-06 -0.00108121 4.69089e-05 -0.000321506 6.19955e-05 -0.00011524 8.77661e-05 0.00010777 0.000389767 9.42044e-05 0.00010403 8.89748e-05
internal_weight=1320 49 1271 50 1221 155 1066 1024 47 977 122 85
internal_count=1320 49 1271 50 1221 155 1066 1024 47 977 122 85
is_linear=0
shrinkage=0.02


Tree=43
num_leaves=15
num_cat=0
split_feature=15 33 40 9 33 22 33 17 22 40 24 21 36 40
split_gain=2.39102 0.0141304 0.105637 0.0203858 0.0212943 0.0098865 0.0170442 0.00967665 0.00350699 0.00645921 0.00226914 0.00111668 0.000225903 3.23934e-05
threshold=-1.0000000180025095e-35 11.500000000000002 15.500000000000002 5.5000000000000009 7.5000000000000009 345.00000000000006 6.5000000000000009 6.5000000000000009 300.00000000000006 1.0000000180025095e-35 26.500000000000004 1.0000000180025095e-35 1.0000000180025095e-35 24.500000000000004
decision_type=2 2 2 2 2 2 2 2 2 2 2 2 2 2
left_child=1 3 -3 5 7 8 -7 12 11 -10 13 -1 -5 -4
right_child=-2 2 10 4 -6 6 -8 -9 9 -11 -12 -13 -14 -15
leaf_value=0.00016165028369530688 -0.0065490858663212175 -0.0014318056842312216 0.00012346715040119558 0.00013096751298946447 0.00091684094063289789 0.00014147392456204845 -0.00063512213341891763 0.0005663016511127353 0.00052153788930313155 0.00012347886878405771 0.00032783550272385284 8.6292218534229375e-05 5.2980387772549874e-05 9.1684010365734921e-05
leaf_weight=86 22 20 29 39 23 26 20 25 22 63 30 921 24 23
leaf_count=86 22 20 29 39 23 26 20 25 22 63 30 921 24 23
internal_value=-8.712e-06 9.7793e-05 -0.000128547 0.000116277 0.000374992 9.10421e-05 -0.000196177 0.000233373 0.000103141 0.000226506 0.000189321 9.2728e-05 0.000101258 0.000109409
internal_weight=1373 1351 102 1249 111 1138 46 88 1092 85 82 1007 63 52
internal_count=1373 1351 102 1249 111 1138 46 88 1092 85 82 1007 63 52
is_linear=0
shrinkage=0.02


Tree=44
num_leaves=12
num_cat=0
split_feature=9 33 33 32 17 17 20 42 2 17 26
split_gain=0.0730083 0.132427 0.0239914 0.119377 0.0104552 0.0074914 0.00573431 0.0038902 0.0212755 0.00144167 0.00124465
threshold=6.5000000000000009 5.5000000000000009 11.500000000000002 12.500000000000002 14.500000000000002 12.500000000000002 3.5000000000000004 1.0000000180025095e-35 1.0000000180025095e-35 9.5000000000000018 1.0000000180025095e-35
decision_type=2 2 2 2 2 2 2 2 2 2 2
left_child=2 -2 4 6 5 7 -4 10 -9 -8 -1
right_child=1 -3 3 -5 -6 -7 9 8 -10 -11 -12
leaf_value=8.9257634058594707e-05 3.6876570420878498e-05 -0.0019037419353315438 -0.00013033604249358178 -0.0016333379852585496 0.00050356672399423338 -0.00029391994699835779 0.00013648733015983336 0.00010259764852296365 -0.00054307819523203833 0.00035428484110161659 -1.5194868998757255e-05
leaf_weight=925 39 22 29 20 22 23 31 95 26 20 48
leaf_count=925 39 22 29 20 22 23 31 95 26 20 48
internal_value=1.24655e-05 -0.000663019 4.57218e-05 -0.000251297 7.1799e-05 6.3295e-05 9.42132e-05 7.0805e-05 -3.61426e-05 0.000221898 8.41048e-05
internal_weight=1300 61 1239 100 1139 1117 80 1094 121 51 973
internal_count=1300 61 1239 100 1139 1117 80 1094 121 51 973
is_linear=0
shrinkage=0.02


Tree=45
num_leaves=14
num_cat=0
split_feature=17 38 9 36 23 21 2 16 18 9 23 9 12
split_gain=0.043866 0.0716022 0.0336058 0.056222 0.0225092 0.0140939 0.0637346 0.00292102 0.00292886 0.0106242 0.00435268 0.00059918 0.000109359
threshold=10.500000000000002 85.000000000000014 6.5000000000000009 1.0000000180025095e-35 250.00000000000003 1.0000000180025095e-35 1.0000000180025095e-35 7.5000000000000009 5.5000000000000009 3.5000000000000004 250.00000000000003 1.5000000000000002 1.0000000180025095e-35
decision_type=2 2 2 2 2 2 2 2 2 2 2 2 2
left_child=2 -2 5 -4 -3 6 11 -7 9 -9 -10 -1 -6
right_child=1 4 3 -5 12 7 -8 8 10 -11 -12 -13 -14
leaf_value=7.5155389495193959e-05 -0.0014454823138103597 -0.00054883221264130308 -0.00098771770892199136 0.00032567215910851455 0.00022027450706809762 -0.00012711479828727467 -0.0010900556101747182 0.00010253401320488726 8.3008001353842252e-05 -0.00041903274843380566 0.0002679240217225419 0.00019661544662085361 0.00015492776231396766
leaf_weight=33 21 28 32 22 20 27 23 61 892 21 54 32 21
leaf_count=33 21 28 32 22 20 27 23 61 892 21 54 32 21
internal_value=2.89722e-06 -0.000422927 3.49141e-05 -0.000452633 -0.000111715 5.79478e-05 -0.000185221 7.82311e-05 8.36244e-05 -3.1038e-05 9.35635e-05 0.000134951 0.000186804
internal_weight=1287 90 1197 54 69 1143 88 1055 1028 82 946 65 41
internal_count=1287 90 1197 54 69 1143 88 1055 1028 82 946 65 41
is_linear=0
shrinkage=0.02


Tree=46
num_leaves=14
num_cat=0
split_feature=15 33 40 37 20 21 17 35 17 2 34 18 16
split_gain=2.24642 0.0638447 0.318527 0.0126175 0.0564961 0.00624262 0.00224323 0.00187933 0.000864841 0.000752152 0.00059013 0.000326211 1.5057e-05
threshold=-1.0000000180025095e-35 11.500000000000002 15.500000000000002 1.0000000180025095e-35 1.0000000180025095e-35 1.0000000180025095e-35 11.500000000000002 5.5000000000000009 8.5000000000000018 1.0000000180025095e-35 5.5000000000000009 4.5000000000000009 13.500000000000002
decision_type=2 2 2 2 2 2 2 2 2 2 2 2 2
left_child=1 3 -3 4 7 -5 10 -1 12 -9 -7 -8 -4
right_child=-2 2 8 5 -6 6 11 9 -10 -11 -12 -13 -14
leaf_value=-3.6863964937982106e-07 -0.0065154653503781274 -0.0026641146950423717 9.6163393252275206e-05 0.00040362060929720214 0.001228717187927528 0.0001673685314017348 0.00017544765116238014 0.00027275563173350835 0.00024219337265406337 0.0001118262242884017 8.0086055378232997e-05 0.00027397055830806493 0.00012014054832980037
leaf_weight=42 21 20 22 26 22 32 41 21 35 26 977 20 20
leaf_count=42 21 20 22 26 22 32 41 21 35 26 977 20 20
internal_value=-2.61838e-05 7.83215e-05 -0.000415331 0.000117994 0.000321186 9.74149e-05 8.99744e-05 9.68524e-05 0.000168768 0.000183731 8.28542e-05 0.00020775 0.000107581
internal_weight=1325 1304 97 1207 111 1096 1070 89 77 47 1009 61 42
internal_count=1325 1304 97 1207 111 1096 1070 89 77 47 1009 61 42
is_linear=0
shrinkage=0.02


Tree=47
num_leaves=13
num_cat=0
split_feature=37 8 36 34 2 24 38 33 17 9 16 2
split_gain=0.108996 0.177681 0.537455 0.0188452 0.10043 0.0183939 0.00408888 0.00506267 0.00152246 0.000129765 0.000100038 2.42621e-05
threshold=1.0000000180025095e-35 2.5000000000000004 1.0000000180025095e-35 5.5000000000000009 1.0000000180025095e-35 26.500000000000004 200.00000000000003 5.5000000000000009 11.500000000000002 6.5000000000000009 26.500000000000004 1.0000000180025095e-35
decision_type=2 2 2 2 2 2 2 2 2 2 2 2
left_child=1 11 -3 4 -2 6 8 -8 9 -5 -10 -1
right_child=3 2 -4 5 -6 -7 7 -9 10 -11 -12 -13
leaf_value=7.1252283802175013e-05 0.00037326213766765946 -0.0034892416229614842 0.00053950944984400718 7.938390819713323e-05 -0.0013858527916350537 -0.00038473033882451782 9.7563237992717941e-05 0.00047248118445277219 0.0002341841006030639 0.00012962471108905795 0.00017245114825311162 9.4865311901750311e-05
leaf_weight=46 34 26 27 990 21 33 34 25 21 21 21 28
leaf_count=46 34 26 27 990 21 33 34 25 21 21 21 28
internal_value=4.25992e-06 -0.000552911 -0.00143686 6.32272e-05 -0.0002984 8.05979e-05 9.44071e-05 0.000256427 8.53291e-05 8.04275e-05 0.000203318 8.01869e-05
internal_weight=1327 127 53 1200 55 1145 1112 59 1053 1011 42 74
internal_count=1327 127 53 1200 55 1145 1112 59 1053 1011 42 74
is_linear=0
shrinkage=0.02


Tree=48
num_leaves=12
num_cat=0
split_feature=37 32 21 32 35 17 34 32 33 7 10
split_gain=0.108799 0.173493 0.044674 0.0376619 0.0266484 0.00397645 0.00156925 0.00124853 0.000757908 0.000151286 5.76354e-05
threshold=1.0000000180025095e-35 45.500000000000007 1.0000000180025095e-35 1.5000000000000002 5.5000000000000009 10.500000000000002 5.5000000000000009 33.500000000000007 11.500000000000002 1.0000000180025095e-35 -1.0000000180025095e-35
decision_type=2 2 2 2 2 2 2 2 2 2 2
left_child=1 4 -2 -4 -1 6 -5 -7 -8 -9 -3
right_child=2 10 3 5 -6 7 8 9 -10 -11 -12
leaf_value=-0.0020389292275776036 -0.00064594957764659607 7.2234612889587876e-05 -0.00076042362000970621 0.00021878641098737716 -0.00105351688961188 0.00034881450304830519 7.6717386917383892e-05 0.00013390190759673715 0.00015106592809074911 0.00021169295767322184 0.00011299052568418639
leaf_weight=23 35 23 21 34 21 27 1008 20 58 20 35
leaf_count=23 35 23 21 34 21 27 1008 20 58 20 35
internal_value=5.94814e-06 -0.0006216 5.82865e-05 7.90342e-05 -0.00156862 9.41402e-05 8.50288e-05 0.00024373 8.07626e-05 0.000172797 9.68287e-05
internal_weight=1325 102 1223 1188 44 1167 1100 67 1066 40 58
internal_count=1325 102 1223 1188 44 1167 1100 67 1066 40 58
is_linear=0
shrinkage=0.02


Tree=49
num_leaves=16
num_cat=0
split_feature=17 37 23 38 22 18 22 36 37 40 33 32 33 32 2
split_gain=0.138789 0.344199 0.0318714 0.0142569 0.0879923 0.00837825 0.0247277 0.0625227 0.0179649 0.00301891 0.00110128 0.000897136 0.000804408 0.000189651 1.07411e-05
threshold=10.500000000000002 1.0000000180025095e-35 250.00000000000003 325.00000000000006 45.000000000000007 5.5000000000000009 335.00000000000006 1.0000000180025095e-35 1.0000000180025095e-35 26.500000000000004 11.500000000000002 36.500000000000007 6.5000000000000009 50.000000000000007 1.0000000180025095e-35
decision_type=2 2 2 2 2 2 2 2 2 2 2 2 2 2 2
left_child=3 -2 -3 5 -5 6 13 -8 -7 10 -10 -4 -6 -1 -15
right_child=1 2 11 4 12 8 7 -9 9 -11 -12 -13 -14 14 -16
leaf_value=0.0001307060433935155 -0.0030045098208245778 -0.00056275376791341443 0.00033734992190840695 -0.0013274598724785306 9.136021550324175e-05 0.00062559176508026823 -0.0011618740780977533 0.0003522256282158196 7.1925581491022746e-05 -0.00016546232958457302 0.00016832969412207605 0.00015459365338425744 0.00023323996599312083 6.7650361402713235e-05 8.433011805881625e-05
leaf_weight=34 21 36 21 21 31 24 24 20 911 21 50 22 33 47 23
leaf_count=34 21 36 21 21 31 24 24 20 911 21 50 22 33 47 23
internal_value=-1.1959e-05 -0.000728684 -0.000123718 4.58881e-05 -0.000204089 6.43006e-05 -7.6198e-05 -0.000473647 8.49704e-05 7.17576e-05 7.69414e-05 0.000243847 0.000164517 9.19535e-05 7.31309e-05
internal_weight=1339 100 79 1239 85 1154 148 44 1006 982 961 43 64 104 70
internal_count=1339 100 79 1239 85 1154 148 44 1006 982 961 43 64 104 70
is_linear=0
shrinkage=0.02


Tree=50
num_leaves=13
num_cat=0
split_feature=9 36 38 8 32 0 17 38 22 32 2 2
split_gain=0.0901743 0.0834241 0.0355173 0.191638 0.0385068 0.00681921 0.00463418 0.00258785 0.00201923 7.89817e-05 1.60778e-05 6.2806e-06
threshold=6.5000000000000009 1.0000000180025095e-35 1.0000000180025095e-35 2.5000000000000004 1.5000000000000002 1928528201920.0002 10.500000000000002 345.00000000000006 200.00000000000003 50.000000000000007 1.0000000180025095e-35 1.0000000180025095e-35
decision_type=2 2 2 2 2 2 2 2 2 2 2 2
left_child=2 -2 3 9 -4 -6 7 -7 -8 11 -11 -1
right_child=1 -3 4 -5 5 6 8 -9 -10 10 -12 -13
leaf_value=0.00011226152707995088 -0.001481167816466862 7.1644651558017358e-05 -0.00080103927571326496 -0.0017501275667122433 -0.00024247271288186314 7.2891772342959597e-05 0.00035385864334447044 0.00021150815129084022 0.00014703326483779566 6.6485727950930598e-05 8.6690577799859253e-05 9.7678098827600477e-05
leaf_weight=27 31 25 20 28 25 982 35 57 41 50 23 21
leaf_count=27 31 25 20 28 25 982 35 57 41 50 23 21
internal_value=-2.02322e-06 -0.000787948 3.15992e-05 -0.000259081 6.89366e-05 8.41994e-05 9.15239e-05 8.04963e-05 0.000242282 8.59543e-05 7.28516e-05 0.000105881
internal_weight=1365 56 1309 149 1160 1140 1115 1039 76 121 73 48
internal_count=1365 56 1309 149 1160 1140 1115 1039 76 121 73 48
is_linear=0
shrinkage=0.02


Tree=51
num_leaves=14
num_cat=0
split_feature=37 17 21 9 16 33 17 18 24 34 17 2 9
split_gain=0.151777 0.400569 0.0957923 0.0459216 0.00442571 0.00286665 0.00191412 0.000881893 0.000772766 0.000637728 0.000195485 1.71515e-05 1.93029e-06
threshold=1.0000000180025095e-35 10.500000000000002 1.0000000180025095e-35 3.5000000000000004 5.5000000000000009 11.500000000000002 8.5000000000000018 5.5000000000000009 19.500000000000004 5.5000000000000009 13.500000000000002 1.0000000180025095e-35 1.5000000000000002
decision_type=2 2 2 2 2 2 2 2 2 2 2 2 2
left_child=1 3 -2 11 -4 7 8 10 -7 -9 -6 12 -1
right_child=2 -3 4 -5 5 6 -8 9 -10 -11 -12 -13 -14
leaf_value=6.8107196129858492e-05 -0.00098146369627543869 -0.0032790816947817804 -0.0001344870078704647 -0.00087717702346188687 0.00011759420456842352 0.00024026355845853685 0.00036408604503693903 0.00016368771530687811 8.2712976798189416e-05 6.9949848714008744e-05 0.00017919875598246498 8.4392315308962548e-05 5.9909466654062274e-05
leaf_weight=27 35 20 37 28 78 20 22 30 33 899 28 28 20
leaf_count=27 35 20 37 28 78 20 22 30 33 899 28 28 20
internal_value=-2.03369e-05 -0.000688964 4.9241e-05 -0.000186028 8.06924e-05 8.7865e-05 0.000207263 7.9213e-05 0.000142166 7.29769e-05 0.000133867 7.20009e-05 6.46188e-05
internal_weight=1305 123 1182 103 1147 1110 75 1035 53 929 106 75 47
internal_count=1305 123 1182 103 1147 1110 75 1035 53 929 106 75 47
is_linear=0
shrinkage=0.02


Tree=52
num_leaves=13
num_cat=0
split_feature=17 37 23 34 17 37 21 32 18 16 2 17
split_gain=0.116066 0.277874 0.0220267 0.0171822 0.0701884 0.0199064 0.0102513 0.00102284 0.000323683 0.000276828 0.000409708 0.000141798
threshold=10.500000000000002 1.0000000180025095e-35 250.00000000000003 5.5000000000000009 4.5000000000000009 1.0000000180025095e-35 1.0000000180025095e-35 3.5000000000000004 5.5000000000000009 56.500000000000007 1.0000000180025095e-35 14.500000000000002
decision_type=2 2 2 2 2 2 2 2 2 2 2 2
left_child=3 -2 -3 4 9 -5 -7 -8 -9 10 -1 -4
right_child=1 2 11 5 -6 6 7 8 -10 -11 -12 -13
leaf_value=0.00021453480375930667 -0.002647527178580111 -0.00050527659555276241 0.00015995159057811612 -0.00042056215810589494 -0.0010345299090740495 0.00050329206997285717 0.00018789916866808199 0.00011494333471131066 7.010677177046673e-05 6.6745053045451643e-05 9.7671935024360815e-05 0.00023183312752972476
leaf_weight=20 22 30 21 32 29 23 32 69 967 29 30 23
leaf_count=20 22 30 21 32 29 23 32 69 967 29 30 23
internal_value=-4.29753e-06 -0.000674091 -8.7394e-05 4.79366e-05 -0.000193008 7.11085e-05 8.55296e-05 7.65329e-05 7.3093e-05 0.000115905 0.000144417 0.000197526
internal_weight=1327 96 74 1231 108 1123 1091 1068 1036 79 50 44
internal_count=1327 96 74 1231 108 1123 1091 1068 1036 79 50 44
is_linear=0
shrinkage=0.02


Tree=53
num_leaves=11
num_cat=0
split_feature=37 33 12 24 21 19 34 17 22 18
split_gain=0.196193 0.384209 0.0854275 0.0128428 0.0109962 0.00669553 0.0029508 0.00163871 0.000314754 0.000270162
threshold=1.0000000180025095e-35 6.5000000000000009 1.0000000180025095e-35 26.500000000000004 1.0000000180025095e-35 5.5000000000000009 5.5000000000000009 11.500000000000002 255.00000000000003 5.5000000000000009
decision_type=2 2 2 2 2 2 2 2 2 2
left_child=1 2 5 4 -2 -1 -6 9 -9 -8
right_child=3 -3 -4 -5 6 -7 7 8 -10 -11
leaf_value=0.00028915217310628472 -0.00028211196939296584 -0.0033193692974746226 -0.001235149032263844 -0.00032196694355019753 0.00025616565952077511 -9.9634488641812995e-05 0.00011029555274646229 0.0002455838379405794 0.00014593579529901035 6.8788461244806258e-05
leaf_weight=34 34 20 27 34 38 37 67 21 32 983
leaf_count=34 34 20 27 34 38 37 67 21 32 983
internal_value=-1.474e-05 -0.00079315 -0.000277595 6.12338e-05 7.23222e-05 8.6545e-05 8.28838e-05 7.69139e-05 0.000185419 7.1437e-05
internal_weight=1327 118 98 1209 1175 71 1141 1103 53 1050
internal_count=1327 118 98 1209 1175 71 1141 1103 53 1050
is_linear=0
shrinkage=0.02


Tree=54
num_leaves=14
num_cat=0
split_feature=15 33 20 22 37 39 24 16 2 39 21 17 40
split_gain=1.96136 0.0334611 0.195248 0.0064802 0.0189432 0.00613891 0.00232529 0.00140353 0.00033745 0.000172288 0.000157619 5.91108e-05 2.656e-05
threshold=-1.0000000180025095e-35 11.500000000000002 2.5000000000000004 200.00000000000003 1.0000000180025095e-35 250.00000000000003 26.500000000000004 9.5000000000000018 1.0000000180025095e-35 250.00000000000003 1.0000000180025095e-35 11.500000000000002 24.500000000000004
decision_type=2 2 2 2 2 2 2 2 2 2 2 2 2
left_child=1 3 -3 5 -5 7 12 -1 9 -6 -9 -10 -4
right_child=-2 2 6 4 8 -7 -8 10 11 -11 -12 -13 -14
leaf_value=0.00020938088651746513 -0.006086009400231498 -0.0020437795082107186 0.00010330093109273705 0.00062180519828365904 7.9021184091371556e-05 0.00032816570244717578 0.00031954692477094274 9.5776307126997336e-05 0.0001381337320940061 0.00013856606271404486 6.5753287639389892e-05 0.00017769868242675842 7.3341900249943143e-05
leaf_weight=29 21 20 29 36 77 39 28 76 44 26 878 23 20
leaf_count=29 21 20 29 36 77 39 28 76 44 26 878 23 20
internal_value=-2.16595e-05 7.44547e-05 -0.000283152 0.000102702 0.000205035 8.20752e-05 0.000174154 7.23117e-05 0.000116778 9.40519e-05 6.81451e-05 0.000151716 9.10728e-05
internal_weight=1346 1325 97 1228 206 1022 77 983 170 103 954 67 49
internal_count=1346 1325 97 1228 206 1022 77 983 170 103 954 67 49
is_linear=0
shrinkage=0.02


Tree=55
num_leaves=14
num_cat=0
split_feature=15 33 36 9 39 17 33 39 24 22 9 36 8
split_gain=1.7887 0.023209 0.177578 0.0315749 0.0400116 0.01086 0.00478592 0.00195692 0.00193899 0.00167052 0.00129024 0.000270537 0.000248926
threshold=-1.0000000180025095e-35 11.500000000000002 2.5000000000000004 5.5000000000000009 1.0000000180025095e-35 13.500000000000002 5.5000000000000009 250.00000000000003 26.500000000000004 335.00000000000006 3.5000000000000004 1.0000000180025095e-35 38.500000000000007
decision_type=2 2 2 2 2 2 2 2 2 2 2 2 2
left_child=1 3 -3 5 -5 7 11 9 12 -1 -9 -6 -4
right_child=-2 2 8 4 6 -7 -8 10 -10 -11 -12 -13 -14
leaf_value=6.9081389757041459e-05 -0.0059485145807266241 -0.0018998386694584041 0.00017576945923446192 0.0010845709671931606 0.00013465400319546462 -0.00032332116237807052 0.00045476841296823251 0.00011942527979906452 0.00032156578614376483 0.00017480104419519195 0.00030673614606106033 4.2826274044013447e-05 8.5989357670769094e-05
leaf_weight=908 20 20 21 28 33 27 21 38 32 64 24 21 30
leaf_count=908 20 20 21 28 33 27 21 38 32 64 24 21 30
internal_value=-1.4034e-05 7.96437e-05 -0.000208115 0.000105107 0.000439428 7.26516e-05 0.000198574 8.29913e-05 0.000199529 7.60424e-05 0.000191933 9.89432e-05 0.000122958
internal_weight=1287 1267 103 1164 103 1061 75 1034 83 972 62 54 51
internal_count=1287 1267 103 1164 103 1061 75 1034 83 972 62 54 51
is_linear=0
shrinkage=0.02


Tree=56
num_leaves=11
num_cat=0
split_feature=37 8 21 32 16 34 18 8 16 10
split_gain=0.0875556 0.160559 0.0607559 0.0368136 0.0113216 0.0045015 0.00115949 0.00105283 0.000385755 7.27222e-05
threshold=1.0000000180025095e-35 4.5000000000000009 1.0000000180025095e-35 45.500000000000007 5.5000000000000009 5.5000000000000009 5.5000000000000009 47.500000000000007 28.500000000000004 -1.0000000180025095e-35
decision_type=2 2 2 2 2 2 2 2 2 2
left_child=1 3 -2 -1 -4 -6 8 -8 -7 -5
right_child=2 -3 4 9 5 6 7 -9 -10 -11
leaf_value=-0.00081351299583911892 -0.00078839275985956195 -0.0019855681185921036 -0.00027016395862263285 5.632995627820492e-05 0.00030746476081035593 0.0002028696323171831 6.3192098716078119e-05 0.00018353123341997463 0.00011458735851324109 9.771292188727274e-05
leaf_weight=25 34 24 38 29 34 26 949 30 83 41
leaf_count=25 34 24 38 29 34 26 949 30 83 41
internal_value=-6.63278e-06 -0.000523964 4.4927e-05 -0.000154716 6.93519e-05 8.08506e-05 7.37689e-05 6.68797e-05 0.000135646 8.05686e-05
internal_weight=1313 119 1194 95 1160 1122 1088 979 109 70
internal_count=1313 119 1194 95 1160 1122 1088 979 109 70
is_linear=0
shrinkage=0.02


Tree=57
num_leaves=13
num_cat=0
split_feature=9 36 37 16 32 33 8 40 38 8 9 9
split_gain=0.0781942 0.0790273 0.0246854 0.0875656 0.0107413 0.00496647 0.0064773 0.00370302 0.00201271 0.000651852 4.05842e-05 5.60979e-06
threshold=6.5000000000000009 1.0000000180025095e-35 1.0000000180025095e-35 37.500000000000007 1.5000000000000002 11.500000000000002 29.500000000000004 23.500000000000004 345.00000000000006 47.500000000000007 2.5000000000000004 1.5000000000000002
decision_type=2 2 2 2 2 2 2 2 2 2 2 2
left_child=2 -2 3 -1 -4 7 -7 8 -6 -8 11 -5
right_child=1 -3 4 10 5 6 9 -9 -10 -11 -12 -13
leaf_value=-0.0013737793402238327 -0.0013723347231280058 0.00014587572598732853 -0.00038008596260277999 5.5203353986144067e-05 6.3363787155719793e-05 0.00054153858823701741 6.734999670537517e-05 -0.00020433812541887164 0.00017997840267886954 0.00020706651594743809 2.8299627825617789e-05 6.7539221831950654e-05
leaf_weight=22 32 24 21 30 982 20 34 20 63 22 20 29
leaf_count=22 32 24 21 30 982 20 34 20 63 22 20 29
internal_value=9.63862e-06 -0.000721673 4.20642e-05 -0.000257846 6.81321e-05 7.63815e-05 0.000232581 6.52349e-05 7.03941e-05 0.000122239 5.29206e-05 6.12667e-05
internal_weight=1319 56 1263 101 1162 1141 76 1065 1045 56 79 59
internal_count=1319 56 1263 101 1162 1141 76 1065 1045 56 79 59
is_linear=0
shrinkage=0.02


Tree=58
num_leaves=11
num_cat=0
split_feature=17 9 20 21 2 16 33 17 23 9
split_gain=0.0590629 0.00989529 0.0165868 0.00372697 0.0242197 0.0032708 0.00614328 0.00715191 0.00681598 0.000695884
threshold=18.000000000000004 6.5000000000000009 1.0000000180025095e-35 1.0000000180025095e-35 1.0000000180025095e-35 5.5000000000000009 7.5000000000000009 12.500000000000002 250.00000000000003 1.5000000000000002
decision_type=2 2 2 2 2 2 2 2 2 2
left_child=1 3 -3 4 9 -5 7 -7 -8 -1
right_child=-2 2 -4 5 -6 6 8 -9 -10 -11
leaf_value=5.4099289700388907e-05 -0.00097281398089683576 -0.00060830065261446484 7.8420177245896086e-05 -0.00011398870812577975 -0.00067548801098018889 6.4243719928204645e-05 0.00011927205382166374 -0.00028562143677845597 0.00041062424448318777 0.00018302492811485675
leaf_weight=34 23 24 34 37 20 892 163 24 40 33
leaf_count=34 23 24 34 37 20 892 163 24 40 33
internal_value=3.18437e-05 4.96047e-05 -0.00020574 6.15194e-05 -6.47191e-05 7.10201e-05 7.71374e-05 5.50769e-05 0.000176681 0.0001176
internal_weight=1324 1301 58 1243 87 1156 1119 916 203 67
internal_count=1324 1301 58 1243 87 1156 1119 916 203 67
is_linear=0
shrinkage=0.02


Tree=59
num_leaves=15
num_cat=0
split_feature=33 24 34 9 37 40 23 40 7 18 24 8 7 16
split_gain=0.0617907 0.242826 0.0101117 0.0595228 0.0132745 0.00860756 0.00434926 0.00241986 0.00174553 0.000972371 0.000765359 0.000217822 5.04132e-05 1.77558e-06
threshold=11.500000000000002 15.500000000000002 5.5000000000000009 3.5000000000000004 1.0000000180025095e-35 27.500000000000004 1.0000000180025095e-35 23.500000000000004 1.0000000180025095e-35 5.5000000000000009 25.500000000000004 4.5000000000000009 1.0000000180025095e-35 13.500000000000002
decision_type=2 2 2 2 2 2 2 2 2 2 2 2 2 2
left_child=2 -2 3 11 -4 10 8 9 -6 -8 13 12 -1 -3
right_child=1 5 4 -5 6 -7 7 -9 -10 -11 -12 -13 -14 -15
leaf_value=5.058533725483964e-05 -0.0024482195535674694 7.7594187809154394e-05 -0.00030669107444976503 -0.0010484676634001991 0.00012708313314727058 -0.00034677449835553056 0.00012857169628010265 -0.00013870403555262347 0.00034874402980009718 6.2052253577099404e-05 0.00022299170959740877 0.00013105118293315173 8.4746324422734762e-05 6.9446106967718712e-05
leaf_weight=48 20 20 38 23 27 21 98 23 30 853 20 25 27 23
leaf_count=48 20 20 38 23 27 21 98 23 30 853 20 25 27 23
internal_value=-1.3904e-07 -0.00046767 4.06522e-05 -0.000131075 6.04113e-05 3.88945e-06 7.39418e-05 6.40045e-05 0.000243747 6.8907e-05 0.000120777 7.99253e-05 6.28833e-05 7.32359e-05
internal_weight=1296 104 1192 123 1069 84 1031 974 57 951 63 100 75 43
internal_count=1296 104 1192 123 1069 84 1031 974 57 951 63 100 75 43
is_linear=0
shrinkage=0.02


Tree=60
num_leaves=9
num_cat=0
split_feature=15 9 17 17 24 34 32 38
split_gain=1.68707 0.0343676 0.029292 0.0111331 0.00564581 0.00457364 0.0288377 0.0120152
threshold=-1.0000000180025095e-35 6.5000000000000009 14.500000000000002 6.5000000000000009 26.500000000000004 5.5000000000000009 35.500000000000007 65.000000000000014
decision_type=2 2 2 2 2 2 2 2
left_child=1 2 4 -3 5 6 -1 -7
right_child=-2 3 -4 -5 -6 7 -8 -9
leaf_value=-0.00073992523318156607 -0.0057699570357799537 0.00035326318849426266 -0.00054487000159438579 0.00096244576002936814 0.00033172198516481067 0.00035827316879294814 9.4144182020471895e-05 6.7108642973063757e-05
leaf_weight=20 20 30 31 20 34 60 97 1028
leaf_count=20 20 30 31 20 34 60 97 1028
internal_value=-4.73671e-06 8.26151e-05 6.23662e-05 0.000596936 7.75594e-05 7.0388e-05 -4.84318e-05 8.31655e-05
internal_weight=1340 1320 1270 50 1239 1205 117 1088
internal_count=1340 1320 1270 50 1239 1205 117 1088
is_linear=0
shrinkage=0.02


Tree=61
num_leaves=14
num_cat=0
split_feature=33 8 34 11 37 16 21 9 8 18 8 16 19
split_gain=0.0583547 0.203398 0.0127058 0.0704891 0.0265474 0.0436382 0.0115938 0.00809303 0.00120785 0.000878242 0.000500126 0.000294415 7.39888e-06
threshold=11.500000000000002 25.500000000000004 5.5000000000000009 1.0000000180025095e-35 1.0000000180025095e-35 36.500000000000007 1.0000000180025095e-35 1.5000000000000002 46.500000000000007 5.5000000000000009 48.500000000000007 50.000000000000007 6.5000000000000009
decision_type=2 2 2 2 2 2 2 2 2 2 2 2 2
left_child=2 -2 3 11 5 -4 -6 -3 9 -8 -9 -1 -13
right_child=1 7 4 -5 6 -7 8 10 -10 -11 -12 12 -14
leaf_value=0.00014223853814537111 -0.0022763209436088799 -0.00024509042423839371 0.00018831226442541396 -0.0012156575536798864 0.00047937922731593804 -0.0011170490011572839 0.00012006804659079337 0.00010769617440098006 -8.0695937698086116e-05 5.6741746695350602e-05 0.00024444541649427265 5.1054522395133969e-05 6.5101002032558121e-05
leaf_weight=23 20 33 21 21 27 20 97 23 24 904 20 30 30
leaf_count=23 20 33 21 21 27 20 97 23 24 904 20 30 30
internal_value=-7.31623e-06 -0.000481755 3.0734e-05 -0.000180506 5.08337e-05 -0.000448449 7.02925e-05 -9.50084e-06 5.95165e-05 6.28783e-05 0.0001713 8.13994e-05 5.80778e-05
internal_weight=1293 96 1197 104 1093 41 1052 76 1025 1001 43 83 60
internal_count=1293 96 1197 104 1093 41 1052 76 1025 1001 43 83 60
is_linear=0
shrinkage=0.02


Tree=62
num_leaves=13
num_cat=0
split_feature=37 33 18 9 21 24 34 19 18 24 33 9
split_gain=0.0658554 0.141391 0.0435807 0.0710428 0.0270723 0.00795957 0.00625434 0.00355458 0.00105449 0.000676637 0.000295711 4.12539e-06
threshold=1.0000000180025095e-35 7.5000000000000009 5.5000000000000009 2.5000000000000004 1.0000000180025095e-35 26.500000000000004 5.5000000000000009 1.5000000000000002 5.5000000000000009 23.500000000000004 8.5000000000000018 1.5000000000000002
decision_type=2 2 2 2 2 2 2 2 2 2 2 2
left_child=1 2 3 11 -2 6 -6 -7 10 -10 -8 -1
right_child=4 -3 -4 -5 5 7 8 -9 9 -11 -12 -13
leaf_value=4.9101621843874458e-05 -0.00051456268030134118 -0.0019754572063684465 0.00067600389898178127 -0.0012317285295575858 0.00033196376233890246 -2.5712766995032631e-05 0.0001081781631430865 -0.00039826863305643205 5.6966727831622692e-05 0.0001311054483924706 0.00018612382486462594 6.0102136060595511e-05
leaf_weight=30 33 20 21 25 37 21 88 20 928 52 25 25
leaf_count=30 33 20 21 25 37 21 88 20 928 52 25 25
internal_value=5.67657e-06 -0.000439096 -0.000134867 -0.00034772 5.03755e-05 6.62961e-05 7.62284e-05 -0.000207447 6.75713e-05 6.09006e-05 0.000125423 5.41019e-05
internal_weight=1325 121 101 80 1204 1171 1130 41 1093 980 113 55
internal_count=1325 121 101 80 1204 1171 1130 41 1093 980 113 55
is_linear=0
shrinkage=0.02


Tree=63
num_leaves=12
num_cat=0
split_feature=37 20 34 20 7 19 16 18 42 32 32
split_gain=0.0268383 0.0685147 0.0276179 0.0794138 0.00480759 0.00817714 0.00303697 0.0021904 0.00154728 0.0101089 0.00114425
threshold=1.0000000180025095e-35 1.0000000180025095e-35 5.5000000000000009 1.0000000180025095e-35 1.0000000180025095e-35 4.5000000000000009 5.5000000000000009 3.5000000000000004 1.0000000180025095e-35 40.500000000000007 16.500000000000004
decision_type=2 2 2 2 2 2 2 2 2 2 2
left_child=1 4 3 -2 5 -1 -4 -8 10 -10 -9
right_child=2 -3 6 -5 -6 -7 7 8 9 -11 -12
leaf_value=9.5469923544442287e-05 -0.0011529052047127928 -0.0011177592480490948 -0.00011271559498517922 0.00044634767160143542 0.00018766668625175954 -0.000392894614681912 0.0002470619248709193 0.0001102635266234804 0.00054288261428882842 5.2282526135622041e-05 4.6967286815462432e-05
leaf_weight=32 27 29 38 23 34 24 27 133 20 105 810
leaf_count=32 27 29 38 23 34 24 27 133 20 105 810
internal_value=1.39571e-05 -0.000272343 4.27565e-05 -0.000417249 6.92682e-08 -0.000113829 6.30568e-05 6.91567e-05 6.46591e-05 0.000130779 5.58945e-05
internal_weight=1302 119 1183 50 90 56 1133 1095 1068 125 943
internal_count=1302 119 1183 50 90 56 1133 1095 1068 125 943
is_linear=0
shrinkage=0.02


Tree=64
num_leaves=14
num_cat=0
split_feature=15 9 17 39 38 39 22 33 32 22 40 33 35
split_gain=1.65994 0.0190259 0.0195575 0.0379353 0.0170098 0.00705999 0.00844482 0.00462255 0.00296254 0.0019685 0.000610761 0.000398232 0.000374295
threshold=-1.0000000180025095e-35 5.5000000000000009 13.500000000000002 120.00000000000001 85.000000000000014 250.00000000000003 125.00000000000001 5.5000000000000009 3.5000000000000004 315.00000000000006 27.500000000000004 6.5000000000000009 5.5000000000000009
decision_type=2 2 2 2 2 2 2 2 2 2 2 2 2
left_child=1 2 5 -4 -3 8 -7 12 10 -10 -1 -8 -6
right_child=-2 4 3 -5 7 6 11 -9 9 -11 -12 -13 -14
leaf_value=0.00016227608727705149 -0.0055791109232675466 0.00076859180067133685 -0.00093490720747716046 0.00023959886409680953 0.00015994781485642308 0.00054479681021933049 4.5412664969816161e-05 0.000424885977069304 5.3463699813518264e-05 0.00015135186210843838 0.00030809629242867231 0.00016310531807982404 5.0909405433819353e-05
leaf_weight=27 21 28 22 22 20 28 23 24 945 90 20 23 34
leaf_count=27 21 28 22 22 20 28 23 24 945 90 20 23 34
internal_value=-8.07788e-07 8.88893e-05 6.62014e-05 -0.000347654 0.000345733 8.19537e-05 0.000270949 0.000193938 6.9028e-05 6.19757e-05 0.000224327 0.000104259 9.1294e-05
internal_weight=1327 1306 1200 44 106 1156 74 78 1082 1035 47 46 54
internal_count=1327 1306 1200 44 106 1156 74 78 1082 1035 47 46 54
is_linear=0
shrinkage=0.02


Tree=65
num_leaves=9
num_cat=0
split_feature=15 9 17 17 24 9 17 17
split_gain=1.78247 0.0348742 0.0179818 0.0127076 0.00487199 0.00405157 0.00799204 0.00782415
threshold=-1.0000000180025095e-35 6.5000000000000009 18.000000000000004 6.5000000000000009 26.500000000000004 5.5000000000000009 13.500000000000002 3.5000000000000004
decision_type=2 2 2 2 2 2 2 2
left_child=1 2 4 -3 5 6 -1 -7
right_child=-2 3 -4 -5 -6 7 -8 -9
leaf_value=6.3325159889470622e-05 -0.0054196026548743248 0.00032299123948043284 -0.00051965429891078245 0.00097897276282310486 0.00030663982718525567 5.1914925900967541e-05 -0.00030554498021956533 0.00053525424673266358
leaf_weight=1116 24 27 21 21 34 37 24 21
leaf_count=1116 24 27 21 21 34 37 24 21
internal_value=-1.87013e-05 8.0931e-05 6.0664e-05 0.000609983 7.05558e-05 6.38556e-05 5.55595e-05 0.000226917
internal_weight=1325 1301 1253 48 1232 1198 1140 58
internal_count=1325 1301 1253 48 1232 1198 1140 58
is_linear=0
shrinkage=0.02


Tree=66
num_leaves=12
num_cat=0
split_feature=15 33 8 17 9 17 17 17 38 24 8
split_gain=1.6354 0.0413387 0.225271 0.0318726 0.0102027 0.00317119 0.00290817 0.00193478 0.00172196 0.00127221 0.000288472
threshold=-1.0000000180025095e-35 11.500000000000002 23.500000000000004 13.500000000000002 6.5000000000000009 11.500000000000002 6.5000000000000009 16.500000000000004 280.00000000000006 26.500000000000004 41.500000000000007
decision_type=2 2 2 2 2 2 2 2 2 2 2
left_child=1 3 -3 4 5 8 -6 -5 -1 10 -4
right_child=-2 2 9 7 6 -7 -8 -9 -10 -11 -12
leaf_value=6.0191868955457943e-05 -0.0054270129718563776 -0.0022161060720682145 0.00017281878029461951 0.00051797358784824612 0.00023355216237784288 0.00029442884400486947 0.00056009923410601918 0.00079616607585921892 0.00016129776343910233 0.00028865921621521313 7.178675257959045e-05
leaf_weight=1050 22 20 20 20 24 25 20 20 72 27 26
leaf_count=1050 22 20 20 20 24 25 20 20 72 27 26
internal_value=-1.88218e-05 7.10424e-05 -0.000335543 0.000101759 8.3109e-05 7.1644e-05 0.000381983 0.00065707 6.66799e-05 0.00017968 0.000115714
internal_weight=1346 1324 93 1231 1191 1147 44 40 1122 73 46
internal_count=1346 1324 93 1231 1191 1147 44 40 1122 73 46
is_linear=0
shrinkage=0.02


Tree=67
num_leaves=13
num_cat=0
split_feature=9 33 34 9 38 18 32 39 33 33 10 2
split_gain=0.0677171 0.0622563 0.00973521 0.0425826 0.00679679 0.040022 0.00711325 0.00341198 0.00401257 0.00119961 0.000699632 0.000324912
threshold=6.5000000000000009 4.5000000000000009 5.5000000000000009 2.5000000000000004 1.0000000180025095e-35 5.5000000000000009 1.5000000000000002 250.00000000000003 5.5000000000000009 11.500000000000002 -1.0000000180025095e-35 1.0000000180025095e-35
decision_type=2 2 2 2 2 2 2 2 2 2 2 2
left_child=2 -2 3 10 5 -4 -6 9 -9 -8 -1 -12
right_child=1 -3 4 -5 6 -7 7 8 -10 -11 11 -13
leaf_value=4.267057403922081e-05 -0.0001607628042042694 -0.0015457754557948128 -0.00079850434713686516 -0.00073997355805819525 -0.00029974953313781458 0.00024471978007472662 4.9858385909809713e-05 6.2410461915923026e-05 0.00041893018956255654 0.00013932787513112999 0.00021857898014233164 0.00010835697548463941
leaf_weight=31 34 21 24 34 22 38 946 28 23 64 23 20
leaf_count=31 34 21 24 34 22 38 946 28 23 64 23 20
internal_value=-2.72356e-06 -0.000689586 2.7426e-05 -0.000154091 4.45473e-05 -0.000159109 5.62063e-05 6.35871e-05 0.000223194 5.55277e-05 0.000115098 0.000167313
internal_weight=1308 55 1253 108 1145 62 1083 1061 51 1010 74 43
internal_count=1308 55 1253 108 1145 62 1083 1061 51 1010 74 43
is_linear=0
shrinkage=0.02


Tree=68
num_leaves=11
num_cat=0
split_feature=37 2 32 22 8 24 34 23 8 24
split_gain=0.0469556 0.121135 0.190492 0.0350153 0.0887851 0.0228202 0.00445779 0.000650889 0.000560336 0.00050442
threshold=1.0000000180025095e-35 1.0000000180025095e-35 45.500000000000007 1.0000000180025095e-35 3.5000000000000004 26.500000000000004 5.5000000000000009 250.00000000000003 5.5000000000000009 24.500000000000004
decision_type=2 2 2 2 2 2 2 2 2 2
left_child=1 2 -1 4 -2 6 -5 9 -9 -8
right_child=3 -3 -4 5 -6 -7 7 8 -10 -11
leaf_value=-0.0018990746291505324 8.5280758378628122e-05 0.00045669394555840299 6.9068579358004385e-05 0.00029260611161589621 -0.0015337541401386262 -0.00044452511653718027 5.0322177161632617e-05 6.7825041785529188e-05 0.00014737001503817738 0.00011757546524328992
leaf_weight=37 42 44 42 34 20 36 877 91 58 47
leaf_count=37 42 44 42 34 20 36 877 91 58 47
internal_value=-1.20782e-05 -0.000384312 -0.00085272 2.59175e-05 -0.000436989 5.1027e-05 6.71425e-05 5.99983e-05 9.87889e-05 5.37431e-05
internal_weight=1328 123 79 1205 62 1143 1107 1073 149 924
internal_count=1328 123 79 1205 62 1143 1107 1073 149 924
is_linear=0
shrinkage=0.02


Tree=69
num_leaves=9
num_cat=0
split_feature=15 17 17 39 17 22 17 22
split_gain=1.45075 0.0201257 0.00979867 0.00624998 0.0150061 0.0250586 0.00531426 0.00679648
threshold=-1.0000000180025095e-35 14.500000000000002 12.500000000000002 250.00000000000003 6.5000000000000009 65.000000000000014 10.500000000000002 335.00000000000006
decision_type=2 2 2 2 2 2 2 2
left_child=1 2 3 6 5 -5 7 -1
right_child=-2 -3 -4 4 -6 -7 -8 -9
leaf_value=5.4643226813483839e-05 -0.0052294485341934926 -0.00046084800602069927 0.00046549474175732868 0.00097692033275961873 -0.00022707703035502208 0.00012608845411644627 -0.00020170971207941573 0.00024812578893780042
leaf_weight=1053 21 28 26 20 21 45 30 78
leaf_count=1053 21 28 26 20 21 45 30 78
internal_value=-1.46246e-05 6.95501e-05 8.12164e-05 7.32042e-05 0.000237718 0.000387883 6.10179e-05 6.79869e-05
internal_weight=1322 1301 1273 1247 86 65 1161 1131
internal_count=1322 1301 1273 1247 86 65 1161 1131
is_linear=0
shrinkage=0.02


Tree=70
num_leaves=17
num_cat=0
split_feature=17 39 32 21 8 18 8 23 17 24 39 39 33 9 9 32
split_gain=0.0683753 0.216159 0.0258457 0.0160914 0.0817325 0.0154254 0.0757502 0.00717332 0.013476 0.00202092 0.00136122 0.00043336 0.000402983 0.000196502 5.35357e-05 1.45843e-05
threshold=10.500000000000002 1.0000000180025095e-35 19.500000000000004 1.0000000180025095e-35 3.5000000000000004 5.5000000000000009 3.5000000000000004 250.00000000000003 5.5000000000000009 26.500000000000004 250.00000000000003 120.00000000000001 11.500000000000002 1.5000000000000002 2.5000000000000004 43.500000000000007
decision_type=2 2 2 2 2 2 2 2 2 2 2 2 2 2 2 2
left_child=3 -2 -3 4 13 6 -5 9 15 12 -4 -8 -7 -1 -13 -9
right_child=1 2 10 5 -6 7 11 8 -10 -11 -12 14 -14 -15 -16 -17
leaf_value=3.9342930540442468e-05 -0.0022692022608085112 -0.00059453999446261495 0.00015268510921547811 -0.0012894431932363659 -0.0013599510230123996 4.6915107085509196e-05 0.00017317555092934828 5.4147332994034516e-05 0.00059537268243730073 0.00024413506966084242 0.0003626314590552023 4.953720893424291e-05 0.00010371880398246125 0.0001054239898092217 9.2471519906428594e-05 3.1369989067214825e-05
leaf_weight=30 22 21 30 20 20 870 24 22 29 22 21 26 53 45 21 23
leaf_count=30 22 21 30 20 20 870 24 22 29 22 21 26 53 45 21 23
internal_value=-1.46471e-05 -0.00053417 -4.02119e-06 2.58799e-05 -0.000223944 4.72613e-05 -0.000202228 6.95415e-05 0.00025917 5.46923e-05 0.000239134 0.000104029 5.01769e-05 7.89916e-05 6.87206e-05 4.25056e-05
internal_weight=1299 94 72 1205 95 1110 91 1019 74 945 51 71 923 75 47 45
internal_count=1299 94 72 1205 95 1110 91 1019 74 945 51 71 923 75 47 45
is_linear=0
shrinkage=0.02


Tree=71
num_leaves=14
num_cat=0
split_feature=15 33 36 38 20 22 32 18 19 24 16 34 19
split_gain=1.40908 0.0429244 0.250294 0.0121595 0.0655174 0.0075879 0.0106602 0.00224849 0.00530572 0.00223656 0.00206009 0.000754396 0.000180139
threshold=-1.0000000180025095e-35 11.500000000000002 2.5000000000000004 65.000000000000014 1.0000000180025095e-35 85.000000000000014 43.500000000000007 5.5000000000000009 5.5000000000000009 26.500000000000004 5.5000000000000009 5.5000000000000009 3.5000000000000004
decision_type=2 2 2 2 2 2 2 2 2 2 2 2 2
left_child=1 3 -3 4 7 6 -5 8 -1 12 -7 -12 -4
right_child=-2 2 9 5 -6 10 -8 -9 -10 -11 11 -13 -14
leaf_value=-0.00020127572227890295 -0.0051630548352286929 -0.0023370981037151069 5.6028161104768516e-05 0.00066734486748464418 0.001218931614421308 0.00024507727797912514 4.2145465073796616e-05 0.0001815465393301565 0.00014873300383730633 0.00031475720275193453 0.00015232860622927549 5.0463064453977746e-05 0.00013655761029804126
